{
  "num_layers": 6,
  "layer0": {
    "name": "Conv2d",
    "in_channels": 14,
    "out_channels": 64,
    "weight": [
      -0.3551008999347687,
      -0.2862524390220642,
      0.008396649733185768,
      0.2227201610803604,
      0.338273286819458,
      0.4790150821208954,
      0.08516968786716461,
      0.08659873902797699,
      0.02758534625172615,
      -0.20501120388507843,
      0.1154322624206543,
      0.33279484510421753,
      -0.019718637689948082,
      0.22758479416370392,
      -0.06515689939260483,
      -0.0657036304473877,
      -0.3274790942668915,
      -0.002754835644736886,
      0.4451925456523895,
      -0.2193959802389145,
      -0.09457077085971832,
      0.21787524223327637,
      -0.2229311168193817,
      -0.13982468843460083,
      -0.004215452820062637,
      0.27236074209213257,
      0.1745377779006958,
      0.055733516812324524,
      -0.13002485036849976,
      0.0465078242123127,
      -0.5240851044654846,
      -0.2948952615261078,
      0.41237160563468933,
      -0.13134066760540009,
      0.25153592228889465,
      -0.029591942206025124,
      -0.30350738763809204,
      0.21399427950382233,
      0.0192521084100008,
      0.17352838814258575,
      -0.03200175613164902,
      0.2735882103443146,
      0.47266778349876404,
      -0.20227567851543427,
      -0.49529579281806946,
      0.08920198678970337,
      -0.11164027452468872,
      -0.2227049022912979,
      0.026988187804818153,
      0.17052416503429413,
      0.1622413694858551,
      0.3530079424381256,
      0.3075364828109741,
      -0.17661958932876587,
      -0.06260073930025101,
      0.2530447542667389,
      0.32739153504371643,
      0.39067578315734863,
      -0.450612872838974,
      0.06006366387009621,
      -0.06023894250392914,
      0.12365759909152985,
      -0.16501599550247192,
      0.35364606976509094,
      -0.03973895683884621,
      -0.05287299305200577,
      0.16053220629692078,
      0.045908790081739426,
      0.08280517160892487,
      0.06635376065969467,
      0.13965162634849548,
      -0.18074452877044678,
      0.040790557861328125,
      -0.1723480224609375,
      -0.057629868388175964,
      0.01979881525039673,
      -0.062238484621047974,
      -0.24957650899887085,
      -0.09840713441371918,
      -0.18083560466766357,
      -0.20565280318260193,
      -0.06748063862323761,
      -0.173466295003891,
      -0.19346030056476593,
      0.6694751977920532,
      0.27881094813346863,
      -0.5708864331245422,
      -0.047628726810216904,
      0.15593990683555603,
      0.15180431306362152,
      0.19858182966709137,
      0.040789637714624405,
      -0.1614104062318802,
      -0.11095107346773148,
      -0.047077786177396774,
      -0.17044229805469513,
      0.1460532695055008,
      0.16345089673995972,
      -0.24370522797107697,
      0.375654399394989,
      0.6144448518753052,
      0.295523077249527,
      -0.012183102779090405,
      0.06414150446653366,
      0.2258596420288086,
      -0.24054203927516937,
      0.22794575989246368,
      0.16762277483940125,
      0.06644134968519211,
      0.08319445699453354,
      -0.10213178396224976,
      -0.08111836761236191,
      -0.45887619256973267,
      0.22967223823070526,
      -0.09299042075872421,
      0.5083118677139282,
      0.3857188820838928,
      0.13499762117862701,
      -0.12776455283164978,
      0.08754552155733109,
      0.20521920919418335,
      0.28794077038764954,
      -0.07085844874382019,
      0.06849414855241776,
      0.016880547627806664,
      -0.12999585270881653,
      -0.4895632266998291,
      0.4755925238132477,
      0.2755596339702606,
      0.0928938239812851,
      0.12003441154956818,
      0.16699056327342987,
      0.046277958899736404,
      -0.14558841288089752,
      0.1787780523300171,
      -0.024836169555783272,
      0.048508234322071075,
      -0.0007844680221751332,
      -0.0013904602965340018,
      0.1691177785396576,
      -0.42821887135505676,
      0.0755152478814125,
      -0.0551721416413784,
      0.19897595047950745,
      -0.2112756222486496,
      -0.1234484389424324,
      -0.3087213337421417,
      -0.16687491536140442,
      0.0949246734380722,
      0.2965331971645355,
      0.05251895263791084,
      -0.05101722106337547,
      0.2297365367412567,
      0.19140660762786865,
      -0.19343040883541107,
      -0.22167693078517914,
      0.3465954661369324,
      0.19844350218772888,
      0.2733192443847656,
      0.4652872085571289,
      0.26929131150245667,
      0.13815122842788696,
      0.2557947039604187,
      -0.25922495126724243,
      -0.1734175980091095,
      -0.08766605705022812,
      0.1998387575149536,
      -0.007558588404208422,
      0.3499392569065094,
      0.437287300825119,
      0.08487125486135483,
      0.4114671051502228,
      0.19216540455818176,
      0.18836864829063416,
      -0.09818478673696518,
      -0.11357118934392929,
      0.07918310165405273,
      -0.07214923202991486,
      -0.2709628641605377,
      0.11861537396907806,
      -0.22763285040855408,
      -0.1850268393754959,
      0.6431171894073486,
      0.03699304908514023,
      0.3271524906158447,
      -0.09269313514232635,
      0.1053246557712555,
      -0.054528072476387024,
      0.27023935317993164,
      -0.2271576076745987,
      0.012233064509928226,
      0.31270042061805725,
      0.23362916707992554,
      -0.2973334491252899,
      -0.013002502731978893,
      -0.00856674276292324,
      0.5733614563941956,
      0.426872193813324,
      -0.5065054893493652,
      -0.31429892778396606,
      0.3154391050338745,
      0.21482312679290771,
      0.12729868292808533,
      -0.02205795980989933,
      0.16566568613052368,
      -0.20468096435070038,
      0.042023915797472,
      0.0355064831674099,
      0.1742190718650818,
      -0.11920777708292007,
      0.004568006843328476,
      0.576363205909729,
      -0.16908709704875946,
      0.09727898985147476,
      -0.1916605830192566,
      0.26704007387161255,
      0.2461097687482834,
      0.14968186616897583,
      -0.2916920781135559,
      -0.12018199265003204,
      0.261160671710968,
      0.048843372613191605,
      0.115073561668396,
      -0.11613237857818604,
      0.0878438800573349,
      -0.18132992088794708,
      -0.03068525530397892,
      0.3959033489227295,
      0.3651840090751648,
      -0.32022008299827576,
      0.16446179151535034,
      0.024310721084475517,
      0.1205933466553688,
      -0.01467472966760397,
      0.34589096903800964,
      0.07260023802518845,
      0.0916888564825058,
      0.05090610310435295,
      0.23480041325092316,
      -0.24799872934818268,
      0.5464193820953369,
      -0.24448715150356293,
      -0.1873435229063034,
      0.14658917486667633,
      -0.2061363011598587,
      -0.10821466892957687,
      -0.21651411056518555,
      0.13267767429351807,
      0.14299564063549042,
      0.04092951491475105,
      0.08830327540636063,
      -0.01897577755153179,
      -0.20924705266952515,
      0.4210669994354248,
      -0.022903379052877426,
      -0.1618327796459198,
      -0.07989754527807236,
      0.056063514202833176,
      0.3921948969364166,
      0.09575167298316956,
      0.1588752716779709,
      -0.04036697372794151,
      -0.030172087252140045,
      0.33176136016845703,
      -0.08999552577733994,
      -0.10992396622896194,
      0.4376111924648285,
      -0.16833867132663727,
      -0.30634036660194397,
      -0.1366918683052063,
      -0.17415885627269745,
      0.45283883810043335,
      0.21807755529880524,
      0.15383927524089813,
      -0.15452124178409576,
      -0.22422342002391815,
      0.1867274045944214,
      0.06930818408727646,
      -0.139526829123497,
      -0.05166381970047951,
      -0.19521552324295044,
      -0.02156803570687771,
      0.06112651526927948,
      0.15547791123390198,
      0.3193456828594208,
      -0.1800348162651062,
      -0.10838665813207626,
      0.2843928635120392,
      0.05935369431972504,
      -0.1870850771665573,
      0.22284431755542755,
      -0.10411296784877777,
      -0.14774248003959656,
      0.17388705909252167,
      -0.1788923144340515,
      0.18988095223903656,
      0.1432752162218094,
      0.4842627942562103,
      -0.1096944510936737,
      0.3939037024974823,
      0.1316913217306137,
      -0.23212425410747528,
      0.20038902759552002,
      -0.27351468801498413,
      0.2162620723247528,
      -0.10310804098844528,
      -0.2107420712709427,
      0.09772558510303497,
      -0.30044010281562805,
      -0.41446587443351746,
      0.6404718160629272,
      0.02630644477903843,
      0.19242644309997559,
      -0.06479606032371521,
      0.17133674025535583,
      0.24707557260990143,
      0.18933282792568207,
      0.10786690562963486,
      -0.13781073689460754,
      -0.07136107981204987,
      0.25386843085289,
      -0.12051782757043839,
      -0.07454107701778412,
      0.1848815679550171,
      -0.24441951513290405,
      -0.015968739986419678,
      -0.04674436151981354,
      -0.07430891692638397,
      -0.06088609993457794,
      -0.09797532856464386,
      0.12670794129371643,
      -0.0634070485830307,
      -0.2041284739971161,
      -0.11691790819168091,
      0.22300457954406738,
      -0.011047810316085815,
      0.3282487392425537,
      -0.12233114242553711,
      0.21999141573905945,
      0.31077149510383606,
      0.15406151115894318,
      -0.3008665442466736,
      -0.010906956158578396,
      0.1243278831243515,
      -0.05637455731630325,
      -0.15101085603237152,
      0.14501190185546875,
      -0.0422450490295887,
      -0.04233746603131294,
      -0.15301376581192017,
      -0.26429232954978943,
      0.47215670347213745,
      -0.48449328541755676,
      0.42620307207107544,
      -0.0006908166105858982,
      0.01241019181907177,
      0.13487641513347626,
      -0.16140568256378174,
      0.33493220806121826,
      -0.04873652756214142,
      0.3847038149833679,
      0.1887952983379364,
      0.15577727556228638,
      -0.05548016354441643,
      -0.47100651264190674,
      0.47747519612312317,
      0.3467935025691986,
      0.18732231855392456,
      0.07420572638511658,
      -0.2800009846687317,
      0.0019753535743802786,
      0.1034766361117363,
      0.08983410894870758,
      0.126698836684227,
      0.2432289719581604,
      -0.0085282102227211,
      -0.06369587033987045,
      0.19841136038303375,
      0.577163815498352,
      -0.2666739523410797,
      0.5731723308563232,
      -0.16405139863491058,
      0.3192669153213501,
      0.23891036212444305,
      0.10340382903814316,
      0.03651025518774986,
      -0.17738910019397736,
      -0.2039644867181778,
      -0.18976959586143494,
      0.13910166919231415,
      0.12561644613742828,
      0.19207407534122467,
      0.06525979191064835,
      -0.6289430260658264,
      0.06536800414323807,
      0.22025969624519348,
      0.19750553369522095,
      0.20798690617084503,
      -0.16394205391407013,
      0.19462333619594574,
      -0.10177715122699738,
      -0.09709331393241882,
      0.3903007507324219,
      0.21996323764324188,
      -0.07251682877540588,
      -0.027194498106837273,
      0.279526948928833,
      -0.3997114598751068,
      0.09451262652873993,
      0.3402710556983948,
      0.0577872097492218,
      0.1176496297121048,
      0.28059425950050354,
      -0.21708160638809204,
      0.1284053772687912,
      -0.1862063854932785,
      -0.17178259789943695,
      0.08052793890237808,
      0.13380658626556396,
      0.23789526522159576,
      -0.007352191489189863,
      0.057787567377090454,
      -0.20620791614055634,
      -0.10286706686019897,
      0.24190866947174072,
      -0.011409391649067402,
      -0.26174935698509216,
      0.042685385793447495,
      0.23969410359859467,
      0.0061617158353328705,
      -0.18768464028835297,
      -0.17978715896606445,
      0.21598291397094727,
      -0.1848856657743454,
      0.06583328545093536,
      -0.1928589791059494,
      -0.21211567521095276,
      0.25438931584358215,
      0.3732765018939972,
      0.30408215522766113,
      -0.02448982372879982,
      -0.1812671273946762,
      0.20977428555488586,
      -0.084516242146492,
      0.16932010650634766,
      0.10020777583122253,
      0.21587921679019928,
      -0.12394579499959946,
      0.41405004262924194,
      0.13718852400779724,
      -0.2766302824020386,
      -0.08089565485715866,
      0.2123854011297226,
      -0.5410131216049194,
      -0.21519817411899567,
      -0.008494289591908455,
      0.3343314230442047,
      -0.10698176175355911,
      0.25020408630371094,
      -0.11712022870779037,
      0.03342970833182335,
      0.00466540502384305,
      0.01981326937675476,
      -0.1510377824306488,
      0.0028635263442993164,
      0.1930476725101471,
      -0.1855987012386322,
      -0.11258535087108612,
      -0.2099139243364334,
      -0.21796728670597076,
      -0.25150880217552185,
      -0.03594677150249481,
      -0.14079374074935913,
      -0.18714794516563416,
      -0.25721967220306396,
      -0.0013889074325561523,
      0.4192642271518707,
      -0.5974348783493042,
      0.2536042332649231,
      0.07739110291004181,
      -0.07695062458515167,
      0.0011453148908913136,
      -0.2030792385339737,
      0.11363273113965988,
      0.18444301187992096,
      -0.0101691959425807,
      -0.08306291699409485,
      0.18703733384609222,
      0.018360374495387077,
      -0.005370598752051592,
      -0.22373710572719574,
      -0.11005978286266327,
      0.11060243844985962,
      -0.23123109340667725,
      -0.17943182587623596,
      0.04785984754562378,
      -0.080286905169487,
      -0.04061056673526764,
      -0.18932949006557465,
      0.06982043385505676,
      -0.15327832102775574,
      -0.01866328716278076,
      0.2573312222957611,
      0.07835128903388977,
      -0.07938222587108612,
      0.17435961961746216,
      0.4709850251674652,
      0.27135148644447327,
      0.3345843255519867,
      0.31999266147613525,
      0.2413843274116516,
      0.0726826936006546,
      0.1153654009103775,
      -0.4459194839000702,
      -0.25271955132484436,
      -0.11024073511362076,
      -0.037672702223062515,
      0.06077041104435921,
      -0.21718089282512665,
      0.3177465498447418,
      -0.05471133068203926,
      -0.3174031376838684,
      0.11454828083515167,
      0.4969679117202759,
      -0.07294487208127975,
      -0.022838197648525238,
      -0.15166035294532776,
      -0.13512976467609406,
      0.3388524353504181,
      0.21741817891597748,
      0.0432472825050354,
      0.2497739940881729,
      0.3908538818359375,
      0.5148709416389465,
      -0.40981873869895935,
      0.08789147436618805,
      -0.0370040088891983,
      0.29816460609436035,
      0.014081953093409538,
      0.14397339522838593,
      -0.2760666608810425,
      -0.05862318351864815,
      -0.08463010936975479,
      0.10386433452367783,
      -0.1163872703909874,
      -0.07948487251996994,
      -0.22486114501953125,
      0.15201374888420105,
      -0.4919813573360443,
      0.2471313774585724,
      0.2727414071559906,
      0.25413602590560913,
      -0.11505516618490219,
      0.07030561566352844,
      0.2521824538707733,
      0.1566876471042633,
      0.008213674649596214,
      -0.17080794274806976,
      -0.11663732677698135,
      0.2854068875312805,
      0.10351463407278061,
      -0.5037378668785095,
      -0.040588416159152985,
      -0.11010564863681793,
      0.22893303632736206,
      0.07649987936019897,
      -0.11028063297271729,
      -0.034843917936086655,
      0.09270717203617096,
      0.15062393248081207,
      0.16260825097560883,
      0.0805157870054245,
      -0.014566570520401001,
      0.12219579517841339,
      0.3352348208427429,
      -0.07854456454515457,
      -0.09351087361574173,
      0.4213881194591522,
      0.2118571400642395,
      0.23725326359272003,
      -0.25633159279823303,
      0.15358854830265045,
      -0.0731155052781105,
      0.03749089315533638,
      0.008354241028428078,
      0.15277060866355896,
      0.12970854341983795,
      0.24476298689842224,
      0.4105318784713745,
      0.473369300365448,
      0.46922412514686584,
      0.17706678807735443,
      -0.1293710470199585,
      0.013497576117515564,
      -0.008818069472908974,
      -0.08587175607681274,
      -0.06072131544351578,
      -0.07128939777612686,
      -0.039980072528123856,
      0.0630870908498764,
      0.07699109613895416,
      0.006209807936102152,
      0.6233938932418823,
      0.5990023016929626,
      0.42331981658935547,
      -0.055354926735162735,
      0.19082267582416534,
      0.18662196397781372,
      -0.25124791264533997,
      -0.03700155392289162,
      -0.17310477793216705,
      0.056592315435409546,
      -0.14571790397167206,
      -0.15187257528305054,
      0.039363566786050797,
      -0.03617289289832115,
      0.08227001130580902,
      -0.4603499174118042,
      -0.23907601833343506,
      0.1540890634059906,
      0.13052307069301605,
      0.46865469217300415,
      0.301688015460968,
      0.06270533055067062,
      -0.1434556096792221,
      -0.10581697523593903,
      0.2079988420009613,
      0.30718737840652466,
      0.05342335253953934,
      -0.09035596996545792,
      0.6916280388832092,
      0.15354491770267487,
      -0.23648029565811157,
      0.3868025839328766,
      -0.09835771471261978,
      0.3105796277523041,
      0.09744778275489807,
      -0.16126050055027008,
      0.26633593440055847,
      -0.190805122256279,
      0.2588512599468231,
      -0.13424398005008698,
      -0.08304383605718613,
      0.23874850571155548,
      0.36241403222084045,
      0.4760160446166992,
      0.5114434361457825,
      -0.38465452194213867,
      0.3158279061317444,
      -0.09952983260154724,
      -0.09786496311426163,
      0.15733005106449127,
      -0.2717881202697754,
      0.03242015838623047,
      -0.1881226748228073,
      -0.07161173224449158,
      -0.046397965401411057,
      -0.005143577698618174,
      -0.35091543197631836,
      0.48414158821105957,
      0.02585427835583687,
      0.41158655285835266,
      0.09502285718917847,
      0.23653405904769897,
      0.03590985760092735,
      -0.15034162998199463,
      -0.20998045802116394,
      0.17821931838989258,
      -0.13119898736476898,
      0.05570788308978081,
      0.12760953605175018,
      0.0977528914809227,
      0.2831042408943176,
      -0.2708513140678406,
      -0.02396473102271557,
      0.0588100403547287,
      0.092876136302948,
      0.08623431622982025,
      -0.14943835139274597,
      0.15138758718967438,
      0.016399990767240524,
      0.3114631175994873,
      0.3767206370830536,
      -0.1200227215886116,
      0.21323756873607635,
      -0.2398855984210968,
      -0.45846861600875854,
      -0.0232095830142498,
      0.20166634023189545,
      -0.2506368160247803,
      0.38495469093322754,
      0.24431851506233215,
      -0.0735817402601242,
      -0.14151206612586975,
      0.17515696585178375,
      0.43388980627059937,
      0.024908028542995453,
      0.06459463387727737,
      -0.027091002091765404,
      0.10509485006332397,
      -0.1397535353899002,
      -0.06459350138902664,
      0.5945471525192261,
      -0.38047459721565247,
      -0.1461591124534607,
      0.04577396810054779,
      -0.0565808042883873,
      -0.028015004470944405,
      -0.19400008022785187,
      -0.037060510367155075,
      -0.011219089850783348,
      0.08203999698162079,
      0.10649684816598892,
      0.21161529421806335,
      0.42105305194854736,
      -0.33356231451034546,
      0.5769780278205872,
      0.44806790351867676,
      -0.3657309412956238,
      0.4133132994174957,
      0.2814849317073822,
      -0.009323669597506523,
      0.013761650770902634,
      0.13445283472537994,
      0.18476751446723938,
      -0.16934360563755035,
      -0.19357967376708984,
      0.09096165001392365,
      -0.24118781089782715,
      -0.07881642878055573,
      -0.38731691241264343,
      -0.2928979992866516,
      0.38831424713134766,
      0.128468319773674,
      -0.1142023578286171,
      -0.126304492354393,
      -0.21404770016670227,
      0.2349550873041153,
      0.37676921486854553,
      0.025280488654971123,
      0.07395203411579132,
      -0.16004599630832672,
      -0.4705778956413269,
      0.09080398827791214,
      0.5459033846855164,
      0.28525280952453613,
      0.13419859111309052,
      -0.1188793033361435,
      0.046693045645952225,
      -0.053100116550922394,
      0.20538529753684998,
      0.033252786844968796,
      -0.22841531038284302,
      -0.17402777075767517,
      -0.08935122936964035,
      0.08845541626214981,
      -0.2570943832397461,
      0.23163600265979767,
      -0.2708088159561157,
      -0.38058802485466003,
      -0.046736206859350204,
      0.176274374127388,
      0.38944393396377563,
      0.22445480525493622,
      0.2055683732032776,
      0.36707285046577454,
      0.05283847451210022,
      0.2767028510570526,
      -0.13725940883159637,
      0.12052075564861298,
      0.3990246057510376,
      0.2815677225589752,
      0.6425535082817078,
      -0.337358683347702,
      -0.0626935213804245,
      -0.22321324050426483,
      0.10049103945493698,
      0.11309317499399185,
      0.030984297394752502,
      -0.019666628912091255,
      -0.2506394684314728,
      -0.06082281842827797,
      0.2134450227022171,
      0.254949152469635,
      0.28757891058921814,
      0.005832546390593052,
      0.4498794972896576,
      -0.215901181101799,
      0.26771631836891174,
      -0.24624314904212952,
      -0.09253714233636856,
      0.27801772952079773,
      -0.2516119182109833,
      -0.004036314785480499,
      0.29589587450027466,
      0.015151596628129482,
      -0.1365654617547989,
      -0.2526048719882965,
      0.22264128923416138,
      -0.2789930999279022,
      -0.19154900312423706,
      0.4882642328739166,
      0.31111225485801697,
      -0.13031917810440063,
      -0.022002866491675377,
      -0.009494922123849392,
      0.3811199963092804,
      0.21756093204021454,
      0.234510600566864,
      -0.12681519985198975,
      0.20618654787540436,
      -0.09050513058900833,
      0.12846682965755463,
      0.12830543518066406,
      0.21182674169540405,
      0.17512741684913635,
      0.36948999762535095,
      -0.4200560748577118,
      -0.28068965673446655,
      -0.15395322442054749,
      -0.10371071845293045,
      0.3157758414745331,
      0.05581844598054886,
      0.08222855627536774,
      -0.14038680493831635,
      -0.1537935435771942,
      -0.4790286719799042,
      0.2583666741847992,
      -0.16692373156547546,
      -0.18234114348888397,
      -0.018940333276987076,
      0.04825102537870407,
      -0.037065379321575165,
      0.15457408130168915,
      -0.15405407547950745,
      0.3095833957195282,
      0.019063567742705345,
      0.21928538382053375,
      0.17981648445129395,
      0.22318843007087708,
      -0.07342782616615295,
      -0.20281274616718292,
      -0.018698707222938538,
      0.08844342827796936,
      0.19087466597557068,
      -0.17787876725196838,
      0.08198267221450806,
      -0.0981438159942627,
      -0.17318448424339294,
      -0.21076589822769165,
      0.16851350665092468,
      0.03720080852508545,
      -0.1997612863779068,
      0.01557159423828125,
      -0.10701809823513031,
      -0.46973365545272827,
      -0.062334030866622925,
      0.37529677152633667,
      0.21338795125484467,
      -0.09163113683462143,
      -0.01154260989278555,
      -0.05369590222835541,
      -0.05432523414492607,
      0.4134949743747711,
      0.12540200352668762,
      0.2942866086959839,
      0.11117663979530334,
      0.08679614961147308,
      0.4851435720920563,
      0.41254922747612,
      0.19296905398368835,
      0.16840997338294983,
      0.21938864886760712,
      0.05855317786335945,
      -0.03262688219547272,
      0.26036250591278076,
      0.05055391043424606,
      -0.3145691156387329,
      -0.15163645148277283,
      -0.040796760469675064,
      0.12849749624729156,
      -0.007049835752695799,
      0.04331192746758461,
      0.4312448501586914,
      -0.2986879050731659,
      -0.181385338306427,
      0.3523547053337097,
      -0.3752419948577881,
      0.03773419186472893,
      -0.007918855175375938,
      0.011876793578267097,
      0.2430855929851532,
      0.31983914971351624,
      0.278215616941452,
      0.22386573255062103,
      -0.020184339955449104
    ],
    "bias": [
      0.29793521761894226,
      0.32092830538749695,
      0.3765576481819153,
      -0.00822584517300129,
      0.3056306838989258,
      -0.2465495467185974,
      0.2190886288881302,
      -0.10472553223371506,
      -0.05166826769709587,
      -0.032514169812202454,
      0.4082944691181183,
      -0.07908447831869125,
      0.20725330710411072,
      0.12162750959396362,
      0.03739910572767258,
      0.029207326471805573,
      0.113037109375,
      0.1869535595178604,
      0.1325020045042038,
      0.34914064407348633,
      0.23616856336593628,
      0.07399731129407883,
      0.14419205486774445,
      -0.139719158411026,
      0.15115053951740265,
      -0.07711981236934662,
      -0.17503799498081207,
      -0.1890190839767456,
      0.016064219176769257,
      0.17280815541744232,
      -0.2041618525981903,
      -0.10723930597305298,
      0.061980973929166794,
      -0.10821622610092163,
      -0.0496051087975502,
      -0.2530688941478729,
      -0.12176471203565598,
      0.03269889950752258,
      0.25118395686149597,
      0.18478886783123016,
      0.10199304670095444,
      0.03295508772134781,
      -0.2460804134607315,
      -0.2802187204360962,
      -0.02127676084637642,
      -0.16365936398506165,
      -0.19838939607143402,
      -0.04793880879878998,
      0.16003069281578064,
      0.38302838802337646,
      0.25642040371894836,
      -0.1302136927843094,
      0.2721306085586548,
      0.1733626127243042,
      0.23574477434158325,
      0.08443555235862732,
      0.25709056854248047,
      -0.06247482821345329,
      0.10399235785007477,
      0.1436714380979538,
      -0.19448712468147278,
      0.33181753754615784,
      -0.40742090344429016,
      -0.11263322085142136
    ]
  },
  "layer1": {
    "name": "ReLU"
  },
  "layer2": {
    "name": "Conv2d",
    "in_channels": 64,
    "out_channels": 64,
    "weight": [
      -0.07401103526353836,
      -0.011391966603696346,
      -0.08987634629011154,
      -0.024678558111190796,
      -0.10650164633989334,
      0.054311007261276245,
      -0.010939780622720718,
      0.20455484092235565,
      0.08784619718790054,
      0.15200795233249664,
      0.16446389257907867,
      0.07967264950275421,
      0.11745207011699677,
      -0.04527515172958374,
      -0.17716370522975922,
      -0.13379301130771637,
      0.03734443709254265,
      0.039402496069669724,
      -0.1697731912136078,
      -0.004647531546652317,
      -0.044243354350328445,
      0.08159110695123672,
      0.17553971707820892,
      -0.05680482089519501,
      0.06140608340501785,
      0.09688188135623932,
      0.1742946207523346,
      0.10767924785614014,
      -0.054207101464271545,
      0.13566529750823975,
      -0.08981585502624512,
      -0.07616709917783737,
      0.0150957852602005,
      -0.022337540984153748,
      0.25161808729171753,
      -0.10003140568733215,
      0.27380043268203735,
      -0.0783698633313179,
      -0.011573203839361668,
      -0.09482257068157196,
      -0.060995109379291534,
      0.1209358498454094,
      0.259840726852417,
      0.21244409680366516,
      -0.13740020990371704,
      0.08860937505960464,
      -0.023352520540356636,
      0.028540683910250664,
      -0.10968426614999771,
      -0.12037253379821777,
      -0.08871802687644958,
      0.029502466320991516,
      -0.25736379623413086,
      0.21805362403392792,
      -0.1718294471502304,
      -0.05559772998094559,
      0.10097158700227737,
      0.20336048305034637,
      0.18319296836853027,
      -0.1397077590227127,
      -0.10903945565223694,
      -0.03811851143836975,
      0.10430589318275452,
      0.02302039973437786,
      0.07638420164585114,
      0.017870182171463966,
      0.11304375529289246,
      -0.1163928359746933,
      0.10252846777439117,
      -0.0879347026348114,
      -0.01617024652659893,
      0.005759372375905514,
      -0.03599386662244797,
      -0.056642256677150726,
      -0.022288260981440544,
      0.01739317737519741,
      0.07475548982620239,
      0.0018000981071963906,
      -0.033415745943784714,
      0.11412975192070007,
      -0.060294345021247864,
      0.038003381341695786,
      -0.07186470180749893,
      0.11643864959478378,
      -0.11426598578691483,
      -0.003004384459927678,
      0.1035667434334755,
      -0.10298116505146027,
      0.03352178633213043,
      -0.1087077334523201,
      0.05245763808488846,
      0.06694845110177994,
      0.010923490859568119,
      -0.03060217760503292,
      0.07059645652770996,
      -0.04107729718089104,
      -0.07593786716461182,
      -0.12029328942298889,
      0.1042882427573204,
      -0.01081337034702301,
      0.008668700233101845,
      -0.017124608159065247,
      -0.039551421999931335,
      -0.11625684052705765,
      0.09910915791988373,
      -0.06948792934417725,
      -0.12149073928594589,
      0.05597835034132004,
      -0.11443480849266052,
      -0.09830359369516373,
      0.09238096326589584,
      0.04894976317882538,
      0.01557204034179449,
      -0.1091790571808815,
      -0.10809916257858276,
      0.0191320963203907,
      -0.10405620187520981,
      -0.06671377271413803,
      0.07594750821590424,
      -0.041445937007665634,
      -0.10537999123334885,
      -0.0665203183889389,
      0.08502619713544846,
      0.04112963005900383,
      0.04659321904182434,
      0.005550232250243425,
      -0.013022467494010925,
      -0.0486808605492115,
      0.024216264486312866,
      0.19164203107357025,
      0.10550660640001297,
      0.09862731397151947,
      -0.017560463398694992,
      0.07694561779499054,
      0.1134810671210289,
      -0.0027374508790671825,
      -0.32299479842185974,
      -0.29438352584838867,
      -0.06131929159164429,
      -0.051003944128751755,
      -0.1592896729707718,
      0.06294357776641846,
      -0.10472118109464645,
      -0.01796400547027588,
      0.04660961031913757,
      0.16571788489818573,
      -0.2350766658782959,
      0.21135273575782776,
      -0.09069951623678207,
      -0.029408179223537445,
      0.03909642621874809,
      0.040130093693733215,
      0.14470461010932922,
      -0.2100812941789627,
      -0.07899761199951172,
      0.227683886885643,
      0.23716020584106445,
      0.1469067484140396,
      0.0004987716674804688,
      0.1243765652179718,
      -0.004564066883176565,
      -0.06332109868526459,
      0.1894826740026474,
      0.1130068451166153,
      -0.02450462244451046,
      0.03976665809750557,
      -0.012776902876794338,
      -0.05437909811735153,
      0.37258362770080566,
      0.14118264615535736,
      -0.0744718387722969,
      -0.22070083022117615,
      0.21591101586818695,
      0.05534793436527252,
      -0.14552243053913116,
      -0.27481314539909363,
      0.0008132922812364995,
      0.10153372585773468,
      0.18706072866916656,
      0.14541812241077423,
      0.18812894821166992,
      -0.07029275596141815,
      0.14630961418151855,
      -0.0394941046833992,
      0.08292094618082047,
      0.1864427626132965,
      -0.0008294584113173187,
      -0.12590394914150238,
      -0.11524802446365356,
      0.21489638090133667,
      -0.15854807198047638,
      -0.028040990233421326,
      0.11904815584421158,
      0.24438011646270752,
      0.08240201324224472,
      -0.08485684543848038,
      -0.023962076753377914,
      0.04251818358898163,
      -0.04403211921453476,
      0.0910838395357132,
      0.3418448865413666,
      0.12449898570775986,
      0.037201978266239166,
      0.23455965518951416,
      0.17115241289138794,
      -0.05933897942304611,
      -0.014608854427933693,
      -0.00427522137761116,
      0.20095719397068024,
      -0.2717113196849823,
      0.04947742074728012,
      -0.14180737733840942,
      0.2031053900718689,
      -0.011341691017150879,
      0.021845389157533646,
      -0.0389133095741272,
      0.21018218994140625,
      0.3207724392414093,
      0.24272897839546204,
      -0.13538195192813873,
      -0.03249185532331467,
      -0.06846378743648529,
      0.04704436659812927,
      0.19267885386943817,
      0.2553328573703766,
      -0.12382198870182037,
      0.3814016878604889,
      0.022802233695983887,
      0.18577466905117035,
      0.014444856904447079,
      0.031546302139759064,
      0.027024216949939728,
      0.006211373955011368,
      0.04676705598831177,
      -0.011052664369344711,
      0.1171557828783989,
      -0.023286014795303345,
      0.012996784411370754,
      0.03307616338133812,
      0.2408163994550705,
      0.13471771776676178,
      0.11993908137083054,
      -0.26408231258392334,
      0.04941658675670624,
      0.028249027207493782,
      0.19593118131160736,
      -0.0989765077829361,
      0.029879415407776833,
      0.13527265191078186,
      0.13363192975521088,
      0.06809711456298828,
      0.04482824355363846,
      -0.04901856184005737,
      0.10588793456554413,
      0.042303286492824554,
      0.16496527194976807,
      0.033579468727111816,
      0.28571823239326477,
      0.05246066674590111,
      0.05496584624052048,
      0.15113788843154907,
      0.09298355877399445,
      0.13551293313503265,
      -0.09171725064516068,
      0.11765848845243454,
      -0.17792950570583344,
      -0.11638189852237701,
      0.14220261573791504,
      0.1597398966550827,
      -0.0539100207388401,
      0.014098762534558773,
      -0.07898537069559097,
      0.18714214861392975,
      0.04433557018637657,
      -0.17264537513256073,
      -0.00992842111736536,
      0.17926578223705292,
      -0.11152957379817963,
      -0.012569463811814785,
      -0.07432135939598083,
      0.24436625838279724,
      -0.029218025505542755,
      0.07674814760684967,
      0.12793605029582977,
      0.19252167642116547,
      0.033406343311071396,
      0.03424913063645363,
      0.07225868105888367,
      0.3966462314128876,
      -0.024285554885864258,
      0.7417274713516235,
      -0.017333105206489563,
      0.06350217759609222,
      0.012574874795973301,
      -0.03566515073180199,
      0.1610907018184662,
      0.0954434871673584,
      0.12952648103237152,
      0.1454511284828186,
      0.10738898813724518,
      0.15628482401371002,
      0.07595673948526382,
      0.012395474128425121,
      -0.18328776955604553,
      -0.055609915405511856,
      -0.11411239951848984,
      -0.2869127094745636,
      -0.06582685559988022,
      0.01658417098224163,
      -0.02968698740005493,
      0.03883212059736252,
      0.022021926939487457,
      0.03914321959018707,
      0.1045587956905365,
      0.13288453221321106,
      -0.05290596932172775,
      0.04742385447025299,
      0.0422421395778656,
      0.2346489280462265,
      0.1098441407084465,
      -0.00198178319260478,
      -0.03418358042836189,
      -0.09417793899774551,
      0.06860513985157013,
      -0.08072015643119812,
      -0.04434768855571747,
      -0.06734924763441086,
      -0.12575523555278778,
      0.076015405356884,
      -0.06626185774803162,
      0.05749662220478058,
      0.04096405580639839,
      -0.01742456667125225,
      0.032580360770225525,
      -0.016091719269752502,
      0.06571253389120102,
      -0.07317175716161728,
      -0.08909916877746582,
      0.025731142610311508,
      -0.0994739904999733,
      -0.08573312312364578,
      0.10734929144382477,
      -0.03132496029138565,
      0.1014244556427002,
      0.10595408082008362,
      0.06268022954463959,
      0.06101561337709427,
      -0.11437445133924484,
      0.0071287997998297215,
      -0.12583394348621368,
      -0.03890472650527954,
      0.08440841734409332,
      -0.038571685552597046,
      0.012551441788673401,
      0.025336528196930885,
      -0.02148422598838806,
      -0.03626566380262375,
      0.08464592695236206,
      -0.017591172829270363,
      0.03700893744826317,
      0.026393041014671326,
      0.002702731406316161,
      -0.0992635190486908,
      -0.05923566222190857,
      -0.05740072578191757,
      -0.05889681354165077,
      -0.08272737264633179,
      0.04250165820121765,
      -0.04648498445749283,
      0.06744952499866486,
      0.01418556272983551,
      0.04951363801956177,
      -0.11935596913099289,
      -0.12822625041007996,
      -0.0696212649345398,
      0.07197815179824829,
      -0.09162484854459763,
      0.0924450010061264,
      0.06066066399216652,
      0.11118050664663315,
      -0.05928237736225128,
      -0.01472481805831194,
      -0.0029165351297706366,
      0.10054284334182739,
      -0.061399538069963455,
      0.1071057990193367,
      0.24083319306373596,
      0.01873883046209812,
      0.18717890977859497,
      0.1104934811592102,
      0.18728703260421753,
      0.00833174865692854,
      0.08138272911310196,
      0.1428956836462021,
      0.10032285749912262,
      -0.017249969765543938,
      -0.10922719538211823,
      -0.004782331176102161,
      0.1904343068599701,
      0.22244851291179657,
      0.09890385717153549,
      -0.05737030878663063,
      0.1879826933145523,
      0.1999656856060028,
      0.06054646521806717,
      -0.026746170595288277,
      -0.2345827966928482,
      0.004739418625831604,
      -0.09157539159059525,
      0.3725166618824005,
      0.046174898743629456,
      -0.19251389801502228,
      -0.1409429907798767,
      -0.1422649770975113,
      -0.00955401174724102,
      -0.05580615624785423,
      -0.11443740129470825,
      -0.1108212023973465,
      -0.21647265553474426,
      -0.05038850009441376,
      -0.14578336477279663,
      0.23912456631660461,
      0.17932040989398956,
      0.18195657432079315,
      -0.08718104660511017,
      -0.07721567153930664,
      -0.2562880516052246,
      -0.14280997216701508,
      0.17756789922714233,
      0.03444449603557587,
      -0.1754588484764099,
      0.030195439234375954,
      0.07509219646453857,
      0.06616723537445068,
      0.06346825510263443,
      -0.07407590746879578,
      0.38056519627571106,
      -0.21563217043876648,
      0.22235946357250214,
      -0.1424720138311386,
      -0.08416368812322617,
      -0.09668692201375961,
      -0.20293165743350983,
      0.32124415040016174,
      0.11057457327842712,
      -0.0720273107290268,
      -0.11368294060230255,
      0.13217894732952118,
      0.04504822567105293,
      -0.18448477983474731,
      -0.1818712055683136,
      -0.1374862641096115,
      -0.01968408189713955,
      0.04743531346321106,
      -0.183929905295372,
      0.09331607818603516,
      -0.01858944445848465,
      0.12752443552017212,
      0.17671458423137665,
      -0.15677212178707123,
      -0.05489804968237877,
      -0.01668645814061165,
      -0.08228935301303864,
      -0.09998148679733276,
      0.0011761999921873212,
      0.118517205119133,
      0.15203125774860382,
      -0.16521978378295898,
      -0.027930397540330887,
      -0.035048358142375946,
      0.24645446240901947,
      -0.015686750411987305,
      -0.026354311034083366,
      -0.21727590262889862,
      0.25718095898628235,
      0.02077736333012581,
      0.07786143571138382,
      -0.15675675868988037,
      0.053764864802360535,
      -0.1708330661058426,
      0.0360543429851532,
      0.09522116184234619,
      0.7077205181121826,
      -0.07447801530361176,
      -0.013651787303388119,
      0.0025041268672794104,
      -0.1865314096212387,
      -0.24421915411949158,
      0.0026909997686743736,
      -0.1847812682390213,
      -0.07991765439510345,
      -0.21764862537384033,
      -0.25081387162208557,
      -0.0778929740190506,
      0.13472896814346313,
      0.02149183675646782,
      0.09321391582489014,
      0.13583476841449738,
      0.3819224536418915,
      0.15372717380523682,
      -0.039059240370988846,
      0.2362668663263321,
      0.08121208101511002,
      0.19395026564598083,
      0.21168196201324463,
      -0.05471883714199066,
      0.1855268031358719,
      0.07634931057691574,
      0.005010083317756653,
      0.09825805574655533,
      0.057429928332567215,
      0.0037406114861369133,
      -0.07458335906267166,
      -0.13379158079624176,
      -0.24960120022296906,
      0.046022992581129074,
      0.026697983965277672,
      0.0864475667476654,
      0.03187160566449165,
      0.21829374134540558,
      0.033875372260808945,
      0.07448328286409378,
      0.10654213279485703,
      0.06932063400745392,
      0.11305737495422363,
      0.1775909811258316,
      0.02483232691884041,
      0.047541938722133636,
      -0.04206521436572075,
      -0.056172627955675125,
      0.04291289672255516,
      0.009201540611684322,
      0.013846682384610176,
      0.11787368357181549,
      0.03819883614778519,
      -0.08209611475467682,
      0.03420962020754814,
      0.060497984290122986,
      0.06763852387666702,
      0.13545702397823334,
      -0.20752385258674622,
      0.016794858500361443,
      0.12310174107551575,
      0.012654081918299198,
      -0.09011920541524887,
      0.09657824039459229,
      -0.3212723433971405,
      -0.073494091629982,
      0.15821273624897003,
      0.12406978011131287,
      0.1838538646697998,
      0.10083188116550446,
      -0.2155182808637619,
      0.049231093376874924,
      0.40896108746528625,
      0.3505018949508667,
      -0.04516245424747467,
      0.2204955816268921,
      0.11100780963897705,
      0.10003803670406342,
      -0.010392355732619762,
      -0.04102896526455879,
      0.06058303639292717,
      0.04903708025813103,
      -0.28601327538490295,
      -0.011255738325417042,
      -0.033318378031253815,
      0.16812832653522491,
      -0.014217378571629524,
      0.06290309131145477,
      0.07030396163463593,
      -0.08528042584657669,
      0.03618502616882324,
      -0.12014920264482498,
      0.02183946594595909,
      -0.05271735042333603,
      0.1329602152109146,
      0.2525399625301361,
      0.25108641386032104,
      0.09402862936258316,
      0.10556243360042572,
      0.11397552490234375,
      -0.02932792715728283,
      -0.040398743003606796,
      0.28724581003189087,
      0.10681000351905823,
      3.082528928644024e-05,
      0.08320003747940063,
      0.015000301413238049,
      0.029402367770671844,
      0.02821238897740841,
      0.04995134472846985,
      0.08318935334682465,
      -0.12459347397089005,
      0.04704505205154419,
      0.2399122565984726,
      0.010216708295047283,
      0.02617296576499939,
      0.125851571559906,
      0.06950114667415619,
      -0.13172540068626404,
      0.15789547562599182,
      0.03533720225095749,
      -0.12088514119386673,
      0.22512120008468628,
      0.006869693286716938,
      -0.005750167183578014,
      0.23968306183815002,
      -0.4306718707084656,
      -0.0011673569679260254,
      -0.45777007937431335,
      0.08336904644966125,
      -0.05341890826821327,
      0.24434585869312286,
      0.18567346036434174,
      0.17342299222946167,
      0.30554696917533875,
      0.15387575328350067,
      -0.3275006115436554,
      -0.2503085732460022,
      0.2713947594165802,
      0.034801919013261795,
      -0.25474777817726135,
      0.1165306493639946,
      0.1301017552614212,
      0.044656962156295776,
      -0.018450461328029633,
      -0.0007172281621024013,
      0.3338196575641632,
      0.05488256737589836,
      0.1876545250415802,
      0.04567904397845268,
      0.16704747080802917,
      0.07962307333946228,
      -0.02624792791903019,
      0.15536895394325256,
      0.05812886357307434,
      0.2045590579509735,
      -0.12621238827705383,
      0.13745960593223572,
      0.10237355530261993,
      0.06511077284812927,
      -0.10799182951450348,
      -0.2965242266654968,
      -0.0035864245146512985,
      0.028431668877601624,
      -0.16341625154018402,
      0.110209159553051,
      0.2588242292404175,
      0.27295565605163574,
      0.2996222674846649,
      0.1728610098361969,
      0.06163249537348747,
      0.05268003046512604,
      -0.26138654351234436,
      0.14545273780822754,
      0.11973642557859421,
      0.21354275941848755,
      -0.017965611070394516,
      -0.08232739567756653,
      -0.027446363121271133,
      0.07099515199661255,
      0.2573263645172119,
      -0.02433820068836212,
      0.011264386586844921,
      0.05497598275542259,
      0.11328960955142975,
      -0.01244928315281868,
      0.0949321836233139,
      -0.1216033473610878,
      0.08209902048110962,
      -0.0996558740735054,
      -0.02321760728955269,
      -0.08380007743835449,
      -0.40751010179519653,
      0.08640614151954651,
      -0.006671085953712463,
      0.20529696345329285,
      -0.12151233106851578,
      0.10117911547422409,
      -0.0014296068111434579,
      -0.1257980316877365,
      -0.07679428160190582,
      -0.05972171202301979,
      0.1522495597600937,
      -0.260942667722702,
      -0.08213049173355103,
      0.24412427842617035,
      -0.04111257940530777,
      0.11157313734292984,
      0.3391508460044861,
      0.11263396590948105,
      0.0925309881567955,
      0.3416435718536377,
      -0.0596892312169075,
      0.09403180330991745,
      0.17163315415382385,
      -0.07054517418146133,
      0.0906098261475563,
      0.018588244915008545,
      0.08392146229743958,
      0.15711739659309387,
      -0.23206950724124908,
      -0.06719394773244858,
      -0.0032576946541666985,
      -0.02687148191034794,
      0.013632380403578281,
      -0.06905698031187057,
      -0.11475193500518799,
      0.025720179080963135,
      -0.05189283564686775,
      -0.07142126560211182,
      -0.026625854894518852,
      0.005010597873479128,
      -0.10185369849205017,
      -0.06252268701791763,
      -0.03750181570649147,
      0.044659361243247986,
      0.03959047794342041,
      0.037768810987472534,
      -0.12112470716238022,
      0.096498504281044,
      0.04192870482802391,
      -0.07811722159385681,
      0.10948826372623444,
      0.07062222063541412,
      -0.046081073582172394,
      0.011139363050460815,
      0.040250781923532486,
      -0.1419650912284851,
      0.07267893850803375,
      0.05336204916238785,
      -0.14147424697875977,
      -0.006670850794762373,
      -0.11089955270290375,
      0.058042969554662704,
      -0.12270957231521606,
      0.05927614867687225,
      -0.09919638186693192,
      -0.08487696945667267,
      -0.04539642855525017,
      0.07868818193674088,
      -0.035437095910310745,
      -0.12678179144859314,
      -0.06399495899677277,
      0.002813476137816906,
      -0.07221685349941254,
      0.04115958511829376,
      -0.0487375408411026,
      -0.033505648374557495,
      0.06389511376619339,
      -0.1589881330728531,
      -0.051268018782138824,
      0.07913991063833237,
      -0.006522915791720152,
      -0.010952290147542953,
      -0.10280544310808182,
      -0.01128089427947998,
      -0.023578668013215065,
      -0.08138328790664673,
      0.10723188519477844,
      -0.11819244921207428,
      -0.054514653980731964,
      0.06073352321982384,
      -0.010405078530311584,
      -0.07824715226888657,
      0.020227491855621338,
      0.06432003527879715,
      0.1822807788848877,
      -0.0019446403020992875,
      0.20583119988441467,
      -0.09500746428966522,
      0.09020943939685822,
      -0.019778192043304443,
      0.1045968234539032,
      -0.07383908331394196,
      -0.07473447918891907,
      -0.1503463089466095,
      -0.17898134887218475,
      0.2697129249572754,
      0.09646821767091751,
      0.08466389775276184,
      0.07234437763690948,
      -0.06486144661903381,
      -0.04721067473292351,
      -0.03664301708340645,
      -0.16920332610607147,
      0.1524457186460495,
      -0.059843696653842926,
      0.003471816424280405,
      0.029331576079130173,
      -0.05273208022117615,
      0.0889514833688736,
      -0.03851144760847092,
      -0.22519272565841675,
      0.1849522739648819,
      0.36712846159935,
      0.05946953222155571,
      0.02414027787744999,
      0.14860163629055023,
      -0.4130718410015106,
      -0.07138727605342865,
      -0.5303789377212524,
      -0.04366849362850189,
      -0.04835517704486847,
      0.1265849769115448,
      0.11861415207386017,
      0.17089712619781494,
      0.10563203692436218,
      0.040763020515441895,
      -0.22724273800849915,
      -0.034387946128845215,
      0.3481385111808777,
      0.12094756960868835,
      -0.1403292566537857,
      -0.15063539147377014,
      0.20695017278194427,
      0.1095782220363617,
      -0.19365748763084412,
      0.029645884409546852,
      0.18895047903060913,
      -0.05649430304765701,
      0.07617033272981644,
      0.028854966163635254,
      -0.0003862383309751749,
      0.0892120972275734,
      -0.046344101428985596,
      -0.10287432372570038,
      -0.0036750733852386475,
      -0.0003828182234428823,
      -0.0008100767154246569,
      0.03949824348092079,
      -0.009527802467346191,
      0.11672677099704742,
      -0.07198400795459747,
      0.03785558044910431,
      0.0037382841110229492,
      0.022238001227378845,
      0.02812880277633667,
      -0.013956710696220398,
      -0.0009440332651138306,
      -0.05279301106929779,
      -0.08284394443035126,
      -0.023561745882034302,
      -0.08201582729816437,
      -0.08737801015377045,
      -0.10604175925254822,
      0.016417130827903748,
      0.04098695516586304,
      -0.0474468469619751,
      -0.005938425660133362,
      0.02605096995830536,
      0.009325489401817322,
      -0.062229081988334656,
      0.11546823382377625,
      -0.10407976806163788,
      -0.09169876575469971,
      0.10439503192901611,
      0.04687456786632538,
      -0.11349403858184814,
      -0.025367632508277893,
      0.11425359547138214,
      0.11894629895687103,
      -0.08182458579540253,
      -0.015786081552505493,
      0.12181881070137024,
      0.08128879964351654,
      -0.11128424108028412,
      -0.11324235796928406,
      -0.03915634751319885,
      -0.10066193342208862,
      -0.11799201369285583,
      -0.10269390046596527,
      0.013364940881729126,
      -0.08107396960258484,
      0.05954226851463318,
      0.11056819558143616,
      -0.10748575627803802,
      0.11007367074489594,
      -0.007818683981895447,
      -0.1003606766462326,
      0.013766974210739136,
      -0.04560448229312897,
      0.05640822649002075,
      0.06732556223869324,
      0.09800778329372406,
      -0.0792788416147232,
      -0.05850042402744293,
      0.017776459455490112,
      -0.09612990915775299,
      0.10426858067512512,
      0.012936487793922424,
      -0.1073114275932312,
      0.10481254756450653,
      -0.010664701461791992,
      0.05315659940242767,
      0.04680924862623215,
      -0.18255241215229034,
      -0.21313796937465668,
      -0.024102233350276947,
      0.08587165176868439,
      -0.05956219136714935,
      -0.08227317780256271,
      0.12749610841274261,
      -0.20580515265464783,
      -0.033333323895931244,
      0.0721459910273552,
      0.054727327078580856,
      0.04303061589598656,
      0.07956939935684204,
      0.06853831559419632,
      -0.10779552906751633,
      0.06877768784761429,
      0.11746643483638763,
      -0.0358474962413311,
      0.025093641132116318,
      0.11091770231723785,
      -0.041420482099056244,
      0.28577470779418945,
      0.0004193335771560669,
      0.09106846898794174,
      -0.20714302361011505,
      -0.042722031474113464,
      0.13441407680511475,
      0.054276447743177414,
      0.10535374283790588,
      0.016443638131022453,
      0.08036281168460846,
      0.3381635844707489,
      0.06627680361270905,
      0.4748922884464264,
      0.1045149564743042,
      0.05381054803729057,
      -0.08859488368034363,
      0.028227971866726875,
      -0.09011615067720413,
      -0.019598955288529396,
      -0.03575592860579491,
      0.22517931461334229,
      0.12194482982158661,
      -0.017810221761465073,
      0.06659404188394547,
      0.12656532227993011,
      0.007666307967156172,
      0.15481597185134888,
      -0.07247982174158096,
      0.20455007255077362,
      0.3672391474246979,
      -0.41993141174316406,
      0.2737419605255127,
      -0.06057659536600113,
      0.3054414689540863,
      0.0275627002120018,
      0.13822492957115173,
      0.1947433203458786,
      -0.23329594731330872,
      0.12159553170204163,
      -0.05880283564329147,
      0.27214181423187256,
      -0.07769844681024551,
      -0.09448510408401489,
      -0.048809394240379333,
      0.017993316054344177,
      -0.025361865758895874,
      0.09743437170982361,
      -0.052499234676361084,
      -0.004934266209602356,
      -0.07299204170703888,
      0.04411420226097107,
      0.1022038459777832,
      -0.018524155020713806,
      -0.11485041677951813,
      -0.07594239711761475,
      -0.12096796929836273,
      -0.017090216279029846,
      0.1012134850025177,
      -0.05305342376232147,
      0.005496218800544739,
      0.056600749492645264,
      -0.0007105618715286255,
      -0.04139140248298645,
      0.04334355890750885,
      -0.11019793152809143,
      0.07830998301506042,
      0.06651884317398071,
      0.10922077298164368,
      -0.01998172700405121,
      0.011263474822044373,
      -0.057488396763801575,
      -0.029227301478385925,
      -0.04646292328834534,
      0.023288235068321228,
      0.09976497292518616,
      -0.10975059866905212,
      -0.018719568848609924,
      -0.06186842918395996,
      0.06065396964550018,
      -0.03402210772037506,
      -0.0141533762216568,
      -0.059275686740875244,
      0.0628991425037384,
      -0.02791912853717804,
      0.031839534640312195,
      -0.1008773148059845,
      0.10490395128726959,
      0.1043199896812439,
      -0.06851130723953247,
      -0.11060075461864471,
      0.009383141994476318,
      -0.07159112393856049,
      0.039983704686164856,
      -0.03672076761722565,
      -0.011368006467819214,
      -0.014529868960380554,
      0.049495235085487366,
      -0.10796083509922028,
      -0.0644252747297287,
      0.04894062876701355,
      -0.07700389623641968,
      0.005712360143661499,
      0.007857352495193481,
      0.0379309356212616,
      -0.10858713090419769,
      -0.03348176181316376,
      0.014392009004950523,
      0.2081025242805481,
      0.1625242382287979,
      0.22629393637180328,
      -0.04118417203426361,
      0.08819890022277832,
      0.08784941583871841,
      0.023524295538663864,
      0.14501895010471344,
      -0.13384494185447693,
      0.19645966589450836,
      0.20097440481185913,
      -0.10384359955787659,
      0.037174638360738754,
      -0.04251072555780411,
      -0.010616755113005638,
      0.20921240746974945,
      0.1579422652721405,
      -0.23562335968017578,
      0.07749667763710022,
      -0.052263639867305756,
      -0.09247837960720062,
      0.031352367252111435,
      0.12111887335777283,
      0.08324537426233292,
      -0.014684817753732204,
      -0.21691031754016876,
      0.08626490086317062,
      0.3389585316181183,
      0.1546105295419693,
      0.04292509704828262,
      0.027002258226275444,
      -0.180265411734581,
      -0.08045722544193268,
      -0.07714486867189407,
      0.07660266757011414,
      -0.08075740933418274,
      -0.11567793041467667,
      -0.03996976837515831,
      0.17248840630054474,
      0.4843844473361969,
      0.07609239220619202,
      -0.16906067728996277,
      -0.10913649946451187,
      0.29302161931991577,
      0.13702459633350372,
      -0.36462706327438354,
      0.010703214444220066,
      0.18759973347187042,
      -0.05287156254053116,
      -0.21384981274604797,
      0.20728258788585663,
      0.2343122810125351,
      -0.18405377864837646,
      -0.07761145383119583,
      -0.19778607785701752,
      0.1027657613158226,
      0.14855195581912994,
      0.06190056353807449,
      -0.07803694903850555,
      0.11729981005191803,
      0.034967660903930664,
      -0.18265315890312195,
      0.032048363238573074,
      0.08454743772745132,
      0.05934087187051773,
      0.13334201276302338,
      -0.1777762919664383,
      0.13677524030208588,
      -0.01983979344367981,
      0.05964024364948273,
      0.13831837475299835,
      0.08253240585327148,
      0.28159257769584656,
      0.039716627448797226,
      -0.11214553564786911,
      0.039099838584661484,
      0.09580385684967041,
      0.05145827680826187,
      0.19207218289375305,
      0.0073712910525500774,
      -0.013540429063141346,
      0.36694398522377014,
      -0.006692530587315559,
      0.023443147540092468,
      -0.040348559617996216,
      -0.022542010992765427,
      -0.04934470355510712,
      0.004218693356961012,
      0.16543462872505188,
      0.25676029920578003,
      -0.07283264398574829,
      -0.24084769189357758,
      -0.21142537891864777,
      -0.06400328874588013,
      -0.10412459075450897,
      -0.33977317810058594,
      0.11917629837989807,
      -0.5321167707443237,
      -0.09291759133338928,
      0.0575229786336422,
      0.1237587034702301,
      0.14395423233509064,
      -0.07876640558242798,
      -0.22039750218391418,
      -0.019140973687171936,
      0.07881779968738556,
      0.22575560212135315,
      -0.1860322207212448,
      -0.20938941836357117,
      0.32052871584892273,
      0.11255662888288498,
      0.03544563055038452,
      0.04105959087610245,
      0.18074339628219604,
      -0.030121179297566414,
      0.03777781501412392,
      -0.015560267493128777,
      0.22431795299053192,
      -0.016857745125889778,
      0.04330352321267128,
      -0.10542590171098709,
      0.09101461619138718,
      0.27364063262939453,
      -9.435415267944336e-05,
      -0.16452667117118835,
      -0.005362934898585081,
      0.10483895987272263,
      0.04758891835808754,
      0.16992264986038208,
      0.19739317893981934,
      -0.02125963754951954,
      0.030257830396294594,
      0.04648555815219879,
      -0.04085591062903404,
      0.10616414248943329,
      0.5561034679412842,
      0.31021615862846375,
      0.15650765597820282,
      -0.036908555775880814,
      -0.08493458479642868,
      -0.09823682904243469,
      -0.04589139297604561,
      0.007696409709751606,
      0.018377799540758133,
      -0.34128808975219727,
      0.16239959001541138,
      -0.004467591177672148,
      0.1722608059644699,
      -0.07263895124197006,
      0.02188504859805107,
      0.0885603129863739,
      -0.08149249106645584,
      0.3771795630455017,
      0.23951828479766846,
      -0.09511542320251465,
      0.11827847361564636,
      -0.13919003307819366,
      -0.10200878232717514,
      0.021110115572810173,
      -0.006193162407726049,
      0.024606242775917053,
      -0.0512998029589653,
      0.08148136734962463,
      0.06166611239314079,
      0.13289134204387665,
      0.11701841652393341,
      0.2965816259384155,
      -0.04266555234789848,
      0.1170765683054924,
      -0.13433662056922913,
      -0.039154332131147385,
      -0.021330827847123146,
      -0.020772278308868408,
      -0.1590481996536255,
      0.2853793799877167,
      0.03467535600066185,
      0.18683190643787384,
      -0.1524350345134735,
      -0.30017250776290894,
      0.3708780109882355,
      0.24389083683490753,
      -0.012311655096709728,
      -0.19229908287525177,
      -0.03176477923989296,
      0.0704021006822586,
      0.009954416193068027,
      0.3108847737312317,
      0.030922725796699524,
      0.06614484637975693,
      -0.1401510238647461,
      0.1404731571674347,
      -0.04044170677661896,
      0.04810287803411484,
      0.04189632460474968,
      0.40283215045928955,
      0.19743333756923676,
      0.045623525977134705,
      0.4240885376930237,
      -0.32966023683547974,
      -0.18400266766548157,
      -0.36656293272972107,
      -0.1526048481464386,
      -0.42008695006370544,
      0.07767397910356522,
      0.053129490464925766,
      0.26318037509918213,
      0.08623205125331879,
      -0.10781262069940567,
      -0.16589459776878357,
      0.04958406835794449,
      0.3407106399536133,
      -0.09086315333843231,
      -0.014878169633448124,
      -0.5424095392227173,
      0.03653557598590851,
      0.04257145896553993,
      0.2851230204105377,
      -0.1763032227754593,
      -0.18543219566345215,
      -0.20739249885082245,
      0.08466614782810211,
      -0.09712740778923035,
      0.06390588730573654,
      0.7721238732337952,
      0.08378706872463226,
      0.13041476905345917,
      0.009151250123977661,
      -0.33325985074043274,
      0.012813692912459373,
      0.26525163650512695,
      0.09915202856063843,
      0.047090016305446625,
      0.17467789351940155,
      0.0007153094047680497,
      0.17486098408699036,
      -0.01487403642386198,
      0.30692556500434875,
      -0.1607600301504135,
      0.001707933726720512,
      0.0662841945886612,
      -0.10890396684408188,
      -0.45905089378356934,
      -0.12631574273109436,
      0.021257033571600914,
      -0.7020013928413391,
      0.07412417232990265,
      -0.06625135242938995,
      -0.12502184510231018,
      0.13298770785331726,
      -0.025048241019248962,
      -0.06923691183328629,
      -0.0051369816064834595,
      -0.06760282069444656,
      0.21084609627723694,
      0.006519912742078304,
      -0.11656613647937775,
      0.0555797815322876,
      -0.08654794096946716,
      0.022364497184753418,
      0.010831475257873535,
      -0.10441131889820099,
      0.0015759468078613281,
      0.09501850605010986,
      -0.021721109747886658,
      0.12377719581127167,
      0.08596676588058472,
      0.0022634565830230713,
      -0.02739877998828888,
      0.0009892135858535767,
      -0.0870140939950943,
      0.007510125637054443,
      0.10001401603221893,
      -0.0034023523330688477,
      -0.1033303290605545,
      0.04152330756187439,
      -0.09586161375045776,
      -0.11345945298671722,
      0.052255287766456604,
      -0.0937490463256836,
      -0.0968700498342514,
      0.12467944622039795,
      -0.04489825665950775,
      -0.11878781020641327,
      -0.03868010640144348,
      0.1033565104007721,
      -0.020532548427581787,
      0.08623521029949188,
      -0.033112794160842896,
      0.08386342227458954,
      0.013569474220275879,
      0.04805824160575867,
      0.06233501434326172,
      -0.11628252267837524,
      0.010595157742500305,
      0.020490676164627075,
      0.019697636365890503,
      -0.05969424545764923,
      -0.11182285845279694,
      -0.093870148062706,
      -0.04234886169433594,
      0.06306880712509155,
      -0.11112791299819946,
      0.03250189125537872,
      0.02315613627433777,
      0.05614230036735535,
      -0.07215650379657745,
      -0.005069077014923096,
      0.06226429343223572,
      0.02923029661178589,
      -0.04394209384918213,
      -0.02375468611717224,
      -0.0925690084695816,
      0.11424557864665985,
      -0.11045753955841064,
      -0.12381672859191895,
      0.10758969187736511,
      0.017243415117263794,
      -0.09487158060073853,
      0.03589820861816406,
      -0.08853188902139664,
      0.08734958618879318,
      0.2508092224597931,
      0.29496487975120544,
      0.10910578817129135,
      0.0006031244993209839,
      0.30111637711524963,
      0.004700102843344212,
      -0.004917115438729525,
      -0.005622812546789646,
      0.15365475416183472,
      -0.3522152304649353,
      0.01267720852047205,
      0.07894659042358398,
      0.24964456260204315,
      0.1082439124584198,
      0.17843833565711975,
      -0.11982056498527527,
      0.02773217111825943,
      0.13494840264320374,
      -0.09941210597753525,
      -0.21638305485248566,
      -0.38122913241386414,
      0.0509466826915741,
      -0.02816924639046192,
      0.17254553735256195,
      0.12169811874628067,
      -0.09215457737445831,
      -0.1353660672903061,
      -0.3130885660648346,
      0.042844027280807495,
      -0.11167284101247787,
      0.20055226981639862,
      0.08784787356853485,
      -0.10311302542686462,
      0.07077246904373169,
      -0.33422622084617615,
      0.030955402180552483,
      0.21201227605342865,
      0.06616754829883575,
      0.035602156072854996,
      -0.030609525740146637,
      -0.06039061024785042,
      0.12680862843990326,
      -0.15436291694641113,
      0.04008067771792412,
      0.07188884913921356,
      -0.10144404321908951,
      0.062350913882255554,
      0.10955614596605301,
      -0.00716368667781353,
      -0.2291480004787445,
      0.3224772810935974,
      -0.23076829314231873,
      0.23459270596504211,
      -0.03271688148379326,
      0.12644422054290771,
      0.03235669061541557,
      0.11060693114995956,
      0.048804424703121185,
      0.02862773835659027,
      0.10873113572597504,
      -0.049430664628744125,
      0.28074565529823303,
      -0.12609191238880157,
      0.06912489980459213,
      0.06558535993099213,
      0.033510301262140274,
      -0.03908836469054222,
      -0.06642614305019379,
      0.07899317145347595,
      -0.028658248484134674,
      0.07904575020074844,
      -0.04122359678149223,
      -0.09396742284297943,
      0.10023356974124908,
      -0.08700699359178543,
      -0.11548939347267151,
      0.0912400633096695,
      -0.038551777601242065,
      -0.04546598717570305,
      -0.07810313254594803,
      0.09226872771978378,
      0.0454612635076046,
      -0.062175240367650986,
      -0.021962273865938187,
      -0.05063392221927643,
      0.010293945670127869,
      -0.015157157555222511,
      0.005259192083030939,
      -0.12259311974048615,
      -0.1001129150390625,
      0.07644353061914444,
      -0.07114014029502869,
      -0.05707542598247528,
      -0.057406969368457794,
      0.08941398561000824,
      -0.07943548262119293,
      0.06533251702785492,
      -0.03960505127906799,
      -0.10127565264701843,
      -0.0383836030960083,
      -0.010600387118756771,
      -0.1032356470823288,
      -0.09209531545639038,
      0.004018306732177734,
      0.022165797650814056,
      0.029972638934850693,
      -0.11997821182012558,
      -0.09322623908519745,
      -0.12648513913154602,
      0.017772410064935684,
      -0.06089244782924652,
      0.013967110775411129,
      0.013354247435927391,
      0.11058761179447174,
      0.008060406893491745,
      -0.10471318662166595,
      -0.03393187001347542,
      0.037143219262361526,
      0.08979838341474533,
      0.04679643362760544,
      -0.0625951811671257,
      0.08957169950008392,
      0.05284474790096283,
      -0.0967915952205658,
      -0.07952357083559036,
      0.11622587591409683,
      0.03808505833148956,
      -0.12108981609344482,
      -0.05607035756111145,
      0.03343150019645691,
      -0.05203709006309509,
      0.034343570470809937,
      -0.1018601506948471,
      -0.018401697278022766,
      -0.045983850955963135,
      0.027342915534973145,
      0.10086558759212494,
      -0.11111894249916077,
      0.03391669690608978,
      -0.029932111501693726,
      -0.04123005270957947,
      -0.12248879671096802,
      0.021549105644226074,
      0.10382018983364105,
      0.09648044407367706,
      0.026024848222732544,
      0.04087980091571808,
      -0.006377890706062317,
      0.02587585151195526,
      -0.003879725933074951,
      0.05841270089149475,
      0.101930633187294,
      -0.01532357931137085,
      -0.02111843228340149,
      -0.07029525935649872,
      0.014556840062141418,
      0.09591762721538544,
      0.048468127846717834,
      -0.04958820343017578,
      -0.02194911241531372,
      0.06069447100162506,
      0.029706597328186035,
      -0.07611733675003052,
      -0.06735856831073761,
      -0.04644222557544708,
      0.01411205530166626,
      0.01564536988735199,
      -0.051957160234451294,
      0.07989801466464996,
      -0.05149734020233154,
      -0.08126810193061829,
      -0.025162041187286377,
      -0.07487215101718903,
      -0.017055347561836243,
      -0.026909291744232178,
      -0.03075753152370453,
      -0.06651590764522552,
      0.052621543407440186,
      -0.0044455379247665405,
      0.09904386103153229,
      -0.08946040272712708,
      -0.10683479905128479,
      -0.07053901255130768,
      0.04812197387218475,
      -0.12445613741874695,
      -0.1172085702419281,
      0.011827424168586731,
      -0.09693053364753723,
      0.06324763596057892,
      0.03425459563732147,
      -0.05890270322561264,
      -0.05495604872703552,
      -0.06427199393510818,
      -0.08526305854320526,
      -0.10166668891906738,
      -0.09223197400569916,
      -0.024853045120835304,
      0.09015677869319916,
      0.12363224476575851,
      0.11815032362937927,
      0.012970374897122383,
      -0.017687812447547913,
      -0.09392720460891724,
      -0.07625400274991989,
      -0.12048199027776718,
      -0.07160446792840958,
      -0.10614356398582458,
      -0.002583026885986328,
      -0.08933379501104355,
      0.009261175990104675,
      -0.03566886484622955,
      -0.08518645912408829,
      -0.05404484644532204,
      0.10709810256958008,
      -0.059200819581747055,
      0.12381019443273544,
      -0.07223643362522125,
      -0.11184016615152359,
      -0.05411676689982414,
      -0.027193227782845497,
      -0.04801182448863983,
      0.012371872551739216,
      -0.004225224256515503,
      -0.07145395874977112,
      -0.0718960165977478,
      0.010233506560325623,
      0.0725596696138382,
      -0.08003465831279755,
      -0.04028238728642464,
      0.11214391887187958,
      -0.08122094720602036,
      -0.032048989087343216,
      -0.041750792413949966,
      -0.022716278210282326,
      0.032137759029865265,
      0.12368062138557434,
      0.09423927962779999,
      -0.020751692354679108,
      0.11626851558685303,
      0.03966018185019493,
      -0.027632135897874832,
      -0.0558684878051281,
      0.10710646957159042,
      0.01697918213903904,
      -0.10001114010810852,
      0.10256258398294449,
      0.055415764451026917,
      -0.01631799340248108,
      0.04506247863173485,
      0.05737439915537834,
      -0.03437604010105133,
      -0.01522655226290226,
      -0.11199411004781723,
      -0.09063814580440521,
      -0.07026727497577667,
      -0.26039642095565796,
      -0.17927950620651245,
      0.14629580080509186,
      0.13442879915237427,
      0.02071337401866913,
      -0.02619495987892151,
      0.05762944370508194,
      -0.09782671183347702,
      -0.10249701887369156,
      0.27401700615882874,
      -0.10234634578227997,
      0.07657448947429657,
      0.08787456154823303,
      -0.09668053686618805,
      0.14377474784851074,
      -0.06878265738487244,
      0.010596957989037037,
      -0.06017747521400452,
      0.036690205335617065,
      -0.16819190979003906,
      0.13624216616153717,
      -0.10415742546319962,
      0.10089877247810364,
      -0.12343370914459229,
      0.138058140873909,
      0.00031313978252001107,
      -0.14601658284664154,
      0.08294809609651566,
      -0.1186036616563797,
      -0.023868530988693237,
      -0.0892237201333046,
      -0.11711776256561279,
      0.12111663818359375,
      -0.18667852878570557,
      -0.04233637452125549,
      0.03034033812582493,
      -0.09508483856916428,
      0.12664136290550232,
      0.07303093373775482,
      0.039643097668886185,
      0.004660711623728275,
      0.05076867714524269,
      0.07747437804937363,
      -0.061755962669849396,
      0.09911611676216125,
      -0.04020150005817413,
      -0.0743396133184433,
      0.1317725032567978,
      -0.08010204136371613,
      0.07255276292562485,
      0.1804439127445221,
      0.05501424893736839,
      -0.11497233062982559,
      -0.09505004435777664,
      -0.031735826283693314,
      -0.04965304583311081,
      0.12117110937833786,
      -0.03659536689519882,
      0.08377585560083389,
      0.031122833490371704,
      0.007907109335064888,
      -0.15037135779857635,
      -0.03051859326660633,
      -0.07406382262706757,
      -0.07610847055912018,
      0.06722074747085571,
      -0.037959784269332886,
      -0.10520443320274353,
      -0.0051969438791275024,
      -0.10302288830280304,
      -0.10187910497188568,
      -0.11717955768108368,
      -0.08375178277492523,
      -0.00017079710960388184,
      -0.03622466325759888,
      -0.012694180011749268,
      -0.07825960218906403,
      0.048484981060028076,
      0.049725160002708435,
      0.0423329621553421,
      -0.1187831312417984,
      -0.03236299753189087,
      0.03431667387485504,
      -0.0989999920129776,
      -0.041488125920295715,
      0.01996569335460663,
      0.06106562912464142,
      -0.12488417327404022,
      0.04392252862453461,
      -0.0501190721988678,
      0.11011230945587158,
      -0.07525917887687683,
      0.057271748781204224,
      -0.07630254328250885,
      -0.016540884971618652,
      -0.011497005820274353,
      0.09963712096214294,
      -0.03721396625041962,
      0.0625283420085907,
      -0.02519233524799347,
      -0.012841686606407166,
      -0.10056900978088379,
      -0.023696064949035645,
      -0.08890441060066223,
      -0.12305274605751038,
      0.11975279450416565,
      -0.0020134449005126953,
      -0.07010039687156677,
      -0.054572150111198425,
      0.11605188250541687,
      -0.05888867378234863,
      -0.040307432413101196,
      0.1097434014081955,
      9.122490882873535e-05,
      -0.059121668338775635,
      0.12190508842468262,
      0.08365610241889954,
      0.004218980669975281,
      -0.06284883618354797,
      0.07785037159919739,
      0.03242143988609314,
      0.017745226621627808,
      0.05000707507133484,
      0.00741952657699585,
      0.047989457845687866,
      0.03007747232913971,
      -0.016093328595161438,
      -0.04915127530694008,
      -0.19453470408916473,
      -0.23085278272628784,
      0.05043499544262886,
      0.12272772938013077,
      -0.040305525064468384,
      0.1417056769132614,
      0.15666857361793518,
      -0.4745687246322632,
      -0.1381092071533203,
      -0.049284324049949646,
      -0.11383605748414993,
      -0.03540229797363281,
      0.22034277021884918,
      -0.0416511595249176,
      0.1066022664308548,
      -0.11838537454605103,
      0.3857380747795105,
      -0.08532135933637619,
      0.11913277208805084,
      0.013491404242813587,
      -0.08935942500829697,
      0.1815977245569229,
      -0.00021830201148986816,
      0.15892717242240906,
      -0.3090731203556061,
      -0.0436846986413002,
      0.26627951860427856,
      0.22711676359176636,
      0.12702281773090363,
      0.04579303413629532,
      0.019630135968327522,
      -0.182744562625885,
      0.046435460448265076,
      -0.08513327687978745,
      -0.012906372547149658,
      -0.18129712343215942,
      -0.038744691759347916,
      0.0315476730465889,
      -0.2454444020986557,
      -0.021469423547387123,
      -0.050104036927223206,
      0.07657945901155472,
      0.015203090384602547,
      0.1754491776227951,
      0.0365171916782856,
      0.20083282887935638,
      -0.29491114616394043,
      0.16141469776630402,
      0.02490442432463169,
      0.21807341277599335,
      0.30365779995918274,
      -0.17619717121124268,
      -0.1739061176776886,
      -0.01747169904410839,
      0.18313702940940857,
      0.23366574943065643,
      0.012570464052259922,
      0.055286429822444916,
      -0.06850522756576538,
      -0.058594539761543274,
      0.041689157485961914,
      -0.02316908910870552,
      -0.0456199049949646,
      -0.022573232650756836,
      -0.09535282850265503,
      -0.05317354202270508,
      -0.09840111434459686,
      -0.09664188325405121,
      -0.11638009548187256,
      0.10049881041049957,
      -0.06342905759811401,
      0.0675613284111023,
      -0.07946556806564331,
      -0.03229318559169769,
      0.03574773669242859,
      -0.02894499897956848,
      -0.05960701406002045,
      -0.06048119068145752,
      0.08922424912452698,
      -0.022201478481292725,
      -0.11417979001998901,
      -0.02812652289867401,
      -0.016233578324317932,
      0.0824151337146759,
      0.04266677796840668,
      -0.11042635142803192,
      0.11577242612838745,
      0.08674702048301697,
      0.07381196320056915,
      -0.10650293529033661,
      0.10884448885917664,
      -0.11624307930469513,
      -0.0692647397518158,
      0.07388204336166382,
      0.0393715500831604,
      -0.0336005836725235,
      0.12398894131183624,
      -0.01661054790019989,
      0.01481020450592041,
      0.09508289396762848,
      0.1207587718963623,
      -0.07494969666004181,
      -0.07267077267169952,
      0.027883052825927734,
      -0.003396660089492798,
      0.01847827434539795,
      -0.10959233343601227,
      0.05466897785663605,
      -0.08001263439655304,
      0.11954861879348755,
      -0.03124876320362091,
      -0.11205609142780304,
      -0.030797690153121948,
      -0.11580152809619904,
      0.05450883507728577,
      -0.01724238693714142,
      0.08145317435264587,
      -0.044802963733673096,
      0.07072855532169342,
      0.10184346139431,
      0.03884249925613403,
      -0.11069826781749725,
      0.06918732821941376,
      0.032961711287498474,
      -0.05593453347682953,
      -0.06278544664382935,
      -0.08829472959041595,
      0.14845393598079681,
      0.049883466213941574,
      0.15729627013206482,
      0.32716742157936096,
      0.12903009355068207,
      -0.026806533336639404,
      0.06915723532438278,
      -0.0887928307056427,
      0.12953032553195953,
      -0.06787050515413284,
      0.28223565220832825,
      -0.12713967263698578,
      -0.09409783780574799,
      0.006744968704879284,
      0.06723988056182861,
      -0.06695595383644104,
      0.08708890527486801,
      -0.1954423189163208,
      0.05556049197912216,
      0.12206905335187912,
      0.10213200002908707,
      -0.048999954015016556,
      0.006911562290042639,
      0.006647363305091858,
      -0.024592436850070953,
      0.2273186445236206,
      -0.26090988516807556,
      -0.3562709093093872,
      0.19352303445339203,
      0.06932232528924942,
      -0.10181735455989838,
      0.13527226448059082,
      0.2925037741661072,
      -0.03957492113113403,
      0.02347840555012226,
      0.005445882678031921,
      -0.4499439597129822,
      0.05091749504208565,
      0.04059630259871483,
      0.27202606201171875,
      0.23039020597934723,
      -0.04538412019610405,
      -0.5146927833557129,
      -0.5685548782348633,
      0.2792075574398041,
      0.09320349246263504,
      -0.7470526695251465,
      0.04726310819387436,
      0.005770200397819281,
      0.030141618102788925,
      -0.19297045469284058,
      -0.10694072395563126,
      0.25461676716804504,
      -0.35338011384010315,
      0.061445463448762894,
      -0.3254883587360382,
      -0.0341041199862957,
      0.20721203088760376,
      -0.11456426233053207,
      0.22288957238197327,
      0.06265980005264282,
      0.18733596801757812,
      -0.4283132553100586,
      0.046605903655290604,
      -0.05397411063313484,
      -0.052500177174806595,
      -0.07105403393507004,
      -0.03682241961359978,
      0.035687994211912155,
      0.0620947927236557,
      0.026949705556035042,
      -0.056965772062540054,
      -0.0031741224229335785,
      -0.11952473968267441,
      0.10326524823904037,
      -0.03706839680671692,
      0.07870887964963913,
      0.03395135700702667,
      -0.16555556654930115,
      -0.1608087718486786,
      -0.022557705640792847,
      0.13109271228313446,
      0.0016625109128654003,
      -0.01660754717886448,
      0.07231096923351288,
      -0.015649106353521347,
      0.1218762993812561,
      -0.055536121129989624,
      -0.03659653663635254,
      -0.13057737052440643,
      -0.03616002947092056,
      0.08504841476678848,
      0.07961125671863556,
      0.08470997959375381,
      -0.04766473174095154,
      -0.15707997977733612,
      0.03360118716955185,
      0.09106330573558807,
      0.2878587543964386,
      0.062268808484077454,
      -0.1697886437177658,
      -0.1386190503835678,
      -0.08534292876720428,
      -0.18408316373825073,
      0.18459182977676392,
      -0.12601983547210693,
      0.05477001518011093,
      -0.028685787692666054,
      -0.040068596601486206,
      0.07229980826377869,
      -0.0564146563410759,
      -0.056939851492643356,
      0.12730750441551208,
      0.02678826078772545,
      0.08955425769090652,
      0.0657840222120285,
      0.11417830735445023,
      0.10788930207490921,
      0.11219242215156555,
      0.10277795791625977,
      0.027367495000362396,
      0.012638488784432411,
      -0.00958571583032608,
      0.011769088916480541,
      -0.0005456358194351196,
      -0.05578847974538803,
      -0.221327006816864,
      0.050238680094480515,
      0.022820569574832916,
      -0.07246533781290054,
      0.11571825295686722,
      0.07236608862876892,
      -0.0360833965241909,
      -0.11749088764190674,
      -0.0048281787894666195,
      -0.01655755005776882,
      -0.056125011295080185,
      0.0832713320851326,
      0.06179019808769226,
      0.07026945054531097,
      -0.10720103234052658,
      -0.017937324941158295,
      -0.12644514441490173,
      0.028985075652599335,
      -0.05658794939517975,
      -0.053934141993522644,
      -0.026690233498811722,
      0.05592768266797066,
      -0.0833074226975441,
      -0.049520447850227356,
      -0.10900333523750305,
      9.019672870635986e-05,
      0.08878809213638306,
      0.021771790459752083,
      -0.01642799563705921,
      0.08518718183040619,
      -0.08239882439374924,
      -0.07058434933423996,
      0.10757005214691162,
      0.09933668375015259,
      -0.09493551403284073,
      -0.11774560809135437,
      -0.09160102903842926,
      0.07153409719467163,
      -0.064689502120018,
      -0.11549440771341324,
      -0.017446696758270264,
      -0.004048474598675966,
      -0.11785466223955154,
      -0.02227943390607834,
      -0.08588296175003052,
      0.00820882711559534,
      0.10374966263771057,
      0.08095300197601318,
      0.10578303784132004,
      0.09043628722429276,
      -0.02758297510445118,
      -0.047078948467969894,
      -0.02820505015552044,
      0.009253142401576042,
      -0.03371245041489601,
      -0.022391896694898605,
      0.08749298751354218,
      -0.03524816036224365,
      0.042570631951093674,
      -0.03551492094993591,
      -0.041333578526973724,
      -0.03675800561904907,
      -0.08212639391422272,
      0.05663151293992996,
      0.04421886056661606,
      0.10525353997945786,
      -0.02120915986597538,
      -0.05600808188319206,
      0.13135944306850433,
      0.09322748333215714,
      0.1855628490447998,
      0.10011756420135498,
      0.20391041040420532,
      0.026385942474007607,
      0.1285923570394516,
      0.15119759738445282,
      0.1085149347782135,
      -0.05097704008221626,
      0.004384995903819799,
      -0.10421684384346008,
      0.1400960385799408,
      0.2265881448984146,
      -0.06181655451655388,
      -0.10630591958761215,
      0.05454788729548454,
      0.2272326797246933,
      0.00036316452315077186,
      0.09826117753982544,
      -0.2982909679412842,
      0.028392285108566284,
      -0.06454959511756897,
      0.252224862575531,
      -0.027690069749951363,
      -0.05135200172662735,
      -0.11344384402036667,
      0.022497504949569702,
      -0.11821422725915909,
      0.1895049661397934,
      0.04457193240523338,
      -0.07796059548854828,
      -0.09889979660511017,
      0.05362240970134735,
      -0.026625066995620728,
      0.16118913888931274,
      0.30095401406288147,
      0.09302271902561188,
      -0.4118225872516632,
      0.14120140671730042,
      0.0032846140675246716,
      -0.07839271426200867,
      0.12057378888130188,
      0.15685752034187317,
      -0.20984064042568207,
      0.18760086596012115,
      0.03530953451991081,
      -0.007631133310496807,
      -0.265113890171051,
      -0.07460306584835052,
      -0.022566411644220352,
      -0.04211455211043358,
      0.19762761890888214,
      -0.06642888486385345,
      0.05680270865559578,
      0.02210301347076893,
      -0.1443200558423996,
      -0.006261932197958231,
      -0.07681918144226074,
      0.0654745027422905,
      0.0003099664463661611,
      0.05331093817949295,
      -0.11546709388494492,
      -0.05525500327348709,
      -0.09976528584957123,
      -0.08263172209262848,
      0.11242972314357758,
      -0.01602110266685486,
      -0.013174641877412796,
      -0.05612491816282272,
      -0.05949808657169342,
      -0.0737292617559433,
      -0.036294400691986084,
      0.07242503762245178,
      0.011537794023752213,
      -0.11688470095396042,
      -0.028811737895011902,
      -0.12203153967857361,
      -0.07301625609397888,
      0.019419489428400993,
      -0.04207189381122589,
      -0.06663955748081207,
      0.10868216305971146,
      0.050507791340351105,
      0.030353501439094543,
      0.08578397333621979,
      -0.06818606704473495,
      0.04895131289958954,
      -0.10275034606456757,
      -0.09280253946781158,
      -0.07057540118694305,
      0.07248938828706741,
      -0.013035595417022705,
      0.08311950415372849,
      0.020390614867210388,
      -0.005369618535041809,
      -0.04542900621891022,
      0.0338454395532608,
      -0.09662745147943497,
      0.10616093128919601,
      -0.01363722886890173,
      -0.02120993286371231,
      0.05633842945098877,
      -0.06991496682167053,
      0.11795398592948914,
      -0.028345584869384766,
      0.04201439023017883,
      -0.09260163456201553,
      0.05127028375864029,
      -0.03134383633732796,
      -0.082185298204422,
      0.04875437915325165,
      -0.10575582087039948,
      0.031499650329351425,
      -0.006143159698694944,
      0.10100377351045609,
      -0.07310069352388382,
      -0.0696331039071083,
      -0.038302112370729446,
      0.05841059982776642,
      -0.016646550968289375,
      -0.11540256440639496,
      -0.06488427519798279,
      0.11201730370521545,
      0.026272986084222794,
      0.0904742106795311,
      0.1953584998846054,
      -0.01329751219600439,
      -0.08255589008331299,
      -0.2890317738056183,
      -0.1377325803041458,
      0.11521287262439728,
      -0.2206803560256958,
      0.276541143655777,
      0.08809497207403183,
      0.2883337736129761,
      0.05267509073019028,
      0.23848716914653778,
      -0.019187606871128082,
      -0.04048291593790054,
      -0.12038154900074005,
      0.10586559772491455,
      -0.008067145943641663,
      0.2053016573190689,
      0.1858092099428177,
      0.03952658921480179,
      0.11489297449588776,
      -0.03213895484805107,
      0.3732810318470001,
      -0.11651280522346497,
      -0.1120956540107727,
      -0.03718815743923187,
      0.1714518517255783,
      -0.09235085546970367,
      0.02079453133046627,
      -0.0046697151847183704,
      0.11203818023204803,
      -0.11382967233657837,
      0.0966188907623291,
      -0.11082708835601807,
      -0.40021568536758423,
      0.016864746809005737,
      0.0681949108839035,
      0.0999373346567154,
      -0.15276779234409332,
      0.09338722378015518,
      -0.0030164234340190887,
      -0.03351215645670891,
      0.017600741237401962,
      0.07884066551923752,
      -0.04948118329048157,
      -0.20754805207252502,
      0.15044298768043518,
      0.14785337448120117,
      0.016954641789197922,
      0.22717991471290588,
      0.3513936698436737,
      0.05094723030924797,
      0.10215318948030472,
      0.1669682413339615,
      0.05045728385448456,
      0.05186627432703972,
      0.02169090323150158,
      -0.07047966867685318,
      0.060727134346961975,
      -0.011863899417221546,
      -0.10812106728553772,
      0.002241611247882247,
      -0.0207818616181612,
      -0.17185911536216736,
      0.14073269069194794,
      0.08664090931415558,
      0.23913927376270294,
      0.09436129033565521,
      0.061788175255060196,
      0.006665244698524475,
      0.05456334725022316,
      -0.17918461561203003,
      0.0032083371188491583,
      -0.16401515901088715,
      0.2269252985715866,
      0.01761416159570217,
      0.02937842532992363,
      -0.011428233236074448,
      0.06320841610431671,
      -0.11807883530855179,
      -0.024055413901805878,
      0.20067277550697327,
      -0.09528600424528122,
      0.19282588362693787,
      0.11817017197608948,
      0.0005673624691553414,
      0.1456780731678009,
      -0.012784913182258606,
      -0.02024017833173275,
      -0.14125625789165497,
      -0.00887992326170206,
      -0.042355265468358994,
      0.2554193437099457,
      0.0676240399479866,
      0.02741004340350628,
      0.09496593475341797,
      -0.3011940121650696,
      0.0786762535572052,
      -0.23329152166843414,
      0.03609462082386017,
      -0.082607701420784,
      0.11966274678707123,
      -0.09706400334835052,
      0.09528587758541107,
      0.35229989886283875,
      0.018986597657203674,
      -0.47302553057670593,
      -0.4262368381023407,
      0.23540975153446198,
      -0.2175256311893463,
      -0.24225009977817535,
      -0.2352040708065033,
      0.2090100795030594,
      0.19788934290409088,
      0.0852738544344902,
      -0.05243512615561485,
      0.5441247820854187,
      0.03569325804710388,
      0.16497960686683655,
      -0.16938112676143646,
      -0.06375402212142944,
      -0.017912335693836212,
      0.0704694464802742,
      0.19080425798892975,
      -0.07152630388736725,
      0.13318240642547607,
      -0.04792141914367676,
      0.024961823597550392,
      0.15088406205177307,
      -0.10500588268041611,
      -0.11604991555213928,
      -0.05920470505952835,
      -0.011151764541864395,
      -0.09522616863250732,
      0.14070983231067657,
      0.06205184757709503,
      0.014032801613211632,
      -0.08656933903694153,
      -0.3617342412471771,
      0.2755582332611084,
      0.03608446940779686,
      -0.04865073785185814,
      0.05369138345122337,
      0.16869588196277618,
      -0.11797986924648285,
      0.04841472581028938,
      -0.25838878750801086,
      0.027067624032497406,
      0.008021391928195953,
      0.1032436341047287,
      -0.09169746935367584,
      -0.056191012263298035,
      -0.1107294112443924,
      -0.04481828957796097,
      -0.235336571931839,
      0.3024504482746124,
      0.09717047214508057,
      0.24783408641815186,
      0.05955793336033821,
      0.2553616166114807,
      -0.8183281421661377,
      0.0333264023065567,
      -0.7017493844032288,
      -0.0928012877702713,
      0.2585597634315491,
      -0.030422966927289963,
      0.01791614666581154,
      0.0037284090649336576,
      -0.29676705598831177,
      0.0914808064699173,
      0.2036615014076233,
      0.2513361871242523,
      0.12497597187757492,
      0.2824792265892029,
      -0.06679803878068924,
      0.12600108981132507,
      0.06118094176054001,
      -0.13608568906784058,
      -0.27378353476524353,
      0.29015010595321655,
      -0.2178248167037964,
      -0.04880577698349953,
      0.013659014366567135,
      -0.10290928930044174,
      -0.13108830153942108,
      0.04863891378045082,
      -0.36930349469184875,
      -0.2589951157569885,
      0.030922353267669678,
      -0.15566176176071167,
      0.23513732850551605,
      -0.07853839546442032,
      0.19288939237594604,
      0.03374596685171127,
      0.10880990326404572,
      -0.15634845197200775,
      -0.09556981921195984,
      -0.0888839066028595,
      -0.3108486831188202,
      0.00047657618415541947,
      0.2918410897254944,
      0.05956779420375824,
      0.350437194108963,
      0.062330011278390884,
      -0.12024732679128647,
      -0.1638556718826294,
      -0.32591867446899414,
      -0.04828919842839241,
      0.13212288916110992,
      -0.01772475242614746,
      0.026062441989779472,
      -0.05986075848340988,
      0.043411921709775925,
      0.17307433485984802,
      0.2650851011276245,
      -0.00482630729675293,
      -0.025699272751808167,
      0.07606542110443115,
      0.25092217326164246,
      -0.1252846121788025,
      0.20865602791309357,
      0.06398151069879532,
      -0.05366706848144531,
      0.10544903576374054,
      -0.10545364767313004,
      0.05545283854007721,
      0.19706188142299652,
      -0.0738096833229065,
      0.04089047387242317,
      -0.048876259475946426,
      -0.2525172829627991,
      0.05912027135491371,
      0.2046574354171753,
      0.06986808031797409,
      -0.4400455951690674,
      -0.5413885116577148,
      0.19362834095954895,
      -0.3254115879535675,
      -0.523913562297821,
      0.08236781507730484,
      0.10596409440040588,
      0.06004657223820686,
      0.13180257380008698,
      0.013850629329681396,
      0.1727462261915207,
      0.20858384668827057,
      0.08525750786066055,
      -0.17856593430042267,
      -0.05855308100581169,
      0.07122083008289337,
      0.058190975338220596,
      0.1307586431503296,
      -0.04345835745334625,
      0.07731889933347702,
      -0.323549747467041,
      0.028142785653471947,
      0.023612722754478455,
      0.09219411015510559,
      -0.07582247257232666,
      0.09863671660423279,
      -0.04058051109313965,
      -0.0641021579504013,
      0.06636039912700653,
      0.07482661306858063,
      0.11833080649375916,
      0.023717209696769714,
      -0.12004834413528442,
      -0.08871109783649445,
      0.04237478971481323,
      -0.027636289596557617,
      -0.04172283411026001,
      0.09953880310058594,
      -0.033213019371032715,
      -0.0669485479593277,
      -0.03511984646320343,
      0.055340349674224854,
      0.07613329589366913,
      -0.08709728717803955,
      0.10668717324733734,
      -0.030810251832008362,
      -0.1041674017906189,
      0.04810860753059387,
      0.045614004135131836,
      0.01382458209991455,
      -0.04649069905281067,
      -0.012239277362823486,
      0.08942811191082001,
      -0.10718519985675812,
      0.02470165491104126,
      -0.11355885863304138,
      0.009039565920829773,
      0.0829462856054306,
      0.08867578208446503,
      -0.12091521918773651,
      -0.008201166987419128,
      -0.11757868528366089,
      0.08355382084846497,
      -0.11614097654819489,
      0.01936022937297821,
      -0.013708114624023438,
      -0.05502723157405853,
      -0.0992838442325592,
      0.008640110492706299,
      -0.044301241636276245,
      -0.058186739683151245,
      -0.03251838684082031,
      -0.030421584844589233,
      0.06273321807384491,
      0.10844691097736359,
      -0.03454463183879852,
      0.009894579648971558,
      0.05009940266609192,
      0.05759662389755249,
      -0.0022756606340408325,
      -0.11663471162319183,
      -0.07383453845977783,
      0.0729043036699295,
      -9.827315807342529e-05,
      0.013211429119110107,
      -0.06240065395832062,
      0.07688997685909271,
      0.004431873559951782,
      -0.0069284588098526,
      -0.009593993425369263,
      -0.020826637744903564,
      0.08833706378936768,
      0.095447838306427,
      -0.004820510745048523,
      -0.002184256911277771,
      -0.017428189516067505,
      0.09536537528038025,
      0.12262244522571564,
      -0.10780347883701324,
      -0.07396896183490753,
      -0.03202305734157562,
      -0.10269579291343689,
      0.035683706402778625,
      0.10007679462432861,
      0.042092978954315186,
      -0.07104699313640594,
      -0.05691753327846527,
      -0.02773141860961914,
      -0.0905832052230835,
      0.05660165846347809,
      -0.08354455232620239,
      -0.11677895486354828,
      -0.03888121247291565,
      -0.055021733045578,
      0.09080974757671356,
      -0.0999838262796402,
      -0.06840792298316956,
      0.07622256875038147,
      0.11863464117050171,
      0.012443050742149353,
      0.03230614960193634,
      -0.04551053047180176,
      -0.09803345799446106,
      -0.07044880092144012,
      0.03180316090583801,
      -0.11410485208034515,
      -0.08075283467769623,
      -0.030843302607536316,
      -3.664195537567139e-05,
      0.09360139071941376,
      -0.018984481692314148,
      0.063653364777565,
      -0.03870031237602234,
      -0.044503048062324524,
      -0.108353391289711,
      0.07375632226467133,
      -0.009968385100364685,
      0.024413809180259705,
      -0.11732561886310577,
      0.10159529745578766,
      0.00211217999458313,
      -0.07647156715393066,
      0.11547119915485382,
      -0.10128456354141235,
      -0.04312014579772949,
      -0.09259139001369476,
      0.023042097687721252,
      0.028311625123023987,
      -0.04350154101848602,
      0.03301440179347992,
      0.022325992584228516,
      0.03018118441104889,
      -0.04211790859699249,
      -0.09090495109558105,
      -0.048471301794052124,
      -0.027264848351478577,
      0.06540177762508392,
      0.0004675835371017456,
      -0.10166528820991516,
      -0.057946547865867615,
      0.056251004338264465,
      -0.03146062791347504,
      -0.11432597041130066,
      0.06559230387210846,
      -0.11455240845680237,
      0.08879745006561279,
      0.0454414039850235,
      -0.03521467745304108,
      0.07262040674686432,
      0.001288294792175293,
      -0.06989400088787079,
      -0.050915688276290894,
      -0.1229325383901596,
      0.005040481686592102,
      0.05966685712337494,
      0.056671276688575745,
      -0.030427545309066772,
      -0.0873875766992569,
      0.0037617385387420654,
      -0.03879934549331665,
      -0.0412108451128006,
      -0.121485635638237,
      -0.07035058736801147,
      0.020265847444534302,
      0.09792155027389526,
      0.09323136508464813,
      0.05803978443145752,
      0.0025505274534225464,
      0.017371341586112976,
      -0.06890028715133667,
      0.06207963824272156,
      0.016760677099227905,
      -0.05516056716442108,
      -0.04632635414600372,
      -0.10411959886550903,
      -0.020701289176940918,
      0.09777320921421051,
      -0.06576845049858093,
      -0.08492472767829895,
      -0.01870676875114441,
      0.06927964091300964,
      0.0185682475566864,
      -0.03767994046211243,
      -0.022260069847106934,
      0.02421380579471588,
      0.06281791627407074,
      0.0025720447301864624,
      0.025253966450691223,
      -0.10589073598384857,
      -0.08021536469459534,
      -0.03568258881568909,
      0.08638133108615875,
      -0.04401133954524994,
      -0.006587713956832886,
      -0.08601818233728409,
      -0.056715644896030426,
      -0.07149962335824966,
      -0.115763358771801,
      0.027113094925880432,
      -0.01216326653957367,
      0.09349988400936127,
      0.058025602251291275,
      -0.03966653347015381,
      -0.09089396893978119,
      -0.12073838710784912,
      -0.12172400951385498,
      -0.07705236971378326,
      0.03902016952633858,
      -0.016149064525961876,
      -0.0028541339561343193,
      -0.05512770637869835,
      -0.1226501390337944,
      -0.017834380269050598,
      -0.04426958039402962,
      0.02277248166501522,
      0.1083422377705574,
      0.0217738077044487,
      -0.1144169270992279,
      0.02398049458861351,
      -0.10487589240074158,
      0.021939076483249664,
      -0.03035307116806507,
      0.08161447942256927,
      0.10924485325813293,
      0.04549385607242584,
      -0.052357595413923264,
      -0.09961391985416412,
      0.023576974868774414,
      -0.04936869442462921,
      -0.10107314586639404,
      0.08359218388795853,
      -0.12922310829162598,
      -0.07241465896368027,
      0.029132552444934845,
      0.08603803813457489,
      -0.056613627821207047,
      0.027553141117095947,
      0.09381668269634247,
      -0.0958806723356247,
