{
  "num_layers": 4,
  "layer0": {
    "name": "Conv2d",
    "in_channels": 14,
    "out_channels": 32,
    "weight": [
      0.6205735206604004,
      -0.3901591897010803,
      0.49849849939346313,
      0.9840059280395508,
      -0.6980587840080261,
      0.8122491836547852,
      -0.6499010324478149,
      0.07395193725824356,
      -0.43380966782569885,
      -0.4729520082473755,
      -0.6643537878990173,
      -0.21604523062705994,
      0.01690787822008133,
      0.016246385872364044,
      0.1615751087665558,
      -0.13676027953624725,
      -0.33464905619621277,
      -0.04711185023188591,
      -0.3448304831981659,
      -0.30317848920822144,
      0.008667794056236744,
      -0.30719125270843506,
      -0.02637176774442196,
      -0.29555463790893555,
      0.08953379839658737,
      -0.11781773716211319,
      0.059648528695106506,
      0.027010148391127586,
      0.3073085844516754,
      -1.313323974609375,
      1.20272696018219,
      -0.08263470232486725,
      0.03246622905135155,
      -0.3236405849456787,
      1.3424561023712158,
      0.5041490793228149,
      0.01098849717527628,
      -0.2800805866718292,
      0.48909348249435425,
      -0.3177431523799896,
      -0.03054642677307129,
      0.005849301349371672,
      -0.13698866963386536,
      0.7468166351318359,
      0.1431514173746109,
      0.6838104724884033,
      0.2972275912761688,
      0.103082075715065,
      0.24481245875358582,
      -0.36687636375427246,
      0.09484551101922989,
      -0.1869330108165741,
      -0.45679283142089844,
      -0.5331329107284546,
      0.019903304055333138,
      -0.008565881289541721,
      0.030934086069464684,
      -0.20324395596981049,
      -0.007548826280981302,
      0.0029026195406913757,
      -0.18796639144420624,
      -0.365278422832489,
      -0.13173656165599823,
      -0.3365825414657593,
      -0.11937983334064484,
      -0.12750351428985596,
      0.1828412562608719,
      -0.05927954614162445,
      0.06387032568454742,
      -0.0032863954547792673,
      0.9292911291122437,
      0.1327938437461853,
      0.10526061058044434,
      -0.7291921377182007,
      0.8968182802200317,
      1.5050138235092163,
      0.17621783912181854,
      -0.6131231188774109,
      0.2146759182214737,
      -0.3952004909515381,
      -0.4802233576774597,
      -0.8499202132225037,
      0.006351389456540346,
      0.02934848517179489,
      -0.25563645362854004,
      -0.17200525104999542,
      -0.21197542548179626,
      0.05607539415359497,
      -0.247304305434227,
      0.15372127294540405,
      0.23663732409477234,
      -0.2306213229894638,
      -0.06783078610897064,
      -0.014736384153366089,
      -0.20576217770576477,
      -0.05751553177833557,
      -0.013163179159164429,
      0.24542823433876038,
      0.014671247452497482,
      -0.09232448041439056,
      -0.3304923176765442,
      -0.1975720375776291,
      0.14808957278728485,
      -0.2503911554813385,
      0.08354081958532333,
      0.06330583989620209,
      -0.0991620123386383,
      -0.010929148644208908,
      -0.24112185835838318,
      -0.18953955173492432,
      -0.06517548114061356,
      0.004982489161193371,
      0.7746535539627075,
      0.05338380113244057,
      0.27601781487464905,
      0.6252754926681519,
      -0.4676961600780487,
      0.7292355895042419,
      0.3109048902988434,
      -0.5847378969192505,
      0.00882162805646658,
      -0.20844946801662445,
      0.008442899212241173,
      -0.3526635468006134,
      -0.027155188843607903,
      0.012321000918745995,
      0.4144205152988434,
      -0.019458463415503502,
      -1.1713637113571167,
      0.5110918879508972,
      0.7801948189735413,
      0.7291833162307739,
      0.46271660923957825,
      -0.5377820134162903,
      0.2825693190097809,
      -0.49924710392951965,
      -0.3730146884918213,
      0.13483163714408875,
      0.00624330248683691,
      0.008402648381888866,
      0.485453724861145,
      -0.38017722964286804,
      0.41443705558776855,
      -1.2080250978469849,
      0.15606626868247986,
      0.41405603289604187,
      0.16611777245998383,
      0.25571176409721375,
      0.03255021199584007,
      0.3399726152420044,
      0.131623774766922,
      -0.15114560723304749,
      -0.013960490003228188,
      0.003551458241418004,
      0.44413867592811584,
      0.9049010872840881,
      0.01930280402302742,
      0.4249989092350006,
      -0.4877817630767822,
      -0.7188875675201416,
      -0.4463028013706207,
      0.31426912546157837,
      -0.6105637550354004,
      0.2974640429019928,
      -0.4220729470252991,
      -0.10913556814193726,
      -0.007067951839417219,
      -0.005494286771863699,
      -0.04454164206981659,
      -0.48198145627975464,
      -1.0553321838378906,
      -0.06790483742952347,
      -0.29430636763572693,
      -0.12866783142089844,
      -0.09538675844669342,
      0.26994165778160095,
      0.33170807361602783,
      0.5500739216804504,
      0.29195311665534973,
      0.5807013511657715,
      0.00932971853762865,
      0.03146256133913994,
      0.41448649764060974,
      -1.1475403308868408,
      1.0713286399841309,
      0.6508007645606995,
      -0.4659719467163086,
      0.34419721364974976,
      0.203626349568367,
      0.25478044152259827,
      -0.6211333870887756,
      -0.24547986686229706,
      -0.18295644223690033,
      -0.6109268665313721,
      -0.04032442718744278,
      -0.00521911820396781,
      -0.09038523584604263,
      0.022750604897737503,
      -0.27570250630378723,
      0.15890437364578247,
      -0.17503869533538818,
      0.11765596270561218,
      -0.24763527512550354,
      0.12255461513996124,
      -0.19781716167926788,
      -0.06135552376508713,
      -0.20234933495521545,
      -0.30259230732917786,
      0.2622213661670685,
      -0.09364958107471466,
      -0.26662707328796387,
      0.9550925493240356,
      -0.6939307451248169,
      -0.46400392055511475,
      -0.7715368866920471,
      0.41014254093170166,
      -0.10641157627105713,
      0.027031095698475838,
      0.35929372906684875,
      0.40695205330848694,
      0.024193238466978073,
      0.48962366580963135,
      0.053407445549964905,
      -0.006740909069776535,
      1.0920180082321167,
      -0.7500113248825073,
      -1.4404486417770386,
      -0.02799653261899948,
      -0.138785719871521,
      -0.13543814420700073,
      0.1303519606590271,
      -0.0811629444360733,
      0.6996906995773315,
      0.030389102175831795,
      -0.3535790741443634,
      0.22441662847995758,
      0.006943382788449526,
      0.011600511148571968,
      -1.3291699886322021,
      -0.12493639439344406,
      0.7409070134162903,
      0.09691125899553299,
      0.24274499714374542,
      -0.21719762682914734,
      0.1431097537279129,
      0.3331378996372223,
      -0.18359655141830444,
      0.26954224705696106,
      0.24416637420654297,
      0.4846917986869812,
      -0.011881701648235321,
      -0.00046774791553616524,
      0.807400643825531,
      -0.7589647173881531,
      -0.06774719804525375,
      0.5730067491531372,
      -0.6205812096595764,
      -0.16192077100276947,
      -0.07378297299146652,
      0.5834269523620605,
      -0.5281164050102234,
      0.3950834274291992,
      0.14853757619857788,
      0.25263842940330505,
      -0.016468141227960587,
      0.004369938280433416,
      0.5029637217521667,
      0.665197491645813,
      -0.9831063151359558,
      -0.004674877505749464,
      0.45518332719802856,
      0.12120632082223892,
      -0.11060379445552826,
      0.16281738877296448,
      0.38518303632736206,
      -0.13423019647598267,
      -0.22027520835399628,
      0.0963958129286766,
      0.023328324779868126,
      0.03883799910545349,
      -1.004662275314331,
      -1.0677156448364258,
      -0.41191723942756653,
      0.18121419847011566,
      0.3683241903781891,
      0.276905357837677,
      0.16102012991905212,
      0.3309057950973511,
      0.578833818435669,
      -0.16490134596824646,
      0.7702653408050537,
      0.5302811861038208,
      0.015478195622563362,
      0.009866983629763126,
      -0.013930131681263447,
      -0.19226400554180145,
      -0.26273366808891296,
      0.059300873428583145,
      -0.2988748252391815,
      -0.04942503198981285,
      0.15986108779907227,
      -0.2767798900604248,
      -0.01940968446433544,
      0.16151870787143707,
      -0.0332595556974411,
      -0.2575811743736267,
      0.016942361369729042,
      0.07113006711006165,
      0.44530272483825684,
      0.5451388955116272,
      1.13345205783844,
      0.3437640964984894,
      -0.051691051572561264,
      0.052689097821712494,
      0.06497948616743088,
      -0.09524212777614594,
      -0.22098217904567719,
      -0.003871707944199443,
      -0.2688659429550171,
      -0.22197860479354858,
      -0.016986271366477013,
      -0.02065802924335003,
      -1.061007022857666,
      -0.47852954268455505,
      -0.33134666085243225,
      0.5873212814331055,
      0.37014439702033997,
      0.6921642422676086,
      -0.19033952057361603,
      0.21023258566856384,
      0.40175923705101013,
      -0.010802842676639557,
      0.23339568078517914,
      0.15822117030620575,
      0.003502428065985441,
      0.0074881985783576965,
      0.06605949997901917,
      -0.07559523731470108,
      0.21947115659713745,
      -0.14834363758563995,
      -0.2796620726585388,
      -0.1773391216993332,
      0.058879952877759933,
      -0.12131449580192566,
      -0.1361382156610489,
      -0.020126936957240105,
      -0.2445448338985443,
      -0.1590469479560852,
      0.05891487002372742,
      -0.222847118973732,
      0.9746319651603699,
      -0.1047513410449028,
      -0.2046997845172882,
      -0.6955755352973938,
      1.0097641944885254,
      0.07578947395086288,
      0.12548115849494934,
      -0.4023311138153076,
      0.5000156164169312,
      -0.22773022949695587,
      -0.2803192734718323,
      0.17512246966362,
      0.03623199462890625,
      -0.007247408851981163,
      -0.07149112224578857,
      -0.2064112424850464,
      -0.19020521640777588,
      -0.26381126046180725,
      -0.2597651779651642,
      -0.19920988380908966,
      -0.2565705180168152,
      0.23820087313652039,
      0.247232586145401,
      -0.1665588766336441,
      0.031196296215057373,
      -0.2415325790643692,
      -0.14503681659698486,
      -0.20248660445213318,
      0.3409636318683624,
      -1.2821141481399536,
      0.7441393733024597,
      -0.29497241973876953,
      -0.2704404592514038,
      0.3528774678707123,
      0.24419589340686798,
      0.2042728215456009,
      0.11172027140855789,
      -0.317222535610199,
      0.05347444489598274,
      0.35480013489723206,
      -0.021573172882199287,
      0.03395286947488785,
      -0.21163533627986908,
      1.2381820678710938,
      0.45332542061805725,
      -0.15514914691448212,
      -0.3533470630645752,
      0.35657042264938354,
      -0.40366196632385254,
      -0.4015437066555023,
      0.0204815324395895,
      0.2489241063594818,
      -0.18391720950603485,
      0.06994158029556274,
      0.002958493074402213,
      0.024125386029481888,
      -0.2886030972003937,
      0.5644648671150208,
      -0.7484511137008667,
      0.847599983215332,
      -0.8160855770111084,
      0.8350898027420044,
      -0.03452654927968979,
      0.5450608730316162,
      0.04762974753975868,
      -0.014842746779322624,
      -0.21905285120010376,
      -0.14570799469947815,
      0.0007125388947315514,
      -0.009411237202584743,
      0.15538953244686127,
      -0.8418549299240112,
      0.473312646150589,
      -0.29377421736717224,
      -0.3946712911128998,
      0.6572125554084778,
      0.6619738340377808,
      -0.16238829493522644,
      -0.03572186082601547,
      -0.3461693227291107,
      0.22763633728027344,
      0.08319595456123352,
      -0.013336705975234509,
      0.02182537317276001,
      -0.2897946834564209,
      -0.10773918032646179,
      0.06336142122745514,
      -0.005369373131543398,
      0.13305385410785675,
      -0.02881263941526413,
      0.1363019049167633,
      -0.012498259544372559,
      0.02237149514257908,
      -0.2058791071176529,
      0.006276414263993502,
      0.06389988213777542,
      -0.09640224277973175,
      0.0004629498871508986
    ],
    "bias": [
      -0.6223006248474121,
      0.08554046601057053,
      -0.022637013345956802,
      -0.26639243960380554,
      0.017777128145098686,
      -0.9249943494796753,
      -0.10234904289245605,
      -0.00013129427679814398,
      -0.49815860390663147,
      -0.18702900409698486,
      0.1577867716550827,
      -0.0918770506978035,
      0.777399480342865,
      -0.11836373805999756,
      -0.11139712482690811,
      0.4568062126636505,
      0.39367395639419556,
      0.2589886486530304,
      0.2510451078414917,
      -0.2309763878583908,
      0.36843380331993103,
      0.06243780627846718,
      -0.6800265312194824,
      0.5231679081916809,
      -0.24618136882781982,
      -0.19672463834285736,
      -0.21424530446529388,
      0.2894124686717987,
      -0.30657270550727844,
      0.017866237089037895,
      0.3050251007080078,
      -0.19832143187522888
    ]
  },
  "layer1": {
    "name": "ReLU"
  },
  "layer2": {
    "name": "Conv2d",
    "in_channels": 32,
    "out_channels": 8,
    "weight": [
      0.11083811521530151,
      -0.14231781661510468,
      0.3911285996437073,
      -0.19189119338989258,
      0.09020017087459564,
      0.058982789516448975,
      0.15596948564052582,
      0.1333441138267517,
      -0.14846743643283844,
      -0.4352211654186249,
      0.10119061172008514,
      -0.1973673701286316,
      -0.187054842710495,
      -0.08642667531967163,
      -0.009918909519910812,
      -0.957421600818634,
      -0.032478563487529755,
      0.3394193649291992,
      0.1767633557319641,
      -0.1628880351781845,
      0.13324056565761566,
      0.01652330718934536,
      0.15202905237674713,
      -0.6283673048019409,
      0.16936662793159485,
      0.42059868574142456,
      0.07379136979579926,
      0.6768945455551147,
      -0.40573179721832275,
      -0.6532761454582214,
      0.13519275188446045,
      -0.11309385299682617,
      0.49042022228240967,
      0.06057913973927498,
      1.0202120542526245,
      -0.09502353519201279,
      0.042599573731422424,
      0.04837577044963837,
      -0.03837110102176666,
      -0.24674223363399506,
      0.19213826954364777,
      -0.2777913808822632,
      -0.05366047844290733,
      -0.16736812889575958,
      -0.39487093687057495,
      -0.14226405322551727,
      0.0938061848282814,
      -0.5794663429260254,
      -0.032211437821388245,
      -0.09124802052974701,
      0.47824981808662415,
      -0.22135649621486664,
      0.08146102726459503,
      0.005782652646303177,
      0.26813918352127075,
      -0.06674648076295853,
      0.11603521555662155,
      -0.0025801616720855236,
      0.017920538783073425,
      0.9409105777740479,
      -0.05540843307971954,
      0.21205824613571167,
      0.3260619342327118,
      0.15904338657855988,
      -0.5371387600898743,
      -0.05319705232977867,
      0.6544603109359741,
      0.006379214581102133,
      0.05428370088338852,
      0.0682249516248703,
      -0.11686119437217712,
      0.033420953899621964,
      0.3993303179740906,
      -0.03575718030333519,
      0.015164381824433804,
      -0.08622091263532639,
      -0.36393141746520996,
      2.035308599472046,
      0.03186766430735588,
      -0.41454917192459106,
      -0.15165376663208008,
      -0.14964766800403595,
      0.5912324786186218,
      -0.26973456144332886,
      -0.08709561079740524,
      -0.0680374875664711,
      0.28538042306900024,
      0.09822872281074524,
      -0.05877184122800827,
      -0.18211615085601807,
      -0.08007245510816574,
      0.879460334777832,
      -0.09870865195989609,
      -0.3026059865951538,
      0.4477687180042267,
      0.06519061326980591,
      0.807749330997467,
      -0.027018319815397263,
      0.32278749346733093,
      -0.6318867802619934,
      0.1940675526857376,
      5.762052059173584,
      0.12424038350582123,
      0.012518584728240967,
      -0.5484211444854736,
      0.3401790261268616,
      2.2987918853759766,
      -0.7359567880630493,
      1.379372000694275,
      1.165007472038269,
      -0.011372636072337627,
      0.6854788064956665,
      -3.772834062576294,
      0.15084996819496155,
      0.09266921877861023,
      0.6310482621192932,
      -3.5978527069091797,
      -0.028915928676724434,
      -0.5415341854095459,
      0.3341194689273834,
      -0.11450732499361038,
      1.2322416305541992,
      0.05681362748146057,
      0.5548280477523804,
      -0.17061010003089905,
      0.5191124081611633,
      0.31023740768432617,
      -0.11235523223876953,
      0.09619837254285812,
      0.0188295841217041,
      0.004331373609602451,
      0.1640588790178299,
      0.23156817257404327,
      -0.028046173974871635,
      -0.08766087144613266,
      -0.10721395909786224,
      0.008931481279432774,
      -0.429267942905426,
      0.049140386283397675,
      -0.17799341678619385,
      -1.0348803997039795,
      -0.08566717803478241,
      -0.09356540441513062,
      0.013330335728824139,
      -0.3691330850124359,
      1.329246997833252,
      -0.9896013736724854,
      -0.3467386066913605,
      -0.12970881164073944,
      0.04782760515809059,
      0.25675076246261597,
      0.6796165704727173,
      0.1520492285490036,
      -0.23201392590999603,
      0.12309746444225311,
      -0.013906496576964855,
      0.5139544606208801,
      0.04310210794210434,
      0.08572721481323242,
      0.27312901616096497,
      0.10706518590450287,
      -0.005872073117643595,
      0.04331972077488899,
      -0.24884989857673645,
      0.1099458783864975,
      -0.04258130118250847,
      0.11356787383556366,
      -0.030817124992609024,
      -0.2806050181388855,
      0.23780162632465363,
      0.05088402330875397,
      -0.4414874017238617,
      1.0486423969268799,
      0.022765513509511948,
      0.0004957010387443006,
      -0.16628366708755493,
      -0.2937363088130951,
      0.32963961362838745,
      -0.08575385808944702,
      -0.20366407930850983,
      0.12779057025909424,
      0.12846019864082336,
      -0.8476327061653137,
      1.0535229444503784,
      0.14680889248847961,
      -0.13809822499752045,
      0.09259171783924103,
      0.28674280643463135,
      -0.785055935382843,
      0.08177617937326431,
      0.1224886029958725,
      0.012823178432881832,
      0.6731247901916504,
      -0.1691209077835083,
      0.27808016538619995,
      0.09775219857692719,
      0.0816725566983223,
      3.506208658218384,
      -0.10158941149711609,
      0.08068973571062088,
      0.5221771001815796,
      0.8933390974998474,
      0.6044291853904724,
      -0.4848700165748596,
      -0.30038297176361084,
      -0.9590142369270325,
      -0.05881283059716225,
      -0.07384784519672394,
      -0.6951513886451721,
      -0.5529361367225647,
      -0.4946019649505615,
      0.5084596276283264,
      -0.6291041970252991,
      -0.03901205211877823,
      0.3097572922706604,
      -0.16707094013690948,
      -0.041106175631284714,
      1.206782579421997,
      -0.09095502644777298,
      0.4168173670768738,
      0.25454044342041016,
      0.06614938378334045,
      0.3580712676048279,
      -0.16267423331737518,
      0.07017949223518372,
      -0.17286111414432526,
      0.09181896597146988,
      -0.21675871312618256,
      -0.0412265807390213,
      0.08936327695846558,
      0.04282189905643463,
      -0.07146363705396652,
      -0.12631550431251526,
      -0.6591871380805969,
      -0.012890197336673737,
      -0.08308298885822296,
      0.5979483723640442,
      -0.19979196786880493,
      -0.1083986684679985,
      0.9349641799926758,
      -0.061682142317295074,
      -0.027951544150710106,
      -0.02161196991801262,
      -0.23685331642627716,
      -0.022043529897928238,
      -0.0997176468372345,
      -0.4023156464099884,
      -0.39270225167274475,
      0.11926966160535812,
      -0.3608413338661194,
      0.12902365624904633,
      0.2861941456794739,
      0.18841469287872314,
      -0.09439205378293991,
      0.38701844215393066,
      0.07460987567901611
    ],
    "bias": [
      0.1581280529499054,
      0.16768141090869904,
      0.1421276330947876,
      0.9080910086631775,
      0.04522114619612694,
      -0.10470547527074814,
      0.3516058921813965,
      0.19323724508285522
    ]
  },
  "layer3": {
    "name": "Sigmoid"
  }
}