{
  "num_layers": 6,
  "layer0": {
    "name": "Conv2d",
    "in_channels": 14,
    "out_channels": 64,
    "weight": [
      0.6201526522636414,
      0.18002834916114807,
      0.1348457634449005,
      0.04165079817175865,
      0.32874220609664917,
      -0.1925174444913864,
      -0.0872524231672287,
      0.2432311773300171,
      -0.06610262393951416,
      0.178324356675148,
      0.051737360656261444,
      -0.27027416229248047,
      0.1446245163679123,
      0.08840572088956833,
      0.005905552767217159,
      -0.1642840951681137,
      -0.00241833389736712,
      0.2764355540275574,
      0.39370518922805786,
      0.14622342586517334,
      0.1941688507795334,
      0.02430715039372444,
      -0.11073972284793854,
      0.17019253969192505,
      -0.17458277940750122,
      -0.33156636357307434,
      -0.009403971023857594,
      0.012647146359086037,
      -0.42761653661727905,
      -0.2470066100358963,
      -0.023866882547736168,
      -0.017853951081633568,
      0.3994397521018982,
      0.3212568759918213,
      -0.017911715433001518,
      0.0409809909760952,
      0.07590249180793762,
      -0.11988595873117447,
      -0.03189028427004814,
      0.04852455109357834,
      -0.12746687233448029,
      0.21183814108371735,
      -0.018862556666135788,
      -0.14617705345153809,
      0.2361372709274292,
      -0.11561189591884613,
      -0.2576275169849396,
      -0.03349515050649643,
      0.10153678804636002,
      -0.154547780752182,
      0.12316834181547165,
      -0.016808755695819855,
      0.07186296582221985,
      0.008356405422091484,
      0.03257359564304352,
      -0.14585231244564056,
      -0.036432839930057526,
      0.6520746946334839,
      -0.7230640053749084,
      0.43335357308387756,
      0.04727991670370102,
      -0.008333111181855202,
      0.20005406439304352,
      0.1948544681072235,
      0.08698522299528122,
      -0.060212742537260056,
      -0.18197353184223175,
      0.2753884494304657,
      0.1918426752090454,
      0.15893281996250153,
      -0.526318371295929,
      -0.15291807055473328,
      0.4234541654586792,
      0.07409872859716415,
      -0.22254033386707306,
      -0.015144899487495422,
      0.04952293634414673,
      0.31973639130592346,
      0.17739689350128174,
      0.21309179067611694,
      0.13850653171539307,
      0.19138021767139435,
      0.04179993271827698,
      0.11131825298070908,
      0.15293866395950317,
      0.41568708419799805,
      -0.11502320319414139,
      -0.19326730072498322,
      0.53410804271698,
      -0.19230811297893524,
      0.2681127190589905,
      -0.010604520328342915,
      0.32951363921165466,
      0.255645751953125,
      -0.11329154670238495,
      -0.060643889009952545,
      -0.1352432519197464,
      -0.0360369049012661,
      -0.2763625681400299,
      0.6035938858985901,
      -0.049381133168935776,
      0.2790985703468323,
      0.1569567173719406,
      0.37063342332839966,
      0.09386878460645676,
      0.12236917018890381,
      -0.2940475344657898,
      0.1600813865661621,
      0.07233396917581558,
      0.2019883543252945,
      -0.14862598478794098,
      -0.10189391672611237,
      0.48767364025115967,
      -0.23173940181732178,
      -0.4486493766307831,
      -0.25387486815452576,
      -0.13531401753425598,
      0.6538006067276001,
      0.19778580963611603,
      0.4036100208759308,
      -0.1665768176317215,
      -0.0465557835996151,
      0.013944587670266628,
      0.1753302961587906,
      0.2568700313568115,
      0.23971185088157654,
      -0.42125070095062256,
      0.33012622594833374,
      0.09102165699005127,
      -0.04850131273269653,
      -0.5050910115242004,
      -0.09788285940885544,
      0.31205374002456665,
      -0.02598193846642971,
      -0.21556493639945984,
      0.19318640232086182,
      0.20842918753623962,
      0.10991045087575912,
      0.2243218868970871,
      0.07953842729330063,
      -0.049542251974344254,
      0.42359450459480286,
      0.44083115458488464,
      -0.41495034098625183,
      -0.16223537921905518,
      -0.24149994552135468,
      0.4068189561367035,
      -0.10171113908290863,
      0.11399252712726593,
      0.01572253182530403,
      0.0898146778345108,
      -0.2034660130739212,
      -0.1527743935585022,
      -0.07924335449934006,
      0.2837713956832886,
      -0.5560458898544312,
      0.15171049535274506,
      -0.14698371291160583,
      -0.013621026650071144,
      0.061784256249666214,
      0.04538954049348831,
      0.2098693549633026,
      0.02422802522778511,
      0.1865234225988388,
      0.1439337283372879,
      0.21472910046577454,
      -0.1409776210784912,
      0.18748220801353455,
      0.1816544085741043,
      -0.5376561880111694,
      -0.27232399582862854,
      0.3211090564727783,
      -0.2505263686180115,
      0.1832406222820282,
      0.16107973456382751,
      0.010652278549969196,
      0.016374094411730766,
      0.011720185168087482,
      0.2165440171957016,
      0.11816870421171188,
      0.06931544095277786,
      0.2518863081932068,
      -0.04372350871562958,
      0.04538276791572571,
      0.1357828974723816,
      -0.05515265464782715,
      0.19977760314941406,
      0.2666528522968292,
      -0.17632566392421722,
      -0.1312149614095688,
      -0.057024404406547546,
      -0.2400660365819931,
      -0.2655890882015228,
      0.25124552845954895,
      -0.20668268203735352,
      -0.16976627707481384,
      -0.05945208668708801,
      0.49869799613952637,
      0.3293914496898651,
      -0.16097106039524078,
      -0.27398014068603516,
      0.43831339478492737,
      -0.11513639986515045,
      0.18966369330883026,
      -0.092134989798069,
      -0.1717248409986496,
      -0.08485524356365204,
      0.1513073742389679,
      0.06396196782588959,
      -0.06810343265533447,
      -0.14584983885288239,
      -0.03404526039958,
      0.41865968704223633,
      0.5467455983161926,
      0.28886324167251587,
      0.16206341981887817,
      -0.1253197193145752,
      0.03364190831780434,
      0.1694401204586029,
      0.038074858486652374,
      -0.2828417420387268,
      -0.1677038073539734,
      3.869019201374613e-05,
      0.009153364226222038,
      0.3831227123737335,
      0.3557688891887665,
      0.486376017332077,
      -0.009426052682101727,
      -0.04751324653625488,
      0.24333380162715912,
      0.03711989149451256,
      -0.12717314064502716,
      0.3428833484649658,
      0.3105092942714691,
      -0.32792529463768005,
      -0.20087027549743652,
      0.17278088629245758,
      0.1855802685022354,
      -0.23447813093662262,
      0.11283906549215317,
      0.10232645273208618,
      0.5386095643043518,
      0.24453304708003998,
      -0.223960742354393,
      0.2520177960395813,
      0.34253787994384766,
      0.36358970403671265,
      0.1622403860092163,
      0.018585098907351494,
      -0.1929044872522354,
      0.046452514827251434,
      -0.19653372466564178,
      0.21647465229034424,
      -0.353025883436203,
      -0.4273492395877838,
      0.39944010972976685,
      0.07967566698789597,
      0.01573300175368786,
      0.12998853623867035,
      0.3063916862010956,
      0.17236849665641785,
      0.08638697862625122,
      0.22885911166667938,
      -0.03468215838074684,
      0.1492626965045929,
      -0.19060826301574707,
      0.5433133840560913,
      0.4813201129436493,
      -0.011228939518332481,
      0.3413558900356293,
      0.04071855917572975,
      -0.15455171465873718,
      0.19388572871685028,
      -0.1749049723148346,
      0.1847151517868042,
      0.19759255647659302,
      -0.17301514744758606,
      0.1673772633075714,
      0.21700447797775269,
      0.15004199743270874,
      -0.17560975253582,
      0.43252286314964294,
      -0.5620455741882324,
      -0.027897141873836517,
      -0.08556994795799255,
      0.18866339325904846,
      -0.09958186745643616,
      0.2828218638896942,
      0.24437595903873444,
      0.0949985682964325,
      0.060901571065187454,
      0.07412728667259216,
      -0.07835517823696136,
      -0.04866543412208557,
      -0.009840667247772217,
      0.12537002563476562,
      0.06987997889518738,
      -0.15893340110778809,
      -0.2068527191877365,
      -0.06980352103710175,
      0.019530028104782104,
      -0.2229054570198059,
      0.042539119720458984,
      -0.02328948676586151,
      -0.1393643319606781,
      0.09788265824317932,
      0.1385134756565094,
      -0.11314882338047028,
      -0.564785897731781,
      -0.28460055589675903,
      0.156696617603302,
      -0.16520008444786072,
      0.3384935259819031,
      0.3649898171424866,
      0.09011776000261307,
      0.10380569845438004,
      -0.07623355835676193,
      0.31039029359817505,
      0.2729607820510864,
      -0.003063405863940716,
      -0.08332288265228271,
      0.215926855802536,
      0.18698248267173767,
      -0.1898985356092453,
      -0.11648981273174286,
      0.19071505963802338,
      0.1670258492231369,
      0.0011869324371218681,
      0.13484850525856018,
      0.20015506446361542,
      0.23761102557182312,
      -0.06326546519994736,
      0.1258784979581833,
      0.07868652790784836,
      0.1973625272512436,
      0.14326892793178558,
      0.21404561400413513,
      -0.19607752561569214,
      -0.3673718571662903,
      -0.15988169610500336,
      -0.39661890268325806,
      0.3090384006500244,
      0.19295479357242584,
      0.0025715662632137537,
      -0.3617987632751465,
      -0.11009633541107178,
      0.2814970016479492,
      0.12335529178380966,
      0.17760716378688812,
      0.03646435588598251,
      -0.05348026752471924,
      -0.22231824696063995,
      -0.014710158109664917,
      -0.17305123805999756,
      0.05741995573043823,
      0.12614619731903076,
      -0.23963406682014465,
      -0.15036043524742126,
      -0.0284213125705719,
      -0.017290115356445312,
      -0.22693534195423126,
      0.25085392594337463,
      -0.20402881503105164,
      -0.23695844411849976,
      0.029768697917461395,
      0.6249229311943054,
      -0.8150779604911804,
      0.0025682677514851093,
      0.21358098089694977,
      -0.04718805477023125,
      0.2663727104663849,
      0.041020508855581284,
      0.06016294285655022,
      -0.1511542797088623,
      -0.036668289452791214,
      0.007454079110175371,
      -0.0034760599955916405,
      0.00655441964045167,
      -0.26656317710876465,
      0.23089557886123657,
      0.023938940837979317,
      -0.3973616659641266,
      0.5011582970619202,
      -0.4600074887275696,
      0.18111272156238556,
      -0.09517715126276016,
      0.24007627367973328,
      0.25503048300743103,
      0.3543294072151184,
      -0.2725647985935211,
      -0.05377710610628128,
      0.1902695596218109,
      -0.03718896955251694,
      -0.14070481061935425,
      0.3807617127895355,
      -0.6713387370109558,
      -0.0979262962937355,
      -0.32563361525535583,
      0.3416265845298767,
      0.1122928038239479,
      0.1981535702943802,
      0.19475024938583374,
      0.26949557662010193,
      -0.02871793694794178,
      -0.008374636992812157,
      0.0012559888418763876,
      -0.18325801193714142,
      -0.13511040806770325,
      -0.04131072759628296,
      0.5352538824081421,
      0.33118608593940735,
      0.48229846358299255,
      0.15341253578662872,
      0.1370554119348526,
      -0.04812950640916824,
      -0.0985376313328743,
      0.19058938324451447,
      -0.05913887917995453,
      -0.08151686936616898,
      0.09995204210281372,
      -0.12152991443872452,
      0.37313324213027954,
      0.38414138555526733,
      0.36990785598754883,
      0.2999703884124756,
      -0.34495648741722107,
      -0.12850093841552734,
      -0.11364962160587311,
      -0.09278606623411179,
      0.2436366081237793,
      0.263505756855011,
      0.09211980551481247,
      -0.057045985013246536,
      0.2528543770313263,
      -0.10054230690002441,
      -0.22576887905597687,
      -0.1553955078125,
      0.22598662972450256,
      -0.11701083183288574,
      0.042905110865831375,
      0.02096097730100155,
      -0.21939456462860107,
      0.1562676578760147,
      -0.1689625084400177,
      -0.0981966108083725,
      -0.21913748979568481,
      -0.13023079931735992,
      0.11808807402849197,
      0.09216226637363434,
      -0.14465823769569397,
      0.11393296718597412,
      -0.19392116367816925,
      0.08434893935918808,
      0.15122564136981964,
      -0.08789082616567612,
      0.24399302899837494,
      -0.2234458476305008,
      -0.24062694609165192,
      -0.26164063811302185,
      0.23892873525619507,
      0.07436806708574295,
      -0.11267709732055664,
      0.44406574964523315,
      -0.2657594084739685,
      0.5744847059249878,
      -0.125231072306633,
      0.012956957332789898,
      0.33071091771125793,
      -0.07956293225288391,
      0.17202916741371155,
      0.11673946678638458,
      -0.06378673017024994,
      0.03534477576613426,
      -0.14057557284832,
      -0.2082170844078064,
      0.1329784244298935,
      0.08383350074291229,
      0.19838900864124298,
      -0.01120999176055193,
      -0.09616001695394516,
      0.2545487582683563,
      -0.11021612584590912,
      -0.15983697772026062,
      -0.07692769914865494,
      0.13909581303596497,
      0.14463435113430023,
      -0.13338831067085266,
      0.022313248366117477,
      -0.10481462627649307,
      -0.050405971705913544,
      0.7980301976203918,
      0.5039559006690979,
      -0.574680745601654,
      0.3687683343887329,
      -0.016548030078411102,
      0.07569234818220139,
      -0.10913911461830139,
      0.059632379561662674,
      -0.10215868055820465,
      0.13649426400661469,
      -0.10381956398487091,
      0.2574548125267029,
      -0.01962125673890114,
      0.23622408509254456,
      0.4732600748538971,
      -0.4320923686027527,
      0.5502374172210693,
      0.32611000537872314,
      0.3582828938961029,
      -0.0008226606878452003,
      0.012890718877315521,
      -0.07361570745706558,
      0.290351539850235,
      0.1357613205909729,
      -0.1667567491531372,
      -0.13702529668807983,
      0.27027636766433716,
      -0.23482032120227814,
      -0.16811564564704895,
      0.5365383625030518,
      0.6100776195526123,
      -0.07277783006429672,
      0.029154958203434944,
      -0.18063636124134064,
      -0.10931212455034256,
      0.10692380368709564,
      -0.0035113878548145294,
      -0.09641818702220917,
      -0.16798260807991028,
      0.22128334641456604,
      0.26353195309638977,
      0.06717634946107864,
      -0.2667033076286316,
      0.18680709600448608,
      0.019610734656453133,
      0.11695363372564316,
      -0.21088570356369019,
      -0.043939847499132156,
      -0.15867431461811066,
      -0.04202935844659805,
      -0.1208597794175148,
      -0.09876783192157745,
      0.09720808267593384,
      0.2665913701057434,
      -0.18908803164958954,
      0.0335611030459404,
      0.44362401962280273,
      0.2275240570306778,
      0.38309910893440247,
      0.44368255138397217,
      0.12910553812980652,
      0.06694859266281128,
      0.05097925662994385,
      -0.2815133333206177,
      -0.16052734851837158,
      0.05609294772148132,
      0.06435704231262207,
      0.015293092466890812,
      0.06969946622848511,
      0.04326920956373215,
      0.0452638678252697,
      -0.4063178300857544,
      0.45393627882003784,
      0.297873318195343,
      -0.2811514735221863,
      -0.15596488118171692,
      0.2164962887763977,
      -0.1631648987531662,
      0.0919540673494339,
      0.1459830105304718,
      0.13444092869758606,
      0.19518005847930908,
      0.03980284929275513,
      0.07054204493761063,
      -0.0039003414567559958,
      0.29034867882728577,
      0.12118252366781235,
      0.46036675572395325,
      -0.20592689514160156,
      0.3216768205165863,
      0.06428550183773041,
      0.24930690228939056,
      0.13508035242557526,
      0.05838431417942047,
      0.23262333869934082,
      0.2836323380470276,
      -0.22995829582214355,
      0.21534672379493713,
      -0.3299957811832428,
      -0.33679309487342834,
      -0.3494425117969513,
      0.18915246427059174,
      -0.1961527019739151,
      0.3587304353713989,
      0.016352321952581406,
      0.2919729948043823,
      0.14140594005584717,
      0.14567193388938904,
      0.22665978968143463,
      0.09129701554775238,
      0.14753368496894836,
      0.05437038838863373,
      0.05222056433558464,
      0.26580557227134705,
      0.13953128457069397,
      0.6041678786277771,
      0.02246643416583538,
      -0.11285962164402008,
      -0.137546107172966,
      -0.08012137562036514,
      0.013198363594710827,
      -0.29291853308677673,
      -0.0575811043381691,
      0.1626296192407608,
      -0.0048129018396139145,
      -0.14984723925590515,
      -0.4818648099899292,
      -0.1601981222629547,
      0.342399001121521,
      0.26435986161231995,
      0.008304283022880554,
      0.4410134553909302,
      0.22559218108654022,
      0.1283707320690155,
      0.27364128828048706,
      0.07156402617692947,
      -0.24434205889701843,
      0.23024462163448334,
      -0.17101489007472992,
      0.046255309134721756,
      -0.13353873789310455,
      0.14490437507629395,
      -0.1387319713830948,
      -0.03800654783844948,
      -0.02864558808505535,
      0.4224716126918793,
      0.2896912395954132,
      0.10839999467134476,
      0.1368422508239746,
      0.1617662012577057,
      -0.09278159588575363,
      0.29013147950172424,
      0.12349223345518112,
      0.1902408003807068,
      -0.2449404001235962,
      -0.01103895902633667,
      0.12106063961982727,
      -0.23612242937088013,
      0.062368690967559814,
      0.0017608106136322021,
      -0.21652542054653168,
      -0.2219022810459137,
      0.22614771127700806,
      -0.15362176299095154,
      -0.20436276495456696,
      -0.20751534402370453,
      0.05277791619300842,
      0.04144090414047241,
      0.39579257369041443,
      -0.2762250006198883,
      -0.39757007360458374,
      -0.0007667469326406717,
      0.4701668918132782,
      0.0942549780011177,
      0.11728662252426147,
      -0.14194345474243164,
      0.15848423540592194,
      -0.21185775101184845,
      0.2750460207462311,
      -0.06544862687587738,
      0.11367915570735931,
      -0.17671653628349304,
      0.6381784081459045,
      -0.42188534140586853,
      -0.11585990339517593,
      -0.4081883728504181,
      0.29568785429000854,
      0.14007824659347534,
      0.09309063851833344,
      0.26214519143104553,
      0.053154848515987396,
      -0.03881910815834999,
      0.19139184057712555,
      -0.03072974644601345,
      0.10408815741539001,
      -0.010497231036424637,
      0.6595301032066345,
      0.34183380007743835,
      -0.23945781588554382,
      -0.022929789498448372,
      -0.0904712826013565,
      0.02026912197470665,
      0.2795495390892029,
      -0.20175501704216003,
      0.21253147721290588,
      -0.036781683564186096,
      0.1592872440814972,
      -0.1033974215388298,
      -0.2576114237308502,
      -0.023772340267896652,
      -0.21902620792388916,
      0.1761699616909027,
      -0.20719105005264282,
      0.14368140697479248,
      0.017444640398025513,
      -0.2020186334848404,
      -0.00847768783569336,
      0.10752549767494202,
      0.12678828835487366,
      -0.029518917202949524,
      -0.12644675374031067,
      -0.14629396796226501,
      -0.023096665740013123,
      -0.011497795581817627,
      0.0427401065826416,
      -0.06764586269855499,
      0.2547233998775482,
      0.08850592374801636,
      0.11492854356765747,
      -0.26219382882118225,
      -0.19449760019779205,
      -0.21197409927845,
      -0.19643598794937134,
      -0.1744973361492157,
      0.21506795287132263,
      -0.2653888165950775,
      0.08635318279266357,
      -0.03752259910106659,
      0.4607977867126465,
      -0.51462721824646,
      -0.04748145490884781,
      -0.011479935608804226,
      -0.17496487498283386,
      -0.05968788266181946,
      0.10232187062501907,
      0.2858428955078125,
      -0.07191655784845352,
      0.043872419744729996,
      0.31644317507743835,
      0.07210762798786163,
      -0.19865453243255615,
      -0.19279782474040985,
      0.1253996640443802,
      -0.3684163987636566,
      0.8411719799041748,
      0.34277644753456116,
      0.18893258273601532,
      0.1710088700056076,
      0.14649607241153717,
      -0.2185879945755005,
      -0.2853672206401825,
      -0.1746482402086258,
      -0.0806797444820404,
      0.1803916096687317,
      -0.05536877363920212,
      -0.09657280147075653,
      0.07601010054349899,
      0.5264163017272949,
      0.4596050977706909,
      -0.19073471426963806,
      0.18430492281913757,
      0.12027879059314728,
      0.02099490351974964,
      -0.14071348309516907,
      0.24445806443691254,
      -0.1243346557021141,
      0.12993979454040527,
      -0.1350153684616089,
      -0.10732295364141464,
      -0.2551747262477875,
      0.3246089816093445,
      0.39198508858680725,
      0.5282482504844666,
      -0.3993225693702698,
      -0.17901721596717834,
      0.2988426983356476,
      0.3266632854938507,
      0.20037147402763367,
      -0.1681475192308426,
      0.041206229478120804,
      -0.29649949073791504,
      0.09381339699029922,
      0.0790029764175415,
      0.269238144159317,
      0.4671531617641449,
      0.15700338780879974,
      0.1985446810722351,
      -0.15581579506397247,
      -0.37602218985557556,
      0.48522472381591797,
      0.023863356560468674,
      0.25722536444664,
      0.16271746158599854,
      0.09085769206285477,
      -0.04491342231631279,
      0.29508423805236816,
      -0.015261931344866753,
      -0.10600554943084717,
      0.16579404473304749,
      0.05857151746749878,
      -0.18742823600769043,
      0.18738004565238953,
      -0.14459973573684692,
      0.17298829555511475,
      0.11188632249832153,
      -0.2053716480731964,
      0.036755383014678955,
      -0.16685548424720764,
      -0.25230446457862854,
      -0.22551357746124268,
      -0.14450886845588684,
      0.17437219619750977,
      -0.5083385109901428,
      0.060423027724027634,
      0.2511964440345764,
      -0.3018321692943573,
      0.38601988554000854,
      0.23541264235973358,
      0.029011540114879608,
      0.2206001877784729,
      -0.13310785591602325,
      0.12829063832759857,
      -0.051735445857048035,
      0.07970038056373596,
      0.09988243877887726,
      0.06929723918437958,
      -0.31216734647750854,
      -0.1451559066772461,
      -0.23891671001911163,
      -0.08758567273616791,
      -0.31339311599731445,
      0.09366878122091293,
      0.19404171407222748,
      0.30305010080337524,
      0.20759421586990356,
      -0.22829009592533112,
      0.14320692420005798,
      -0.06930411607027054,
      0.21628813445568085,
      0.10526503622531891,
      -0.07166843116283417,
      -0.14609132707118988,
      0.42605477571487427,
      0.7573893070220947,
      0.30664315819740295,
      0.22907686233520508,
      -0.13989567756652832,
      0.08225323259830475,
      0.03391927853226662,
      -0.2725316286087036,
      -0.19250202178955078,
      0.1927214115858078,
      0.13992013037204742,
      0.06528523564338684,
      0.5730338096618652,
      -0.1565874218940735,
      0.046751342713832855,
      0.43613532185554504,
      -0.07294405251741409,
      -0.2862984538078308,
      -0.24081745743751526,
      -0.2202816605567932,
      0.10651259124279022,
      -0.011261788196861744,
      0.2337220460176468,
      0.3570220470428467,
      -0.11880622804164886,
      0.1890685111284256,
      0.10676100850105286,
      0.30802249908447266,
      -0.785030722618103,
      0.09059897810220718,
      -0.2702937722206116,
      0.043398961424827576,
      -0.15946148335933685,
      -0.04544837772846222,
      0.02884339727461338,
      0.24079416692256927,
      0.21508938074111938,
      0.49087074398994446,
      0.1377606987953186,
      0.10575886070728302,
      0.5682708621025085,
      -0.38359731435775757,
      0.23823431134223938,
      -0.5447736382484436,
      -0.02819330058991909,
      0.056309424340724945,
      0.10070942342281342,
      0.29607996344566345,
      -0.04613741859793663,
      -0.033494982868433,
      -0.09408436715602875,
      -0.0954987034201622,
      0.16376323997974396,
      -0.062448740005493164
    ],
    "bias": [
      -0.12041271477937698,
      -0.2288438230752945,
      0.3220500349998474,
      -0.18102480471134186,
      0.018832311034202576,
      -0.1302192658185959,
      0.050978001207113266,
      -0.27975019812583923,
      0.012255452573299408,
      0.2877539098262787,
      0.34183934330940247,
      -0.04797229915857315,
      -0.025878341868519783,
      -0.0918993353843689,
      0.03013675846159458,
      -0.26085007190704346,
      -0.23773862421512604,
      0.28784433007240295,
      0.24611666798591614,
      0.1468372642993927,
      0.14288130402565002,
      -0.21201758086681366,
      -0.09459200501441956,
      0.11980185657739639,
      0.34636741876602173,
      0.050379782915115356,
      0.02196626178920269,
      0.011989591643214226,
      -0.1484490931034088,
      0.30277082324028015,
      0.0411393940448761,
      0.0955938994884491,
      -0.14424395561218262,
      0.15379175543785095,
      -0.2470645010471344,
      -0.13736873865127563,
      0.2032654583454132,
      0.19363445043563843,
      -0.15234199166297913,
      -0.339675635099411,
      0.09539823234081268,
      -0.12011420726776123,
      0.12753327190876007,
      0.24678757786750793,
      0.05038662254810333,
      0.10853943973779678,
      0.23120936751365662,
      -0.08263417333364487,
      -0.26642942428588867,
      -0.006015768274664879,
      -0.2268626093864441,
      -0.1794891655445099,
      0.09383520483970642,
      0.16676096618175507,
      0.04365293309092522,
      -0.31114307045936584,
      -0.23103809356689453,
      -0.21460241079330444,
      0.11400594562292099,
      0.34166809916496277,
      -0.12165946513414383,
      0.2061433643102646,
      0.3115694522857666,
      0.12754422426223755
    ]
  },
  "layer1": {
    "name": "ReLU"
  },
  "layer2": {
    "name": "Conv2d",
    "in_channels": 64,
    "out_channels": 64,
    "weight": [
      0.19096583127975464,
      -0.011000528000295162,
      -0.12368723005056381,
      0.0826997309923172,
      0.07906029373407364,
      0.02737407758831978,
      0.1963292509317398,
      0.16268043220043182,
      0.041348014026880264,
      -0.13377976417541504,
      0.005613021086901426,
      -0.03487907350063324,
      -0.20466873049736023,
      -0.04616232216358185,
      0.08501909673213959,
      0.07662136852741241,
      0.12103447318077087,
      -0.06875354796648026,
      0.13059526681900024,
      0.24418093264102936,
      0.1566370129585266,
      -0.0907975286245346,
      -0.286144882440567,
      0.08712153136730194,
      -0.11655522137880325,
      -0.007969290018081665,
      0.23805584013462067,
      -0.03179733082652092,
      -0.39861100912094116,
      0.13152025640010834,
      0.08180329203605652,
      -0.0523853600025177,
      0.11127670854330063,
      -0.09316407889127731,
      0.11411009728908539,
      0.3948923349380493,
      0.013116261921823025,
      0.1481558382511139,
      0.08017367124557495,
      0.09905530512332916,
      -0.476028710603714,
      0.04720903933048248,
      0.05671684071421623,
      0.24968603253364563,
      -0.03327445313334465,
      0.09032515436410904,
      -0.12013089656829834,
      0.06188168376684189,
      0.1496666520833969,
      0.2143537849187851,
      -0.11676014959812164,
      0.0441562682390213,
      -0.1969478577375412,
      -0.05014306679368019,
      0.14743010699748993,
      0.2882823944091797,
      -0.012981148436665535,
      0.019818872213363647,
      0.06981250643730164,
      -0.27303120493888855,
      0.07331959158182144,
      0.14656399190425873,
      0.12115101516246796,
      -0.12369728088378906,
      0.18837761878967285,
      -0.1690773367881775,
      0.00028848316287621856,
      -0.04862850159406662,
      0.18073441088199615,
      0.06016622856259346,
      0.2207845151424408,
      0.27264389395713806,
      0.030973130837082863,
      -0.14255598187446594,
      -0.05897041782736778,
      -0.09084264934062958,
      -0.3960285484790802,
      0.033089444041252136,
      -0.10228870809078217,
      0.1840633898973465,
      0.019482119008898735,
      0.17654195427894592,
      -0.062105726450681686,
      0.13040030002593994,
      -0.013827032409608364,
      0.08830517530441284,
      -0.1280822455883026,
      0.11904703080654144,
      -0.30725690722465515,
      0.05023467540740967,
      0.06914804130792618,
      0.20398665964603424,
      -0.24766255915164948,
      0.1393229067325592,
      0.2397182136774063,
      0.07606615126132965,
      0.01924494095146656,
      0.018567442893981934,
      -0.11696821451187134,
      0.1830054670572281,
      0.04756554216146469,
      0.14887039363384247,
      -0.10210085660219193,
      0.1590312123298645,
      -0.3743712604045868,
      0.07211923599243164,
      -0.090353824198246,
      0.41651231050491333,
      0.08153343945741653,
      0.14070940017700195,
      -0.03950470685958862,
      0.17098022997379303,
      -0.047434136271476746,
      0.09205669909715652,
      -0.08018015325069427,
      -0.12100602686405182,
      -0.3204403221607208,
      0.08846436440944672,
      0.13044142723083496,
      0.0029497314244508743,
      -0.15853078663349152,
      0.11299815773963928,
      0.1787710040807724,
      -0.2086813598871231,
      0.18874073028564453,
      0.08976983278989792,
      -0.059095073491334915,
      -0.25866949558258057,
      0.12484027445316315,
      -0.045409269630908966,
      -0.0011116992682218552,
      -0.030437085777521133,
      0.08544109016656876,
      -0.24169637262821198,
      -0.03697847202420235,
      0.019353780895471573,
      -0.0037528956308960915,
      0.052143096923828125,
      -0.11145754158496857,
      -0.07474496215581894,
      0.2298845648765564,
      0.07967214286327362,
      -0.20403864979743958,
      -0.12782147526741028,
      -0.19138169288635254,
      0.13705827295780182,
      0.16598349809646606,
      0.09671133756637573,
      0.09740177541971207,
      -0.04852999746799469,
      -0.056733183562755585,
      0.11466097831726074,
      -0.0917377918958664,
      -0.12214294075965881,
      0.037646323442459106,
      0.4144318997859955,
      0.19746807217597961,
      -0.0006820480339229107,
      0.012875508517026901,
      0.047090403735637665,
      0.07643995434045792,
      -0.00808718241751194,
      0.04090309143066406,
      0.061008270829916,
      -0.08110541105270386,
      0.006914917379617691,
      0.05070016160607338,
      -0.1105993241071701,
      -0.2197430580854416,
      0.11783676594495773,
      0.03370846435427666,
      0.019556008279323578,
      -0.13334283232688904,
      0.06138800457119942,
      -0.028501048684120178,
      0.2141834795475006,
      0.08223651349544525,
      0.04424882307648659,
      -0.09502774477005005,
      0.01254349946975708,
      0.12349735200405121,
      -0.1509290486574173,
      -0.012968061491847038,
      -0.34952035546302795,
      -0.030844779685139656,
      -0.028217270970344543,
      -0.033280447125434875,
      0.17925295233726501,
      -0.22531527280807495,
      0.23547004163265228,
      0.15823787450790405,
      -0.21190336346626282,
      0.041926026344299316,
      0.17887164652347565,
      0.2747005820274353,
      0.09114085882902145,
      0.0077532208524644375,
      -0.2535727024078369,
      -0.11966920644044876,
      0.03590552136301994,
      0.23919053375720978,
      0.1208648756146431,
      0.12824714183807373,
      0.08460919559001923,
      0.0636320486664772,
      0.11688101291656494,
      0.019597597420215607,
      -0.1655084490776062,
      -0.24396280944347382,
      -0.04962300881743431,
      0.12315042316913605,
      -0.03970823809504509,
      0.21114276349544525,
      -0.06549414992332458,
      0.35056814551353455,
      -0.0448140986263752,
      0.30421704053878784,
      0.05356070399284363,
      -0.05687782168388367,
      0.09392239898443222,
      0.4075578451156616,
      -0.02271987311542034,
      -0.0030028056353330612,
      -0.019982021301984787,
      0.07640767842531204,
      0.0710161030292511,
      0.06791891157627106,
      -0.12462665140628815,
      -0.00043061404721811414,
      -0.17214901745319366,
      -0.0882975161075592,
      -0.28773096203804016,
      0.1632288545370102,
      0.04309653118252754,
      0.2093774974346161,
      -0.28276756405830383,
      0.04677829146385193,
      0.13622041046619415,
      0.1208789199590683,
      0.13293799757957458,
      0.12112146615982056,
      0.05049213021993637,
      0.061994776129722595,
      -0.07922650873661041,
      0.2429746836423874,
      -0.15583159029483795,
      -0.1401250660419464,
      0.018632758408784866,
      -0.022650085389614105,
      -0.03685273230075836,
      0.19609227776527405,
      0.22452156245708466,
      -0.36216801404953003,
      -0.1546505093574524,
      0.15906944870948792,
      0.17820702493190765,
      0.07198817282915115,
      -0.11176026612520218,
      0.27794989943504333,
      0.0013104326790198684,
      0.0356413759291172,
      -0.21423448622226715,
      0.08241892606019974,
      0.17741632461547852,
      0.24700815975666046,
      -0.12799468636512756,
      -0.35613158345222473,
      0.08908283710479736,
      0.17311707139015198,
      0.04032726585865021,
      -0.049352556467056274,
      0.15967077016830444,
      -0.14667253196239471,
      0.10081261396408081,
      0.10431025177240372,
      0.00773394200950861,
      0.05719909071922302,
      0.12034523487091064,
      0.1715598702430725,
      -0.0008115429664030671,
      0.19920243322849274,
      0.035802245140075684,
      0.24594633281230927,
      -0.04278198257088661,
      -0.139383926987648,
      0.031291570514440536,
      -0.049633704125881195,
      0.01877843588590622,
      0.09505383670330048,
      0.11485874652862549,
      -0.09241844713687897,
      0.2129618525505066,
      0.028704609721899033,
      -0.22108148038387299,
      0.0732375755906105,
      0.004441366530954838,
      -0.2796923816204071,
      -0.00323399156332016,
      0.2263139933347702,
      -0.1863962709903717,
      -0.03898635506629944,
      0.009684775024652481,
      0.08632755279541016,
      0.1460270881652832,
      0.22120511531829834,
      0.09508425742387772,
      -0.05403128266334534,
      -0.07567040622234344,
      0.11611322313547134,
      -0.09462244063615799,
      0.0004083218227606267,
      -0.07006038725376129,
      -0.0038375204894691706,
      0.11892656981945038,
      0.12102381139993668,
      0.23994873464107513,
      -0.21942350268363953,
      -0.14560389518737793,
      -0.06246199086308479,
      0.10768020898103714,
      0.052196282893419266,
      0.3596241772174835,
      -0.06016146391630173,
      -0.10831855237483978,
      0.09040694683790207,
      -0.21324069797992706,
      0.005527726374566555,
      -0.053725097328424454,
      0.19302000105381012,
      -0.13663499057292938,
      -0.0874335840344429,
      0.3304067850112915,
      0.16120073199272156,
      -0.05230557918548584,
      -0.1772761344909668,
      0.20715142786502838,
      -0.12507364153862,
      -0.09118156880140305,
      0.015681559219956398,
      0.08416750282049179,
      -0.0836605429649353,
      -0.06288400292396545,
      -0.13599447906017303,
      0.011377887800335884,
      0.2523750960826874,
      0.07245291769504547,
      -0.0262005552649498,
      -0.07404018938541412,
      0.15276433527469635,
      0.09510144591331482,
      -0.14078029990196228,
      -0.012662564404308796,
      0.11861602216959,
      0.15924935042858124,
      0.10822655260562897,
      0.2738400399684906,
      0.023159237578511238,
      -0.3593377470970154,
      0.06144412234425545,
      0.11492577940225601,
      -0.16367685794830322,
      -0.07810872793197632,
      0.11362221837043762,
      -0.04936951771378517,
      -0.12747646868228912,
      0.028259586542844772,
      -0.0543915331363678,
      0.2926742732524872,
      0.3684534430503845,
      0.08954819291830063,
      -0.1180754005908966,
      0.10159516334533691,
      0.3900420665740967,
      0.03882700204849243,
      -0.09669703990221024,
      0.041178226470947266,
      0.2212807834148407,
      -0.004282504320144653,
      -0.029498588293790817,
      0.05079071968793869,
      -0.04663487523794174,
      0.08554768562316895,
      0.11564081162214279,
      0.3459720015525818,
      0.05499708652496338,
      0.3984302580356598,
      0.017072508111596107,
      0.10354994237422943,
      0.16423358023166656,
      -0.0760650560259819,
      -0.10431286692619324,
      -0.09923005849123001,
      0.14648374915122986,
      0.27295568585395813,
      0.20449015498161316,
      0.057909075170755386,
      0.16649951040744781,
      0.02514733374118805,
      -0.031817566603422165,
      -0.10819674283266068,
      -0.26991376280784607,
      -0.014099767431616783,
      -0.09731099754571915,
      0.12454558163881302,
      0.06476235389709473,
      -0.11968305706977844,
      -0.04779550060629845,
      0.04914321005344391,
      0.2580057382583618,
      0.12404979765415192,
      0.12997889518737793,
      0.13830505311489105,
      0.3006536662578583,
      -0.13017365336418152,
      -0.09577351063489914,
      0.039258964359760284,
      0.05989465117454529,
      -0.14299091696739197,
      -0.10131274163722992,
      0.0586291141808033,
      -0.05988243594765663,
      0.09102387726306915,
      0.07832265645265579,
      -0.15823663771152496,
      0.08248501271009445,
      -0.092331163585186,
      0.13511061668395996,
      -0.0712820515036583,
      -0.03736390173435211,
      0.1276002675294876,
      -0.008381858468055725,
      -0.06748147308826447,
      0.0016721481224521995,
      0.10374204069375992,
      0.12305545806884766,
      0.11388611793518066,
      0.21027834713459015,
      -0.0926947072148323,
      -0.019972926005721092,
      -0.12213112413883209,
      0.03370482474565506,
      0.11615297198295593,
      -0.02837197110056877,
      0.4065808951854706,
      -0.4535413086414337,
      0.15340673923492432,
      0.1059795618057251,
      -0.11495797336101532,
      0.09620887786149979,
      -0.2389441430568695,
      -0.0005024544079788029,
      0.057457368820905685,
      0.27855294942855835,
      -0.0313519649207592,
      0.21869881451129913,
      0.1316801905632019,
      0.03749077394604683,
      -0.25822141766548157,
      -0.2861770987510681,
      -0.13253656029701233,
      -0.234843447804451,
      0.00010882318019866943,
      -0.05272434279322624,
      0.13426557183265686,
      -0.014623449184000492,
      0.1468537449836731,
      0.024714337661862373,
      0.1696675717830658,
      0.14421223104000092,
      0.06876969337463379,
      -0.046816546469926834,
      0.1567661017179489,
      -0.08678790181875229,
      0.07335571944713593,
      0.2876173257827759,
      0.054229672998189926,
      -0.47955429553985596,
      -0.0303789209574461,
      0.22760552167892456,
      0.05211477726697922,
      0.0015423055738210678,
      -0.06302721798419952,
      -0.07730696350336075,
      0.2545376420021057,
      0.12318340688943863,
      0.17301681637763977,
      0.12246112525463104,
      0.28196263313293457,
      -0.4830147922039032,
      0.07503694295883179,
      -0.11222412437200546,
      0.4208109974861145,
      -0.014038315042853355,
      0.04523876681923866,
      -0.08836409449577332,
      0.05780107527971268,
      -0.12144042551517487,
      0.13301965594291687,
      -0.04333961009979248,
      -0.07555858790874481,
      -0.2757512032985687,
      0.09457579255104065,
      0.2138568013906479,
      -0.11636587977409363,
      -0.032569386065006256,
      -0.06908486783504486,
      0.0023050822783261538,
      -0.2111188918352127,
      0.05805141106247902,
      0.14529752731323242,
      -0.00830081943422556,
      -0.22688215970993042,
      -0.030409125611186028,
      -0.14980988204479218,
      -0.10502218455076218,
      0.10263969004154205,
      0.13405351340770721,
      0.13042518496513367,
      -0.10195513814687729,
      0.005726901348680258,
      -0.07252594083547592,
      0.010993920266628265,
      -0.01791059970855713,
      -0.16033414006233215,
      0.22588863968849182,
      -0.04051826894283295,
      -0.15028592944145203,
      0.0862763449549675,
      -0.14297351241111755,
      0.12328950315713882,
      0.11157079041004181,
      0.15207843482494354,
      0.16315290331840515,
      -0.09303364157676697,
      0.010169615037739277,
      0.030317960307002068,
      0.03846704587340355,
      -0.09320135414600372,
      -0.031191926449537277,
      -0.10097862780094147,
      -0.47706785798072815,
      0.11156176030635834,
      0.26201802492141724,
      0.06864514946937561,
      -0.01033040788024664,
      0.033312682062387466,
      -0.03632484748959541,
      0.23934894800186157,
      0.1232830211520195,
      0.039926927536726,
      -0.1082741916179657,
      0.03060079924762249,
      -0.009414466097950935,
      0.20354405045509338,
      0.1402815878391266,
      0.43562981486320496,
      0.058384135365486145,
      0.0348140150308609,
      -0.11734235286712646,
      -0.030475368723273277,
      -0.058749567717313766,
      0.17919450998306274,
      -0.02616460621356964,
      -0.08158846199512482,
      -0.010679236613214016,
      0.10129670053720474,
      0.1220148503780365,
      -0.5287178158760071,
      -0.08019984513521194,
      -0.02319936454296112,
      -0.14062269032001495,
      -0.03295157849788666,
      0.09729153662919998,
      0.25819891691207886,
      0.07173445075750351,
      -0.3214757442474365,
      0.17483843863010406,
      0.17371250689029694,
      -0.2329210638999939,
      -0.07367905229330063,
      0.1153210997581482,
      -0.10383836925029755,
      0.24983854591846466,
      0.0807250514626503,
      0.11557131260633469,
      0.0043075960129499435,
      0.321459025144577,
      0.04607587680220604,
      -0.06077537685632706,
      0.03372614085674286,
      0.10174328088760376,
      0.08249611407518387,
      0.26832684874534607,
      -0.07835603505373001,
      -0.05685307830572128,
      0.1695851981639862,
      0.044417113065719604,
      0.12090989947319031,
      -0.24274173378944397,
      0.1011367067694664,
      -0.08618587255477905,
      -0.021430611610412598,
      0.12066083401441574,
      0.02220374159514904,
      0.4535074234008789,
      -0.08759263157844543,
      -0.09060177206993103,
      -0.05253077298402786,
      -0.10952813923358917,
      0.13626255095005035,
      -0.047828786075115204,
      0.058575425297021866,
      0.11425977200269699,
      0.09532556682825089,
      0.0040565901435911655,
      0.16546054184436798,
      -0.08526798337697983,
      -0.10482625663280487,
      -0.25318294763565063,
      -0.23120544850826263,
      0.0570739321410656,
      0.1289527267217636,
      0.0672425776720047,
      -0.004231730476021767,
      0.25915902853012085,
      0.22175587713718414,
      0.0935555249452591,
      -0.10096493363380432,
      -0.07821955531835556,
      -0.04199489951133728,
      0.20181085169315338,
      0.4143100082874298,
      0.1927066147327423,
      0.001074090600013733,
      -0.17333443462848663,
      -0.07357505708932877,
      -0.1985548436641693,
      -0.00017350149573758245,
      -0.07997319102287292,
      0.16678273677825928,
      0.07387594133615494,
      0.024304339662194252,
      -0.06736885011196136,
      0.03446180745959282,
      -0.10805941373109818,
      0.175789013504982,
      -0.16019032895565033,
      0.1397656947374344,
      0.011662997305393219,
      -0.054881103336811066,
      0.000242557842284441,
      -0.020816650241613388,
      0.07633679360151291,
      0.014274552464485168,
      0.035914406180381775,
      0.18008658289909363,
      -0.10837642848491669,
      0.11950460821390152,
      -0.01944461464881897,
      0.11967337876558304,
      -0.08823440968990326,
      -0.03778672218322754,
      -0.030814804136753082,
      0.03245178610086441,
      0.04426378384232521,
      0.02440302073955536,
      -0.18043215572834015,
      -0.41683197021484375,
      -0.2655755877494812,
      0.05687517672777176,
      -0.07090162485837936,
      -0.12355665117502213,
      0.07858609408140182,
      0.17678573727607727,
      -0.015173870138823986,
      -0.01407289132475853,
      0.07498707622289658,
      0.09838306158781052,
      0.07940450310707092,
      0.23730020225048065,
      0.4195224940776825,
      0.14594878256320953,
      0.14996831119060516,
      0.2488900125026703,
      0.11766734719276428,
      0.07316146790981293,
      0.09065155684947968,
      -0.09791141748428345,
      -0.12758882343769073,
      0.05723462626338005,
      0.032651305198669434,
      -0.12236288189888,
      0.23130609095096588,
      0.2862427830696106,
      0.043783124536275864,
      -0.0014677130384370685,
      0.18176713585853577,
      0.049715474247932434,
      -0.07136105746030807,
      -0.0445554181933403,
      0.3315824568271637,
      0.20614482462406158,
      -0.09986329078674316,
      0.13790449500083923,
      -0.06350184977054596,
      0.02885248512029648,
      0.16429206728935242,
      -0.1091691255569458,
      -0.16414475440979004,
      0.26204586029052734,
      -0.17086343467235565,
      0.00028973130974918604,
      -0.04946475848555565,
      0.2637248933315277,
      0.12362968176603317,
      0.1392209529876709,
      -0.08646548539400101,
      0.10784099996089935,
      0.39860206842422485,
      -0.14458584785461426,
      0.16802063584327698,
      -0.05836731940507889,
      0.02038116380572319,
      -0.17497509717941284,
      -0.20182053744792938,
      -0.06933856010437012,
      0.21909202635288239,
      -0.06266533583402634,
      0.10595221072435379,
      0.019156351685523987,
      -0.2985890507698059,
      -0.20818769931793213,
      0.13573627173900604,
      -0.03869836404919624,
      0.0001231070200446993,
      0.03804808109998703,
      0.050399091094732285,
      0.16490569710731506,
      0.017061755061149597,
      -0.20881833136081696,
      0.165154367685318,
      0.21134072542190552,
      0.12305769324302673,
      0.009595912881195545,
      0.4020627737045288,
      0.08098118007183075,
      -0.00019963520753663033,
      -0.13307471573352814,
      0.32461604475975037,
      0.12054596096277237,
      -0.09545151889324188,
      -0.2760821282863617,
      -0.0863673985004425,
      -0.11964119225740433,
      0.12455034255981445,
      -0.06221620738506317,
      0.10344957560300827,
      0.33434969186782837,
      0.1995227038860321,
      0.28084710240364075,
      0.15879864990711212,
      -0.0020811259746551514,
      0.2477370947599411,
      0.04615344479680061,
      0.12033019959926605,
      -0.0040351105853915215,
      -0.14902915060520172,
      0.11804569512605667,
      0.07553420960903168,
      -0.08418171852827072,
      0.0586344376206398,
      0.016480544582009315,
      0.015556329861283302,
      0.1651991754770279,
      0.1210065558552742,
      0.218009814620018,
      0.15082158148288727,
      -0.22507897019386292,
      -0.09080081433057785,
      -0.04421894624829292,
      -0.03800342604517937,
      -0.007535025477409363,
      0.18633654713630676,
      0.23402749001979828,
      0.061825525015592575,
      -0.11242705583572388,
      -0.03478476405143738,
      -0.05448378622531891,
      0.011064237914979458,
      0.11669981479644775,
      0.14494125545024872,
      0.10200882703065872,
      0.1514325588941574,
      0.007181540131568909,
      0.01837410032749176,
      -0.22238680720329285,
      -0.2007642388343811,
      0.02734363079071045,
      0.046436164528131485,
      -0.038997065275907516,
      -0.09039532393217087,
      0.15759195387363434,
      -0.0016660654218867421,
      -0.008471095934510231,
      0.03569867089390755,
      -0.03782409802079201,
      -0.04322955012321472,
      -0.019057100638747215,
      -0.19585813581943512,
      0.10743313282728195,
      0.05038713663816452,
      -0.01740303263068199,
      0.08792794495820999,
      0.17805491387844086,
      0.060182541608810425,
      0.11479222774505615,
      0.048291586339473724,
      0.004112829454243183,
      -0.05833049118518829,
      -0.09631125628948212,
      0.026131881400942802,
      0.06138031184673309,
      0.10736258327960968,
      0.3080798089504242,
      0.0763574093580246,
      -0.07144248485565186,
      0.175874724984169,
      -0.2030320018529892,
      0.25278592109680176,
      -0.20095448195934296,
      -0.20739644765853882,
      0.031201789155602455,
      0.09984369575977325,
      -0.013737408444285393,
      -0.10822368413209915,
      -0.08407063782215118,
      0.08489324897527695,
      -0.03811061382293701,
      0.20010501146316528,
      0.2909649908542633,
      0.30225351452827454,
      -0.0491623692214489,
      -0.0038992436602711678,
      -0.006414018105715513,
      -0.011319363489747047,
      -0.06156808137893677,
      0.0687268003821373,
      0.12414591014385223,
      -0.028485318645834923,
      0.011358818039298058,
      0.0020262673497200012,
      0.0635770782828331,
      0.17250925302505493,
      -0.03209279477596283,
      -0.26394495368003845,
      0.08347119390964508,
      0.17807309329509735,
      0.08162172138690948,
      0.2874043881893158,
      -0.2405014932155609,
      -0.0737372636795044,
      0.1028728038072586,
      -0.03599562123417854,
      -0.02848641946911812,
      0.01827520877122879,
      0.12867197394371033,
      -0.10299046337604523,
      0.1807134598493576,
      0.05338539928197861,
      -0.05084342882037163,
      0.1195928305387497,
      -0.010316488333046436,
      -0.2573220729827881,
      0.11193197220563889,
      -0.0962040051817894,
      -0.23131263256072998,
      0.1224059909582138,
      0.20365376770496368,
      -0.0024472177028656006,
      0.007992129772901535,
      0.1834459900856018,
      0.3492976725101471,
      -0.08053556084632874,
      0.051917269825935364,
      0.19175584614276886,
      -0.029873380437493324,
      -0.046656783670186996,
      0.27950483560562134,
      0.22059711813926697,
      0.024103328585624695,
      0.012758889235556126,
      -0.10776463150978088,
      -0.15014176070690155,
      -0.07493085414171219,
      0.22492466866970062,
      0.09932374209165573,
      0.11038350313901901,
      -0.0343845896422863,
      -0.040055178105831146,
      -0.1145329624414444,
      -0.05745867267251015,
      -0.11849743127822876,
      -0.10791906714439392,
      -0.022172199562191963,
      0.026045653969049454,
      -0.027489041909575462,
      -0.01409283746033907,
      0.0362195149064064,
      0.05997201427817345,
      0.01495504379272461,
      -0.06605415046215057,
      0.10328754782676697,
      0.0837191492319107,
      -0.005514517892152071,
      -0.03975774347782135,
      -0.03421136364340782,
      0.1034354418516159,
      0.0741262286901474,
      -0.03211837634444237,
      0.08752124756574631,
      -0.11569716036319733,
      0.005701169371604919,
      -0.10169507563114166,
      -0.04378407448530197,
      -0.04709386080503464,
      -0.0031370476353913546,
      0.06082555651664734,
      0.035319820046424866,
      -0.0883711725473404,
      -0.10056033730506897,
      0.10302563011646271,
      -0.01574767380952835,
      0.11411136388778687,
      -0.06747835874557495,
      -0.10178171098232269,
      -0.07386033236980438,
      0.10522730648517609,
      -0.07981620728969574,
      -0.09800109267234802,
      0.05433901399374008,
      0.09337571263313293,
      0.05804179981350899,
      -9.584426879882812e-05,
      -0.005307348910719156,
      0.0392305850982666,
      0.04591524600982666,
      -0.07565248012542725,
      -0.08522330224514008,
      0.09517613798379898,
      -0.02647063322365284,
      -0.04166697338223457,
      0.0914909839630127,
      -0.12410326302051544,
      0.025852546095848083,
      -0.009232432581484318,
      0.0978667363524437,
      -0.04578109085559845,
      -0.10728579759597778,
      0.005674308631569147,
      -0.04361483082175255,
      0.013138112612068653,
      0.08687610179185867,
      0.0804121345281601,
      0.11253413558006287,
      0.19719815254211426,
      -0.010953572578728199,
      0.04263513535261154,
      0.14573100209236145,
      0.10345098376274109,
      0.045371364802122116,
      -0.1467817723751068,
      -0.08563531190156937,
      0.1285184919834137,
      0.07956957817077637,
      -0.08367151021957397,
      -0.09307608753442764,
      -0.35579028725624084,
      0.11330226063728333,
      0.10528859496116638,
      0.017664924263954163,
      0.22951383888721466,
      -0.12222029268741608,
      0.297809898853302,
      -0.07126569747924805,
      0.23264363408088684,
      -0.11077399551868439,
      0.1360214650630951,
      0.040548987686634064,
      -0.21424520015716553,
      0.20713673532009125,
      -0.04053504019975662,
      0.0378231480717659,
      -0.018055332824587822,
      -0.14470702409744263,
      0.10002347081899643,
      -0.041113488376140594,
      -0.12363150715827942,
      -0.03594512864947319,
      0.08472777158021927,
      -0.10844212770462036,
      -0.13640795648097992,
      0.04963996633887291,
      0.269435852766037,
      0.23025427758693695,
      0.02820034697651863,
      -0.08240322768688202,
      -0.020607218146324158,
      0.16333478689193726,
      -0.06162017583847046,
      0.00858291145414114,
      0.11082026362419128,
      0.0426466166973114,
      0.15765513479709625,
      -0.11735905706882477,
      -0.07556256651878357,
      -0.35922443866729736,
      -0.05545603111386299,
      -0.08039781451225281,
      0.19015991687774658,
      0.3077312409877777,
      -0.18481111526489258,
      0.08829846978187561,
      0.18908318877220154,
      -0.23874938488006592,
      -0.13909661769866943,
      -0.46785035729408264,
      0.2133726328611374,
      -0.07722467929124832,
      -0.1085095927119255,
      0.20101839303970337,
      -0.2450024038553238,
      -0.12419817596673965,
      0.12308882921934128,
      0.25693807005882263,
      -0.03637048974633217,
      0.15665167570114136,
      0.35829660296440125,
      0.005077481269836426,
      -0.09946750104427338,
      0.10569126904010773,
      -0.4450393319129944,
      0.058622900396585464,
      0.15214291214942932,
      -0.17377310991287231,
      -0.0015288260765373707,
      -0.0976351946592331,
      0.4447840452194214,
      -0.026863954961299896,
      0.2749825716018677,
      0.01828676462173462,
      -0.19460047781467438,
      -0.25784823298454285,
      -0.17848680913448334,
      0.15631210803985596,
      -0.2279607504606247,
      -0.021546410396695137,
      0.08788035809993744,
      0.05691036954522133,
      0.10699693858623505,
      -0.29249733686447144,
      -0.08262000232934952,
      -0.3086619973182678,
      0.03135588765144348,
      -0.5109681487083435,
      0.058645088225603104,
      -0.042228493839502335,
      0.3927622139453888,
      -0.4536229372024536,
      0.1438683569431305,
      0.007415809202939272,
      0.07323959469795227,
      -0.0755719244480133,
      0.13739663362503052,
      -0.1313067525625229,
      0.11317463219165802,
      -0.029151618480682373,
      0.18814881145954132,
      -0.14252185821533203,
      -0.2520812153816223,
      -0.22830520570278168,
      0.04972132295370102,
      0.07291531562805176,
      0.0706285610795021,
      0.3341814875602722,
      0.030059441924095154,
      -0.16443586349487305,
      0.16986560821533203,
      0.008469809778034687,
      -0.07356486469507217,
      0.18646323680877686,
      0.208439439535141,
      -0.013420676812529564,
      0.0945969894528389,
      -0.05660288780927658,
      0.038621433079242706,
      0.0016124953981488943,
      0.34114229679107666,
      -0.05196060240268707,
      -0.2537010610103607,
      0.13900478184223175,
      0.2704733908176422,
      -0.12028300762176514,
      -0.023398879915475845,
      0.03063267655670643,
      -0.14469954371452332,
      -0.013794914819300175,
      0.13149312138557434,
      -0.07422547042369843,
      0.12826299667358398,
      -0.05581091344356537,
      0.10918286442756653,
      0.1681203693151474,
      0.05654961243271828,
      -0.003681555390357971,
      0.1266857534646988,
      -0.2941901683807373,
      -0.2399117797613144,
      0.1467553973197937,
      0.004990283865481615,
      -0.11251069605350494,
      0.039433613419532776,
      -0.016548573970794678,
      0.03853839635848999,
      0.21129679679870605,
      -0.14214028418064117,
      -0.32038694620132446,
      0.018077585846185684,
      -0.11929242312908173,
      -0.32758575677871704,
      0.133506640791893,
      0.181245356798172,
      -0.19331292808055878,
      0.0974261686205864,
      0.12113755941390991,
      0.03646937012672424,
      0.1998443603515625,
      0.11674297600984573,
      0.19322146475315094,
      -0.0950963944196701,
      0.10455675423145294,
      0.10437662154436111,
      0.031407274305820465,
      -0.0962371677160263,
      -0.08832702040672302,
      0.03206980973482132,
      0.07898576557636261,
      0.14358116686344147,
      0.015235679224133492,
      -0.16554544866085052,
      -0.10577511787414551,
      0.16484059393405914,
      0.14743785560131073,
      0.1058824211359024,
      -0.021354984492063522,
      0.3090720772743225,
      -0.08579995483160019,
      0.09036455303430557,
      -0.005091850645840168,
      -0.004276883788406849,
      0.04137265682220459,
      -0.08571811020374298,
      -0.13712044060230255,
      -0.0005063706776127219,
      -0.03748958185315132,
      -0.09398124366998672,
      -0.09308649599552155,
      0.020933326333761215,
      0.11540033668279648,
      -0.17937520146369934,
      0.17612284421920776,
      0.10794001817703247,
      0.0764719620347023,
      0.12062100321054459,
      0.04654321074485779,
      0.24420635402202606,
      0.09571104496717453,
      -0.19145269691944122,
      0.10095344483852386,
      0.10190510004758835,
      0.31078511476516724,
      -0.03949796035885811,
      0.13688284158706665,
      0.04851607233285904,
      0.0475575290620327,
      -0.009977570734918118,
      0.02572302334010601,
      0.10285130143165588,
      -0.18871614336967468,
      -0.036019813269376755,
      0.03456874191761017,
      -0.12019156664609909,
      -0.047039229422807693,
      -0.24880923330783844,
      0.07288188487291336,
      0.007983163930475712,
      -0.047517478466033936,
      -0.019826235249638557,
      0.04825213924050331,
      -0.025017738342285156,
      0.1405310332775116,
      0.0075322771444916725,
      -0.2547471821308136,
      0.007978290319442749,
      0.07981149852275848,
      -0.13635699450969696,
      -0.12103068083524704,
      0.12435740232467651,
      -0.24963031709194183,
      -0.15719513595104218,
      0.0800391137599945,
      0.16856542229652405,
      -0.0016934118466451764,
      0.08467233926057816,
      -0.1909244954586029,
      -0.138022780418396,
      -0.2604694068431854,
      -0.13487154245376587,
      0.023366566747426987,
      0.016380365937948227,
      -0.0065630660392344,
      0.0584382638335228,
      0.17014895379543304,
      0.11556778848171234,
      0.24753545224666595,
      -0.02983362227678299,
      0.33127787709236145,
      0.3500738739967346,
      -0.2800101041793823,
      -0.08995896577835083,
      -0.10075391829013824,
      0.47900113463401794,
      -0.2633773982524872,
      0.05392912030220032,
      0.1547096073627472,
      -0.08706608414649963,
      -0.03472336009144783,
      0.2062823474407196,
      0.05929595232009888,
      0.2944256365299225,
      -0.05025720223784447,
      -0.07320018857717514,
      -0.0006553381681442261,
      -0.03783147782087326,
      0.1532067358493805,
      0.04509807378053665,
      0.030764823779463768,
      0.1029014140367508,
      0.02281574346125126,
      0.10862446576356888,
      -0.09292001277208328,
      0.07983233034610748,
      -0.21895267069339752,
      -0.12042418867349625,
      0.19046556949615479,
      -0.07217973470687866,
      -0.1385371834039688,
      -0.28917694091796875,
      0.10943553596735,
      0.16778147220611572,
      0.040058448910713196,
      0.12934578955173492,
      0.09660866111516953,
      -0.10282912850379944,
      -0.1991116851568222,
      -0.2608056366443634,
      0.025804344564676285,
      0.09850125014781952,
      0.10280434787273407,
      -0.21593771874904633,
      -0.15052026510238647,
      0.19336532056331635,
      0.31104499101638794,
      0.11559457331895828,
      0.0693361908197403,
      0.21829479932785034,
      0.18226300179958344,
      -0.024559523910284042,
      -0.2650940716266632,
      0.03422374278306961,
      -0.31342676281929016,
      0.20215167105197906,
      -0.39939507842063904,
      -0.10791650414466858,
      -0.1239190399646759,
      -0.464987576007843,
      -0.17841850221157074,
      -0.16437630355358124,
      -0.7654901146888733,
      0.08712434768676758,
      -0.3474073112010956,
      -0.22907868027687073,
      0.5544805526733398,
      0.27745863795280457,
      -0.025018230080604553,
      -0.3735722601413727,
      -0.053892530500888824,
      0.23787863552570343,
      -0.06420473009347916,
      0.07570861279964447,
      0.0854509174823761,
      -0.5875700116157532,
      0.09732668101787567,
      -0.020509909838438034,
      0.04423818364739418,
      -0.014169875532388687,
      0.0854128748178482,
      -1.0096722841262817,
      -0.26650580763816833,
      0.3039775788784027,
      -0.05667128413915634,
      -0.16654597222805023,
      0.10673651844263077,
      0.023757722228765488,
      0.381523072719574,
      0.07469198107719421,
      -0.1179799810051918,
      0.3664420545101166,
      -0.21099430322647095,
      0.004403588827699423,
      0.18007603287696838,
      0.5833786129951477,
      -0.0662723109126091,
      -0.02283455803990364,
      -0.16270270943641663,
      -0.08754522353410721,
      -0.22189436852931976,
      -0.11013109982013702,
      0.24984587728977203,
      0.5350353717803955,
      -0.08923228085041046,
      0.09694752097129822,
      -0.010670095682144165,
      0.5088818669319153,
      0.5480427145957947,
      -0.09440430253744125,
      0.16980063915252686,
      0.11061989516019821,
      -0.08725835382938385,
      -0.14126798510551453,
      -0.18509380519390106,
      0.03951563313603401,
      0.541921079158783,
      -0.3748900294303894,
      0.42610281705856323,
      -0.15225166082382202,
      0.015994010493159294,
      0.2408854216337204,
      -0.03544077277183533,
      0.10805831849575043,
      -0.08194655925035477,
      0.0035152288619428873,
      0.2928808629512787,
      0.03742896392941475,
      0.24224840104579926,
      0.2348783016204834,
      -0.18136970698833466,
      -0.18630351126194,
      0.09480005502700806,
      0.5112121105194092,
      -0.004177886061370373,
      0.00023796438472345471,
      -0.04879562556743622,
      0.02538911998271942,
      -0.034710537642240524,
      0.16417334973812103,
      0.12350673973560333,
      0.30284783244132996,
      0.03613611310720444,
      0.06912975013256073,
      0.1153751015663147,
      0.023793859407305717,
      -0.047427255660295486,
      0.17751619219779968,
      0.053457729518413544,
      -0.06645425409078598,
      -0.10165894776582718,
      -0.08242982625961304,
      -0.07558777928352356,
      -0.08332297205924988,
      -0.12258309125900269,
      -0.0264299176633358,
      0.052699942141771317,
      -0.11382473260164261,
      0.043883051723241806,
      -0.259829580783844,
      0.06061774492263794,
      0.15804839134216309,
      -0.13384203612804413,
      0.1293114423751831,
      0.0019291606731712818,
      0.030563563108444214,
      -0.15727660059928894,
      0.058760207146406174,
      -0.03196081519126892,
      0.08629634976387024,
      -0.04029451310634613,
      -0.16268950700759888,
      -0.1636718064546585,
      0.05526424199342728,
      0.28495869040489197,
      0.06773010641336441,
      0.019430577754974365,
      0.30688047409057617,
      0.13354746997356415,
      -0.16901953518390656,
      -0.40102052688598633,
      0.11405792832374573,
      -0.00561482971534133,
      0.2014102190732956,
      0.1439584195613861,
      0.05520268529653549,
      0.037527889013290405,
      0.08837708085775375,
      -0.16758814454078674,
      0.2530152499675751,
      0.04592985659837723,
      -0.041154853999614716,
      0.027452770620584488,
      0.10365872085094452,
      -0.004292675293982029,
      -0.2918161153793335,
      -0.041453540325164795,
      -0.3029876947402954,
      0.08640435338020325,
      -0.08536993712186813,
      0.0646628811955452,
      -0.08947177976369858,
      0.024138472974300385,
      -0.10644608736038208,
      -0.09399397671222687,
      -0.08981523662805557,
      -0.02095356024801731,
      -0.12509338557720184,
      -0.054461464285850525,
      0.23321546614170074,
      0.3556906580924988,
      0.049120716750621796,
      -0.09067981690168381,
      0.1465991586446762,
      0.06338201463222504,
      -0.06421774625778198,
      -0.07240671664476395,
      0.10521723330020905,
      -0.003694473998621106,
      0.06251854449510574,
      0.17724230885505676,
      -0.12066690623760223,
      0.18379922211170197,
      0.021080389618873596,
      -0.04321368411183357,
      -0.2693942189216614,
      0.09848294407129288,
      -0.20280048251152039,
      -0.12606635689735413,
      0.030758008360862732,
      0.05341222509741783,
      0.0823807492852211,
      -0.029282527044415474,
      0.04652568697929382,
      0.04356849193572998,
      -0.021393192932009697,
      0.0889507606625557,
      0.04681619256734848,
      -0.06951909512281418,
      -0.17531055212020874,
      0.08875316381454468,
      0.0049546691589057446,
      -0.2576274275779724,
      0.08950896561145782,
      0.15236054360866547,
      -0.04053492471575737,
      0.024993842467665672,
      -0.026298178359866142,
      0.18482379615306854,
      0.1470361351966858,
      0.006407693959772587,
      -0.10499206930398941,
      0.16327954828739166,
      0.0035598932299762964,
      -0.2052917331457138,
      -0.11803226172924042,
      -0.09580796957015991,
      0.14487263560295105,
      0.183160662651062,
      0.09732456505298615,
      0.04306282103061676,
      -0.12463191896677017,
      0.2153223156929016,
      -0.08896173536777496,
      0.1387212872505188,
      -0.012673727236688137,
      -0.05960000678896904,
      -0.19638144969940186,
      0.10589803755283356,
      0.30254510045051575,
      -0.006301512476056814,
      -0.04888898506760597,
      -0.02002812922000885,
      -0.12158083915710449,
      0.22323457896709442,
      0.19468514621257782,
      0.1455085724592209,
      0.059843942523002625,
      0.02549786865711212,
      -0.06495065242052078,
      0.09091397374868393,
      0.06280432641506195,
      -0.4011395573616028,
      0.13080938160419464,
      0.15245427191257477,
      -0.019893959164619446,
      -0.05949411168694496,
      0.22908711433410645,
      -0.14857931435108185,
      -0.06243717297911644,
      -0.05284236744046211,
      0.037941426038742065,
      0.036392997950315475,
      -0.10406619310379028,
      0.021602973341941833,
      0.15407542884349823,
      -0.1355571746826172,
      -0.029039323329925537,
      0.0073973387479782104,
      0.06905709207057953,
      0.28338566422462463,
      0.1389441043138504,
      0.02959839440882206,
      -0.1841852217912674,
      0.08498126268386841,
      0.09293530136346817,
      0.13743306696414948,
      0.253805547952652,
      0.05815647542476654,
      -0.2494984120130539,
      0.14027877151966095,
      -0.05773220211267471,
      0.009855885989964008,
      0.0900154560804367,
      -0.11733219772577286,
      -0.06272348761558533,
      -0.01715940050780773,
      -0.015959544107317924,
      0.18036304414272308,
      0.23541124165058136,
      -0.009078399278223515,
      -0.2535479962825775,
      0.2665647566318512,
      0.32367607951164246,
      0.10877162218093872,
      0.00014876904606353492,
      -0.003972954116761684,
      0.03535350784659386,
      -0.011257152073085308,
      0.05326620861887932,
      0.02089006081223488,
      0.07098668068647385,
      0.12313172221183777,
      0.188359797000885,
      0.007076717913150787,
      0.23081140220165253,
      -0.11622746288776398,
      0.1484718918800354,
      -0.2942856252193451,
      -0.023168353363871574,
      0.08617886900901794,
      -0.04220961406826973,
      0.0012887875782325864,
      -0.09472540020942688,
      0.11001674830913544,
      -0.026155222207307816,
      0.17725390195846558,
      -0.08631693571805954,
      -0.13509121537208557,
      -0.11297088861465454,
      -0.16384539008140564,
      -0.10874778777360916,
      0.04048619046807289,
      -0.0064609297551214695,
      -0.3052855432033539,
      0.14828141033649445,
      0.14722393453121185,
      0.02106902003288269,
      0.1133124977350235,
      0.1715501844882965,
      -0.023767586797475815,
      -0.07611875236034393,
      0.023663237690925598,
      0.252990186214447,
      -0.0458470918238163,
      -0.048914164304733276,
      0.08399857580661774,
      0.15324941277503967,
      0.092222660779953,
      0.02307439036667347,
      -0.02750989980995655,
      -0.024984346702694893,
      -0.1322799175977707,
      -0.04798849672079086,
      0.10686606913805008,
      0.0060209184885025024,
      -0.06891629099845886,
      -0.07964594662189484,
      0.03905768692493439,
      -0.12215928733348846,
      -0.09097300469875336,
      -0.053044676780700684,
      -0.026557564735412598,
      -0.03532452881336212,
      0.1087079644203186,
      0.09986045956611633,
      -0.10189265012741089,
      0.03231281042098999,
      -0.08120755851268768,
      -0.0121050626039505,
      0.023304015398025513,
      0.05037689208984375,
      -0.09694142639636993,
      -0.09363488852977753,
      -0.04754039645195007,
      0.0209132581949234,
      0.1233212947845459,
      0.11033439636230469,
      -0.013928264379501343,
      0.0681113451719284,
      0.024678021669387817,
      0.05242381989955902,
      -0.053094953298568726,
      0.08920992910861969,
      -0.04028882086277008,
      0.1009155660867691,
      0.08234317600727081,
      0.09297172725200653,
      -0.007583931088447571,
      0.020574674010276794,
      0.062148645520210266,
      -0.018928945064544678,
      0.03930138051509857,
      -0.020549193024635315,
      -0.06314621865749359,
      0.023505449295043945,
      -0.07077284157276154,
      -0.1104845255613327,
      0.07877641916275024,
      -0.10960333049297333,
      -0.016027972102165222,
      0.11764876544475555,
      0.11068235337734222,
      -0.08949606120586395,
      -0.032655611634254456,
      -0.09277062118053436,
      0.10657799243927002,
      -0.008996427059173584,
      -0.061989083886146545,
      -0.04140689969062805,
      -0.07285074889659882,
      -0.10470062494277954,
      -0.03636041283607483,
      -0.12369687855243683,
      0.09705771505832672,
      -0.08326701819896698,
      -0.12454049289226532,
      -0.061237841844558716,
      0.06357255578041077,
      -0.08411893248558044,
      0.05470815300941467,
      -0.052063584327697754,
      -0.003086969256401062,
      -0.07827958464622498,
      -0.12202385067939758,
      -0.0976114571094513,
      -0.09907089173793793,
      -0.11238279938697815,
      0.06359854340553284,
      -0.03677760064601898,
      -0.11865592002868652,
      0.06383815407752991,
      -0.10051967203617096,
      -0.0663476288318634,
      0.027203857898712158,
      0.07077686488628387,
      0.0662374496459961,
      -0.04737912118434906,
      -0.06461121141910553,
      -0.014931604266166687,
      0.04606020450592041,
      0.0009208470582962036,
      0.09551668167114258,
      -0.048253923654556274,
      0.04556122422218323,
      -0.03666210174560547,
      -0.10924197733402252,
      -0.11330366134643555,
      -0.1027471125125885,
      -0.08573903143405914,
      -0.036040350794792175,
      -0.00985969603061676,
      -0.005558431148529053,
      -0.07253122329711914,
      -0.009530723094940186,
      -0.11106102168560028,
      -0.06127062439918518,
      0.07052949070930481,
      -0.031942740082740784,
      -0.037540316581726074,
      0.06940661370754242,
      -0.06382115185260773,
      -0.11393417418003082,
      -0.020318463444709778,
      0.015781283378601074,
      -0.08697330951690674,
      -0.012304067611694336,
      -0.08011193573474884,
      -0.028057053685188293,
      0.05487358570098877,
      0.03219465911388397,
      0.015695154666900635,
      0.05071912705898285,
      0.11876112222671509,
      0.06290389597415924,
      -0.06358391046524048,
      -0.08043079078197479,
      0.10527849197387695,
      0.02365027368068695,
      0.11858461797237396,
      -0.008183538913726807,
      -0.038075968623161316,
      -0.08879449963569641,
      0.21571509540081024,
      0.22161990404129028,
      -0.11489102989435196,
      0.09629768133163452,
      0.017014117911458015,
      -0.19629782438278198,
      0.19266758859157562,
      0.1804344654083252,
      0.16490411758422852,
      -0.2822154462337494,
      0.033300407230854034,
      0.11317982524633408,
      -0.23480410873889923,
      -0.09117388725280762,
      0.3580740690231323,
      0.059888094663619995,
      0.18263188004493713,
      -0.050072748214006424,
      -0.05935283005237579,
      -0.040112100541591644,
      0.03285438194870949,
      0.03854890167713165,
      0.024230211973190308,
      -0.06700838357210159,
      -0.08132168650627136,
      0.10160121321678162,
      0.005898748524487019,
      0.06504593789577484,
      0.0704808458685875,
      0.0052351318299770355,
      -0.03498366102576256,
      -0.00016577355563640594,
      0.10450760275125504,
      0.1166825219988823,
      -0.018537797033786774,
      0.0793488547205925,
      0.052591823041439056,
      0.14058099687099457,
      0.05343911051750183,
      0.11852913349866867,
      -0.28468090295791626,
      0.08931345492601395,
      -0.046489130705595016,
      -0.18979445099830627,
      0.04012630134820938,
      0.14565861225128174,
      0.06869581341743469,
      0.18623597919940948,
      0.2048712968826294,
      0.18850408494472504,
      0.022835776209831238,
      0.11457285284996033,
      -0.08354548364877701,
      0.13162903487682343,
      0.027707161381840706,
      0.387227326631546,
      0.22610384225845337,
      -0.08004315197467804,
      0.034247931092977524,
      -0.22674059867858887,
      0.0025096784811466932,
      -0.12104179710149765,
      -0.11745119094848633,
      0.19448232650756836,
      -0.08103843778371811,
      -0.07530301809310913,
      0.10999485105276108,
      0.0617491751909256,
      0.028041662648320198,
      -0.07205753028392792,
      0.04439510777592659,
      0.007759740576148033,
      -0.08610837161540985,
      -0.016301069408655167,
      0.022446351125836372,
      0.03123459778726101,
      0.04251651093363762,
      -0.04761074483394623,
      0.02298901230096817,
      -0.0609549880027771,
      0.08087751269340515,
      0.07747777551412582,
      0.03555654361844063,
      0.06363542377948761,
      -0.13771605491638184,
      0.0025709569454193115,
      0.09463939815759659,
      -0.10863173753023148,
      0.10414347797632217,
      -0.05054381489753723,
      -0.08174972981214523,
      -0.03899397328495979,
      0.030419591814279556,
      -0.11219029873609543,
      0.07085905969142914,
      -0.009309828281402588,
      -0.07483555376529694,
      0.06957214325666428,
      -0.10066360235214233,
      0.10336515307426453,
      0.03499332442879677,
      -0.07723157107830048,
      0.10876045376062393,
      -0.12972243130207062,
      0.048350997269153595,
      -0.13463236391544342,
      -0.02863682061433792,
      -0.04911384731531143,
      0.08133814483880997,
      0.07048208266496658,
      0.1122673749923706,
      -0.11986822634935379,
      -0.10721322894096375,
      0.09464699029922485,
      0.0775739848613739,
      0.003461316227912903,
      -0.04674571752548218,
      -0.12619253993034363,
      -0.04560725390911102,
      0.08627422899007797,
      0.03201104700565338,
      0.07698985934257507,
      -0.10432181507349014,
      -0.11296649277210236,
      -0.1389208734035492,
      -0.031705550849437714,
      -0.06993433088064194,
      -0.10811508446931839,
      -0.0035859947092831135,
      -0.040391046553850174,
      0.05568940192461014,
      0.05723606050014496,
      -0.016380099579691887,
      -0.03887304663658142,
      -0.10278480499982834,
      0.08198480308055878,
      -0.028191279619932175,
      0.10051167756319046,
      0.051561079919338226,
      -0.020715348422527313,
      0.03228156268596649,
      0.05506378412246704,
      -0.09288306534290314,
      0.051637738943099976,
      -0.025143878534436226,
      -0.12187200784683228,
      0.053630340844392776,
      0.10537625104188919,
      0.036714233458042145,
      0.01044018566608429,
      0.012415345758199692,
      0.09640298783779144,
      -0.13395874202251434,
      -0.0034186244010925293,
      0.07184243947267532,
      -0.05626364052295685,
      0.09096509218215942,
      0.06402696669101715,
      0.029826033860445023,
      0.028968021273612976,
      -0.0006095021963119507,
      0.04907234013080597,
      0.003697901964187622,
      -0.10836639255285263,
      -0.1407984346151352,
      0.006650133058428764,
      0.07042321562767029,
      -0.11406706273555756,
      0.07237835973501205,
      -0.07811279594898224,
      -0.07047690451145172,
      -0.09858159720897675,
      -0.06464288383722305,
      0.020696235820651054,
      0.07548016309738159,
      -0.0011094182264059782,
      -0.10177069157361984,
      0.04053147882223129,
      0.10573342442512512,
      -0.045691102743148804,
      -0.04716607183218002,
      0.030812077224254608,
      -0.11310087889432907,
      -0.0908815786242485,
      -0.031065315008163452,
      0.021194472908973694,
      0.021653665229678154,
      -0.12230753898620605,
      0.056553132832050323,
      0.02956998720765114,
      0.10182341933250427,
      0.05502956733107567,
      0.0602961890399456,
      0.08681204915046692,
      -0.019931863993406296,
      -0.07687395811080933,
      0.09972719848155975,
      -0.05379553511738777,
      0.0031410502269864082,
      0.05561688169836998,
      0.03440745547413826,
      -0.06696619838476181,
      -0.06311992555856705,
      0.0041918400675058365,
      0.017344074323773384,
      -0.11418205499649048,
      -0.10541604459285736,
      -0.06205165758728981,
      0.062111593782901764,
      -0.009724020026624203,
      -0.055821213871240616,
      0.019688507542014122,
      -0.09512203931808472,
      -0.10007971525192261,
      0.11911625415086746,
      -0.10769929736852646,
      -0.07753213495016098,
      0.05246958136558533,
      -0.1272854059934616,
      0.07225222140550613,
      0.08733070641756058,
      0.054903142154216766,
      -0.13205848634243011,
      0.04824119806289673,
      -0.04468591511249542,
      0.054086942225694656,
      0.07385504245758057,
      -0.017476480454206467,
      -0.08738912642002106,
      -0.045559559017419815,
      -0.06287102401256561,
      0.051638104021549225,
      -0.010308640077710152,
      0.059878941625356674,
      -0.03604701906442642,
      0.0006051970995031297,
      0.09809906780719757,
      -0.10502900183200836,
      -0.03205856680870056,
      -0.00567000824958086,
      -0.039124924689531326,
      0.01292965654283762,
      0.04236114025115967,
      -0.032645612955093384,
      -0.021676845848560333,
      -0.0732390433549881,
      0.04644900560379028,
      0.040971871465444565,
      0.04859107732772827,
      0.09243209660053253,
      0.03660473972558975,
      0.04291982203722,
      -0.0038921001832932234,
      0.08045680075883865,
      -0.08073782175779343,
      -0.11578585207462311,
      0.16084177792072296,
      -1.343666911125183,
      -0.14743512868881226,
      -0.030647657811641693,
      0.4735065698623657,
      -0.7904255390167236,
      0.244904026389122,
      0.07213730365037918,
      0.16613541543483734,
      -0.052865542471408844,
      -0.04096259921789169,
      -0.12118209898471832,
      0.11084159463644028,
      0.10239242017269135,
      -0.2022732049226761,
      -1.0107226371765137,
      -0.031325459480285645,
      0.026242606341838837,
      0.10319364070892334,
      0.16207554936408997,
      0.4853328466415405,
      0.0004656463861465454,
      -0.27950045466423035,
      -0.025114301592111588,
      0.25142407417297363,
      0.07399234175682068,
      0.4841781556606293,
      0.03189098834991455,
      -0.5860404968261719,
      0.0003895411209668964,
      -0.1129336878657341,
      -0.0876125693321228,
      0.09025740623474121,
      -0.16292715072631836,
      0.05927453935146332,
      0.7499592900276184,
      -0.16963468492031097,
      -0.35913556814193726,
      0.0628567487001419,
      -0.03877260535955429,
      -0.8069806098937988,
      -0.056938476860523224,
      -0.048259187489748,
      0.04199295490980148,
      -0.46948984265327454,
      0.12378909438848495,
      -0.04858742654323578,
      0.3546564280986786,
      0.1858171671628952,
      0.4032605290412903,
      0.0771590918302536,
      0.03921438753604889,
      0.13872994482517242,
      -0.720842719078064,
      -0.09614606946706772,
      -0.2792351245880127,
      -0.04275480657815933,
      -0.0971328616142273,
      -0.33082637190818787,
      -0.05052480101585388,
      -0.45774874091148376,
      0.3902650475502014,
      0.5135946273803711,
      -0.11756060272455215,
      0.06954649835824966,
      -0.1440686732530594,
      -0.06692299246788025,
      0.018629489466547966,
      -0.019230220466852188,
      0.05922446772456169,
      -0.11116288602352142,
      0.04814428091049194,
      0.07191982120275497,
      -0.012692133896052837,
      -0.23960164189338684,
      -0.010869848541915417,
      0.3775949776172638,
      0.027254238724708557,
      0.18852384388446808,
      0.010579378344118595,
      -0.0042457496747374535,
      -0.019603822380304337,
      0.10107313841581345,
      0.008837639354169369,
      0.09537121653556824,
      -0.03497421741485596,
      0.0474625900387764,
      -0.0060096560046076775,
      0.25618141889572144,
      0.041272491216659546,
      -0.07959246635437012,
      -0.2910579442977905,
      -0.4969056248664856,
      0.03182608634233475,
      -0.06437790393829346,
      0.11461479216814041,
      -0.10035232454538345,
      -0.06818855553865433,
      0.03798511624336243,
      -0.025344492867588997,
      0.045296549797058105,
      -0.23820336163043976,
      -0.09313643723726273,
      0.08326521515846252,
      0.06895659118890762,
      0.13523714244365692,
      0.15190410614013672,
      0.2089148759841919,
      0.051488157361745834,
      0.07815858721733093,
      0.11571311950683594,
      -0.008291929960250854,
      -0.11927596479654312,
      -0.06437775492668152,
      0.09986791014671326,
      -0.050199851393699646,
      0.17858870327472687,
      0.0565960519015789,
      -0.14149390161037445,
      -0.3332085907459259,
      0.02642984129488468,
      0.12179329991340637,
      -0.0344306044280529,
      0.22945226728916168,
      0.21169842779636383,
      0.14650535583496094,
      0.15560930967330933,
      0.027786985039711,
      0.03977040946483612,
      -0.35028496384620667,
      0.09261753410100937,
      0.06565174460411072,
      0.08258041739463806,
      0.40009593963623047,
      -0.17343541979789734,
      0.06008428335189819,
      0.06288696825504303,
      -0.12858672440052032,
      -0.22775065898895264,
      0.006825030781328678,
      0.017433127388358116,
      0.08191724121570587,
      -0.11310750246047974,
      0.14050038158893585,
      0.07490921765565872,
      -0.011919552460312843,
      -0.018177568912506104,
      0.057555876672267914,
      -0.05634580925107002,
      -0.03939741849899292,
      -0.21246643364429474,
      -0.006756007671356201,
      -0.01759558916091919,
      0.009812623262405396,
      -0.12336071580648422,
      -0.282338410615921,
      -0.5745340585708618,
      -0.04794581979513168,
      0.0877566933631897,
      0.11049478501081467,
      0.0728091448545456,
      0.06160600483417511,
      0.0009704245603643358,
      0.1779641956090927,
      0.15859073400497437,
      0.032818324863910675,
      0.05052425339818001,
      0.2158629447221756,
      0.24380458891391754,
      0.01144125871360302,
      0.013485637493431568,
      0.1783970147371292,
      0.044654909521341324,
      0.04308817908167839,
      -0.12377278506755829,
      -0.0971107929944992,
      -0.07315436005592346,
      0.08323933929204941,
      -0.10061015188694,
      -0.10857412219047546,
      0.16511200368404388,
      0.15928322076797485,
      -0.025767073035240173,
      -0.1568859964609146,
      0.06680889427661896,
      -0.052844151854515076,
      -0.18559864163398743,
      -0.0910477489233017,
      0.3016437590122223,
      0.23019275069236755,
      -0.022404713556170464,
      -0.00621944572776556,
      0.16274848580360413,
      -0.12147010117769241,
      -0.10525407642126083,
      -0.09470117092132568,
      0.1698959916830063,
      -0.12737952172756195,
      0.15050671994686127,
      0.1254940629005432,
      0.22356200218200684,
      -0.25118717551231384,
      -0.2641843557357788,
      0.029116647318005562,
      0.024972066283226013,
      0.0753115862607956,
      0.13801218569278717,
      0.11214672029018402,
      0.31808316707611084,
      0.054686542600393295,
      0.02393447980284691,
      0.10410371422767639,
      0.20930100977420807,
      0.06438052654266357,
      -0.03657905384898186,
      -0.05060630291700363,
      -0.039013441652059555,
      0.06175394356250763,
      0.09181985259056091,
      -0.10530446469783783,
      -0.03774457797408104,
      -0.07437178492546082,
      -0.06502454727888107,
      -0.08529190719127655,
      -0.05117599666118622,
      0.043282847851514816,
      0.014723021537065506,
      0.32191991806030273,
      -0.041520096361637115,
      -0.17712430655956268,
      -0.1129729226231575,
      0.1903664618730545,
      -0.5227991938591003,
      0.014025809243321419,
      -0.003069997765123844,
      -0.20165736973285675,
      0.10778652131557465,
      0.2045678049325943,
      0.01442563533782959,
      0.0487850159406662,
      0.3017547130584717,
      0.2770232856273651,
      0.09530423581600189,
      0.05795091390609741,
      -0.018670890480279922,
      -0.14576196670532227,
      -0.020997976884245872,
      0.4609934687614441,
      0.17768943309783936,
      0.07104805111885071,
      -0.0671980232000351,
      -0.19598062336444855,
      -0.08681665360927582,
      -0.17201721668243408,
      -0.05060368776321411,
      0.2571696937084198,
      -0.12772655487060547,
      0.32815420627593994,
      0.21360325813293457,
      0.05992623046040535,
      -0.023143770173192024,
      -0.022376779466867447,
      0.08271849155426025,
      0.020939938724040985,
      0.20654377341270447,
      0.08198478072881699,
      -0.09474048763513565,
      0.3597860634326935,
      0.07496405392885208,
      -0.04345470666885376,
      -0.044164858758449554,
      -0.007430202793329954,
      -0.2294452041387558,
      0.10155678540468216,
      0.04190557450056076,
      0.07762396335601807,
      0.14244820177555084,
      -0.05180220305919647,
      0.36154448986053467,
      0.12995393574237823,
      0.12193243950605392,
      -0.053577959537506104,
      0.16545960307121277,
      0.12739673256874084,
      0.6160709857940674,
      0.11331639438867569,
      -0.0404294952750206,
      -0.013299766927957535,
      -0.08169327676296234,
      0.024308718740940094,
      -0.041336413472890854,
      -0.11099354922771454,
      -0.03764083608984947,
      -0.048849329352378845,
      0.007253821473568678,
      -0.2660553753376007,
      0.007712823338806629,
      -0.09915393590927124,
      0.15324091911315918,
      -0.38160911202430725,
      0.004927042406052351,
      0.006226405035704374,
      -0.06891864538192749,
      0.06537307798862457,
      0.28757667541503906,
      -0.12246862798929214,
      -0.03979581594467163,
      -0.03421406447887421,
      0.28447505831718445,
      -0.20080527663230896,
      -0.021718250587582588,
      -0.10784118622541428,
      0.15669260919094086,
      -0.059337884187698364,
      0.2657231390476227,
      0.23621147871017456,
      -0.2997942268848419,
      -0.04397788643836975,
      0.150016650557518,
      0.3778596520423889,
      0.05021762102842331,
      -0.08377110213041306,
      -0.3320115804672241,
      -0.07898231595754623,
      0.052871253341436386,
      0.21211358904838562,
      -0.05933145061135292,
      -0.005141755100339651,
      -0.1143111139535904,
      0.028473559767007828,
      0.1836155652999878,
      -0.04040774703025818,
      -0.09082414954900742,
      -0.08418698608875275,
      0.2523984909057617,
      0.06626782566308975,
      0.14189878106117249,
      0.11286677420139313,
      0.10369671881198883,
      0.16143134236335754,
      0.03260485827922821,
      -0.06416809558868408,
      -0.37351757287979126,
      0.07651572674512863,
      -0.0988483801484108,
      -0.11039453744888306,
      0.05297303572297096,
      -0.19073474407196045,
      -0.0045741647481918335,
      -0.10778982937335968,
      -0.018133560195565224,
      0.11606740951538086,
      -0.05519569292664528,
      0.17448201775550842,
      0.07897812873125076,
      0.14519785344600677,
      -0.054278310388326645,
      0.0918823704123497,
      -0.10967046022415161,
      0.08532626926898956,
      0.3552680015563965,
      0.08775301277637482,
      -0.12292471528053284,
      0.10076550394296646,
      -0.03267525136470795,
      0.07712364196777344,
      -0.006471186876296997,
      -0.18731869757175446,
      -0.013614959083497524,
      0.2221481055021286,
      0.011146098375320435,
      0.034212157130241394,
      0.16515976190567017,
      0.053015176206827164,
      0.004404934588819742,
      0.34463953971862793,
      0.18516846001148224,
      0.08482441306114197,
      -0.23159782588481903,
      -0.14046579599380493,
      -0.16355177760124207,
      0.22438029944896698,
      0.08284912258386612,
      0.1289973258972168,
      0.15027184784412384,
      0.2308499962091446,
      -0.13691776990890503,
      -0.11351381242275238,
      -0.08769910037517548,
      -0.20063501596450806,
      -0.065240278840065,
      -0.15329474210739136,
      0.1797962337732315,
      -0.15098877251148224,
      0.005276298616081476,
      0.13230572640895844,
      0.195786714553833,
      0.12338732182979584,
      -0.26976847648620605,
      0.164083331823349,
      -0.14978253841400146,
      0.08958828449249268,
      0.06439591199159622,
      0.11868014186620712,
      -0.0632159560918808,
      0.00923706591129303,
      -0.18914265930652618,
      0.14137282967567444,
      0.1915448158979416,
      -0.045632198452949524,
      0.10975375771522522,
      0.028230344876646996,
      0.17527782917022705,
      -0.06528055667877197,
      0.027964679524302483,
      0.004428250249475241,
      -0.12154636532068253,
      0.019699733704328537,
      0.023327425122261047,
      0.2458335906267166,
      0.10914058983325958,
      -0.18430906534194946,
      0.06442555785179138,
      0.01328585296869278,
      0.21429453790187836,
      -0.07546087354421616,
      0.0033425367437303066,
      0.05173582583665848,
      -0.24354037642478943,
      -0.05005864053964615,
      -0.08923564851284027,
      0.1996641755104065,
      0.2387085258960724,
      0.08645123243331909,
      0.10073190927505493,
      0.12392193078994751,
      0.35510849952697754,
      0.08576829731464386,
      -0.028561057522892952,
      -0.09162688255310059,
      0.05124356597661972,
      0.024796858429908752,
      -0.3321093022823334,
      0.08043749630451202,
      -0.04218841344118118,
      0.32776787877082825,
      0.1773068755865097,
      0.1691499948501587,
      0.15782028436660767,
      -0.09446641802787781,
      -0.15190967917442322,
      -0.10137799382209778,
      0.16205523908138275,
      -0.15373539924621582,
      0.22319519519805908,
      0.12235868722200394,
      -0.03814822807908058,
      0.23468531668186188,
      0.16824819147586823,
      -0.3531014323234558,
      -0.25976815819740295,
      -0.06064210832118988,
      -0.08873376995325089,
      -0.04131007939577103,
      0.1397307813167572,
      0.033268511295318604,
      0.08597604930400848,
      0.0796365886926651,
      -0.0025287626776844263,
      -0.02364543080329895,
      -0.16901470720767975,
      0.07459848374128342,
      0.037063710391521454,
      0.024855434894561768,
      0.2781113088130951,
      0.29785946011543274,
      -0.060304149985313416,
      0.10619491338729858,
      0.17519131302833557,
      0.07021833211183548,
      -0.02273072674870491,
      0.04135816916823387,
      -0.071208156645298,
      -0.00717755313962698,
      -0.10312984138727188,
      0.10846281051635742,
      0.09300646185874939,
      0.17771068215370178,
      -0.2890649735927582,
      -0.003919304348528385,
      -0.15346385538578033,
      0.30736663937568665,
      0.062319863587617874,
      0.016781918704509735,
      0.09740643203258514,
      -0.0049804686568677425,
      -0.22602900862693787,
      0.24302874505519867,
      0.09843645989894867,
      0.11920596659183502,
      -0.3136131167411804,
      -0.1414053738117218,
      0.21542732417583466,
      0.119782455265522,
      0.0501396544277668,
      0.06168384850025177,
      0.1138400137424469,
      -0.15116186439990997,
      0.0033199344761669636,
      0.07697226107120514,
      0.0932718962430954,
      -0.29126259684562683,
      0.04345565289258957,
      -0.028576744720339775,
      0.24599842727184296,
      0.12091841548681259,
      0.03001904860138893,
      -0.08972436189651489,
      -0.041307806968688965,
      0.3681137263774872,
      0.10791630297899246,
      -0.10580696165561676,
      -0.1711994856595993,
      -0.18145307898521423,
      -0.1615513116121292,
      0.008430734276771545,
      0.19456641376018524,
      0.11953328549861908,
      0.22221079468727112,
      -0.006384734995663166,
      -0.12213354557752609,
      -0.07872065156698227,
      0.1964287906885147,
      0.03281846642494202,
      -0.01642286404967308,
      0.01465329434722662,
      0.004910958930850029,
      0.0765540599822998,
      0.21550573408603668,
      -0.2149427831172943,
      -0.34712302684783936,
      0.050894949585199356,
      -0.0912671908736229,
      0.05550107732415199,
      0.02432565949857235,
      0.06027019023895264,
      -0.1001807227730751,
      -0.030518103390932083,
      0.06826329231262207,
      -0.04906667768955231,
      -0.10771052539348602,
      0.036335788667201996,
      -0.4162534475326538,
      0.02217065542936325,
      -0.04305681958794594,
      0.0032353904098272324,
      0.1691650152206421,
      0.07275477051734924,
      -0.024469181895256042,
      0.12735165655612946,
      0.15174755454063416,
      0.12221156805753708,
      0.043859273195266724,
      0.07362911105155945,
      -0.23509202897548676,
      0.0054805646650493145,
      0.03354380279779434,
      0.3814915418624878,
      0.20914499461650848,
      -0.025645136833190918,
      0.1929672658443451,
      -0.11420620232820511,
      0.12849152088165283,
      -0.13150674104690552,
      -0.04863594099879265,
      -0.014182419516146183,
      -0.05132925510406494,
      0.027937427163124084,
      0.03239133954048157,
      0.09136375784873962,
      -0.10130256414413452,
      -0.07403205335140228,
      0.07578873634338379,
      0.003669753670692444,
      0.11691881716251373,
      0.09526759386062622,
      0.041465193033218384,
      -0.02940399944782257,
      -0.10317331552505493,
      0.043479472398757935,
      0.011161506175994873,
      0.0436616986989975,
      0.0065616220235824585,
      -0.054158225655555725,
      -0.10284529626369476,
      0.05022794008255005,
      -0.10896095633506775,
      0.11811552941799164,
      0.035531044006347656,
      -0.08006741106510162,
      -0.0378933846950531,
      0.120033860206604,
      -0.10605582594871521,
      -0.0375203937292099,
      -0.054929569363594055,
      -0.11821046471595764,
      -0.016261741518974304,
      0.09357333183288574,
      -0.032457903027534485,
      -0.11951063573360443,
      -0.04561595618724823,
      -0.08914144337177277,
      0.058687612414360046,
      -0.04916664958000183,
      0.11426226794719696,
      -0.02715913951396942,
      -0.05531527101993561,
      0.02169954776763916,
      -0.07765607535839081,
      -0.05027903616428375,
      -0.11912867426872253,
      -0.02840690314769745,
      0.0022329092025756836,
      0.10362975299358368,
      -0.055460795760154724,
      0.02388852834701538,
      -0.008086144924163818,
      -0.0779811441898346,
      -0.046473607420921326,
      -0.08609633147716522,
      0.08515508472919464,
      -0.008474603295326233,
      -0.047499075531959534,
      -0.08186550438404083,
      -0.09947556257247925,
      0.014132127165794373,
      0.03858621418476105,
      0.07643301784992218,
      0.035502105951309204,
      -0.055632904171943665,
      0.05996926873922348,
      0.1719256192445755,
      0.11617909371852875,
      0.04384412616491318,
      -0.1777847409248352,
      -0.14973953366279602,
      0.13820408284664154,
      -0.1652696132659912,
      -0.05567418411374092,
      -0.04573651775717735,
      0.11127334088087082,
      0.2855859100818634,
      0.19063684344291687,
      0.0824979841709137,
      -0.255441814661026,
      -0.04174869507551193,
      0.09843811392784119,
      0.051217950880527496,
      0.13067889213562012,
      -0.10175148397684097,
      -0.04850173369050026,
      -0.088250532746315,
      0.17342057824134827,
      0.08896122872829437,
      -0.023949014022946358,
      0.058432891964912415,
      -0.07851055264472961,
      0.31853774189949036,
      0.6126730442047119,
      -0.10409101843833923,
      0.04707203432917595,
      0.09722128510475159,
      -0.053364843130111694,
      0.04728157818317413,
      -0.02128162980079651,
      -0.25251439213752747,
      0.17752857506275177,
      0.06449249386787415,
      0.055893342941999435,
      -0.11660577356815338,
      0.3101067841053009,
      -0.026489773765206337,
      0.01075164694339037,
      -0.18412651121616364,
      -0.09629283100366592,
      -0.12149497866630554,
      0.11404222249984741,
      0.16274382174015045,
      0.10443191230297089,
      0.0001644833100726828,
      0.04032176733016968,
      0.10838213562965393,
      0.2919754087924957,
