{
  "num_layers": 4,
  "layer0": {
    "name": "Conv2d",
    "in_channels": 14,
    "out_channels": 32,
    "weight": [
      -0.24864250421524048,
      -0.15176621079444885,
      -0.17360109090805054,
      -0.12873144447803497,
      -0.2870030105113983,
      0.07403760403394699,
      -0.04348926618695259,
      0.12450721859931946,
      0.11932258307933807,
      -0.03954869508743286,
      -0.28739944100379944,
      -0.021061670035123825,
      0.19660602509975433,
      -0.02762538753449917,
      -0.09058207273483276,
      0.04662424698472023,
      -0.2941448986530304,
      -0.3149142563343048,
      -0.07882094383239746,
      -0.04282746836543083,
      -0.08132785558700562,
      -0.21686020493507385,
      0.17108716070652008,
      -0.3029646873474121,
      0.03749927878379822,
      -0.11274222284555435,
      -0.074123315513134,
      -0.02380133792757988,
      0.49400943517684937,
      -1.2136248350143433,
      1.0132335424423218,
      -0.3337058126926422,
      -0.23084627091884613,
      0.7716612219810486,
      0.30994081497192383,
      0.36608684062957764,
      0.15403816103935242,
      0.12440703064203262,
      -0.17433390021324158,
      0.2666188180446625,
      -0.05227115750312805,
      0.049247197806835175,
      0.09743808209896088,
      1.4475386142730713,
      0.819527268409729,
      0.22350627183914185,
      -0.3948301672935486,
      0.15598292648792267,
      -0.027878398075699806,
      0.11683033406734467,
      0.6148660182952881,
      0.002661889884620905,
      -0.38100799918174744,
      0.0798909068107605,
      0.015688247978687286,
      0.015552937984466553,
      0.42769256234169006,
      0.031995225697755814,
      -0.1194918304681778,
      -1.0864332914352417,
      0.714116096496582,
      0.12017203122377396,
      0.09348172694444656,
      0.2153341919183731,
      0.3507511019706726,
      0.16122396290302277,
      0.2492632418870926,
      -0.26610952615737915,
      0.03527722880244255,
      0.031616657972335815,
      -0.030950350686907768,
      1.0156086683273315,
      -0.9539788365364075,
      1.0309593677520752,
      -0.11123037338256836,
      -0.0814305767416954,
      -0.12467790395021439,
      0.36669307947158813,
      0.39646944403648376,
      0.019824115559458733,
      0.32605409622192383,
      0.29158610105514526,
      0.04265223816037178,
      -0.03200947865843773,
      -0.2222185730934143,
      -0.2652999758720398,
      0.01953711360692978,
      -0.04312046244740486,
      -0.14575693011283875,
      -0.2506500780582428,
      0.012330402620136738,
      -0.23548947274684906,
      0.021191183477640152,
      0.13374674320220947,
      -0.29352107644081116,
      0.21332325041294098,
      0.13115821778774261,
      -0.027899550274014473,
      0.22471442818641663,
      -1.2705442905426025,
      1.1443524360656738,
      -0.10998759418725967,
      0.3930114507675171,
      -0.009858659468591213,
      0.00537689495831728,
      0.4089442491531372,
      0.28105902671813965,
      0.6666218042373657,
      -0.5941948890686035,
      -0.49972474575042725,
      -0.04074913263320923,
      0.01095818541944027,
      -0.17762012779712677,
      -0.05084037408232689,
      -0.023417824879288673,
      -0.23397791385650635,
      -0.2109498381614685,
      -0.0974179357290268,
      -0.19040091335773468,
      0.19958306849002838,
      -0.30128446221351624,
      -0.1386442482471466,
      0.08067237585783005,
      -0.13316938281059265,
      -0.08959075808525085,
      -0.09726972132921219,
      -0.2037276327610016,
      0.02421921119093895,
      0.1502263993024826,
      -0.20300298929214478,
      -0.02477939799427986,
      -0.03405105695128441,
      -0.21269972622394562,
      -0.2783201038837433,
      0.03149658069014549,
      -0.1816176027059555,
      0.040047530084848404,
      0.16294363141059875,
      -0.0681038349866867,
      0.21904967725276947,
      0.15692858397960663,
      -0.046472951769828796,
      -0.015044131316244602,
      -0.12762829661369324,
      -0.11372066289186478,
      -0.09856993705034256,
      -0.06053963303565979,
      0.21798059344291687,
      -0.22079946100711823,
      -0.21934044361114502,
      0.18976165354251862,
      0.016655413433909416,
      0.1149727925658226,
      -0.003468638053163886,
      -0.24642124772071838,
      0.34618231654167175,
      -1.0849840641021729,
      0.701191246509552,
      -0.10707235336303711,
      0.8243059515953064,
      -0.13228042423725128,
      -0.18834567070007324,
      -0.06765953451395035,
      -0.15044757723808289,
      0.309203565120697,
      -0.09348694980144501,
      0.028597718104720116,
      -0.0017086296575143933,
      0.11562035977840424,
      -0.3854333460330963,
      0.1561487913131714,
      -0.3330395221710205,
      -1.88539719581604,
      -0.20351572334766388,
      0.6920368075370789,
      -0.26642104983329773,
      -0.262543261051178,
      -0.29906123876571655,
      0.04183340445160866,
      -0.004426741972565651,
      0.028842538595199585,
      -0.008541816845536232,
      -0.18149298429489136,
      -0.1721819043159485,
      0.1605304777622223,
      -0.10623820126056671,
      -0.08887751400470734,
      0.10393455624580383,
      -0.20380589365959167,
      -0.1360202431678772,
      0.1175539493560791,
      -0.19825637340545654,
      -0.020525053143501282,
      -0.2490348517894745,
      -0.09427542984485626,
      0.22151082754135132,
      0.9385981559753418,
      -0.13942769169807434,
      -0.4809228777885437,
      1.0826956033706665,
      -1.4237926006317139,
      1.0005766153335571,
      0.1528938114643097,
      0.19136853516101837,
      0.1965460181236267,
      -0.19461940228939056,
      -0.4414268136024475,
      0.10103055834770203,
      0.006330904550850391,
      -0.03601885586977005,
      0.2800048887729645,
      1.1280555725097656,
      0.9405996203422546,
      -0.4290904402732849,
      -0.06172722578048706,
      0.14847776293754578,
      -0.6440963745117188,
      0.3704136908054352,
      0.7346112728118896,
      0.00248553860001266,
      -0.3711302578449249,
      0.11440227925777435,
      -0.05791788175702095,
      0.024083884432911873,
      -0.07453397661447525,
      -0.8322488069534302,
      -0.6010048389434814,
      0.6948449611663818,
      0.9956693053245544,
      -0.512030839920044,
      0.31663569808006287,
      -0.11119742691516876,
      -0.44526126980781555,
      0.48041120171546936,
      0.19069521129131317,
      0.1589536964893341,
      -0.0014137710677459836,
      -0.03293929249048233,
      1.3622678518295288,
      0.15732911229133606,
      -0.4899919629096985,
      -0.00746772438287735,
      -0.18157735466957092,
      -0.37582138180732727,
      -0.1938011646270752,
      0.35302284359931946,
      -0.09724169224500656,
      -0.5362077355384827,
      -0.12239488959312439,
      -0.5043749809265137,
      -0.004724991973489523,
      0.00821866374462843,
      -0.16491347551345825,
      -0.2741663455963135,
      0.08725670725107193,
      -0.04691275954246521,
      -0.01224447414278984,
      -0.23294544219970703,
      0.07502052187919617,
      -0.18839873373508453,
      -0.022288717329502106,
      0.06911550462245941,
      0.1291949450969696,
      0.0869785025715828,
      -0.13492451608181,
      -0.14850488305091858,
      -0.10249193757772446,
      0.9485607147216797,
      0.6156918406486511,
      0.37878304719924927,
      0.3846554756164551,
      -1.109961748123169,
      -0.1447608470916748,
      -0.39249253273010254,
      0.6351875066757202,
      -0.2857496738433838,
      -0.0642203688621521,
      -1.1360927820205688,
      -0.012722707353532314,
      -0.001069112797267735,
      -0.34027665853500366,
      -0.027901574969291687,
      -0.2704659104347229,
      -0.10671713948249817,
      0.11002015322446823,
      0.02890230342745781,
      -0.037292592227458954,
      0.10697335749864578,
      -0.2743511497974396,
      0.15924876928329468,
      -0.21178744733333588,
      -0.27288222312927246,
      0.19408155977725983,
      0.1420808583498001,
      -0.25438666343688965,
      -0.2820286750793457,
      -0.07204939424991608,
      -0.046093881130218506,
      0.02034812793135643,
      0.10810649394989014,
      0.04905903711915016,
      -0.03943886235356331,
      0.10924553871154785,
      -0.07019665837287903,
      -0.0739288404583931,
      -0.1790703684091568,
      -0.14729361236095428,
      -0.0929022878408432,
      0.07822263985872269,
      -0.14723271131515503,
      0.09418443590402603,
      -0.31710195541381836,
      -0.11628562957048416,
      -0.10671152174472809,
      -0.0851057916879654,
      0.0050810095854103565,
      -0.13268879055976868,
      -0.23808008432388306,
      -0.17734096944332123,
      -0.3360690772533417,
      -0.13276728987693787,
      0.14866375923156738,
      0.13323046267032623,
      0.040499716997146606,
      -0.177970290184021,
      -0.23678405582904816,
      0.06339561194181442,
      -0.21940076351165771,
      -0.06117517128586769,
      0.16096167266368866,
      -0.23644129931926727,
      0.12405604869127274,
      -0.232991561293602,
      -0.270906537771225,
      -0.1179036870598793,
      -0.08924789726734161,
      -0.1508890688419342,
      0.1589844524860382,
      -0.2018236219882965,
      0.22915425896644592,
      -0.22707593441009521,
      -0.22423969209194183,
      -0.1945924460887909,
      -0.2189573347568512,
      0.06934559345245361,
      -0.13139742612838745,
      -0.13629981875419617,
      0.10196349024772644,
      -0.01608353853225708,
      0.222497820854187,
      -1.2244493961334229,
      -0.4594472646713257,
      0.867045521736145,
      0.06864653527736664,
      0.33445462584495544,
      -0.026712018996477127,
      0.4472846984863281,
      0.14000791311264038,
      0.4949953258037567,
      0.4143100380897522,
      0.07184934616088867,
      -0.2133660912513733,
      0.009220633655786514,
      -0.0025068840477615595,
      0.072081558406353,
      0.06712165474891663,
      -0.24029918015003204,
      0.10265844315290451,
      -0.2857324481010437,
      0.062032800167798996,
      0.018746832385659218,
      0.12928959727287292,
      -0.3484621047973633,
      0.1462482511997223,
      -0.009260352700948715,
      0.01122281327843666,
      -0.03796810656785965,
      0.11371626704931259,
      0.5592761039733887,
      0.009000339545309544,
      -0.9808331727981567,
      0.8138847351074219,
      0.009628857485949993,
      0.3869229257106781,
      -0.10402476042509079,
      -0.19673344492912292,
      -0.3770154118537903,
      -0.38488873839378357,
      -0.06693947315216064,
      0.13050542771816254,
      -0.03096660226583481,
      -0.01591704599559307,
      1.1079468727111816,
      -0.39806005358695984,
      0.29194530844688416,
      -0.10328177362680435,
      0.14617425203323364,
      -0.8299887776374817,
      0.005891178268939257,
      0.4904094636440277,
      0.1330321729183197,
      0.15242353081703186,
      -0.3447273075580597,
      0.09751906991004944,
      -0.030351314693689346,
      -0.03086257167160511,
      0.5798018574714661,
      -0.2753838300704956,
      0.8718167543411255,
      0.4936542809009552,
      0.47919443249702454,
      0.9031270146369934,
      -0.2782408893108368,
      0.4826192855834961,
      0.011552390642464161,
      0.036758579313755035,
      -0.11710217595100403,
      0.3583301305770874,
      -0.08771470934152603,
      0.02947373501956463,
      0.42473143339157104,
      -1.1030261516571045,
      0.48870864510536194,
      0.2393827885389328,
      -0.8049893975257874,
      -0.17645102739334106,
      0.3311860263347626,
      0.3977947533130646,
      0.13215669989585876,
      0.050040967762470245,
      -0.3186852037906647,
      -0.21983827650547028,
      -0.02653243951499462,
      0.01978413574397564,
      0.5533559918403625,
      -0.88071608543396,
      0.4804207682609558,
      0.3134739100933075,
      0.6922871470451355,
      0.06464136391878128,
      -0.3670051693916321,
      0.34151700139045715,
      -0.10928846895694733,
      -0.44021427631378174,
      -0.7829636931419373,
      0.22143864631652832,
      -0.044554416090250015,
      0.03479306027293205
    ],
    "bias": [
      -0.10828942060470581,
      -0.1106652244925499,
      -0.30416935682296753,
      -0.6909313797950745,
      0.00824304111301899,
      0.23804713785648346,
      0.021151067689061165,
      -0.5252028107643127,
      -0.10314066708087921,
      -0.20849867165088654,
      -0.17844484746456146,
      0.501965343952179,
      0.6710217595100403,
      -0.2650580108165741,
      -1.0197739601135254,
      -0.843518853187561,
      0.5588769316673279,
      0.2794371545314789,
      -0.2767331898212433,
      0.0013116190675646067,
      -0.30540311336517334,
      -0.2415921688079834,
      -0.19947601854801178,
      -0.26578813791275024,
      -0.22401899099349976,
      0.2931855320930481,
      -0.27859628200531006,
      -0.04240347072482109,
      0.06814216822385788,
      -0.9747472405433655,
      0.5434718728065491,
      -0.44330450892448425
    ]
  },
  "layer1": {
    "name": "ReLU"
  },
  "layer2": {
    "name": "Conv2d",
    "in_channels": 32,
    "out_channels": 8,
    "weight": [
      0.012618395499885082,
      -0.07789715379476547,
      0.6106567978858948,
      -0.08315195143222809,
      -0.36384376883506775,
      -0.9786372184753418,
      -0.13085103034973145,
      0.08622272312641144,
      0.11741533875465393,
      -0.1421031504869461,
      -0.009481413289904594,
      -0.6460498571395874,
      -0.06027625873684883,
      0.17429156601428986,
      0.11423461884260178,
      0.06021162122488022,
      -0.5341978669166565,
      0.04358009621500969,
      -0.151799276471138,
      -0.3085891306400299,
      -0.004260529298335314,
      -0.11288107186555862,
      -0.02043904736638069,
      0.16486632823944092,
      -0.11469052731990814,
      0.23343993723392487,
      -0.10905704647302628,
      -0.32837170362472534,
      0.22792568802833557,
      -0.2616479694843292,
      0.8307989835739136,
      0.2253744900226593,
      -0.03887057304382324,
      0.010652195662260056,
      0.5658011436462402,
      -0.14879350364208221,
      -0.2381666749715805,
      -0.5588302612304688,
      0.0228287186473608,
      0.5920592546463013,
      -0.003547924105077982,
      -0.12560631334781647,
      -0.06211362034082413,
      -0.4200727045536041,
      0.23356348276138306,
      -0.1257285177707672,
      -0.13874757289886475,
      0.04030036926269531,
      0.5206623673439026,
      -0.027338095009326935,
      0.06762876361608505,
      0.2024122029542923,
      -0.13002800941467285,
      0.06985477358102798,
      0.06530317664146423,
      0.04540930315852165,
      0.03476893901824951,
      0.42162349820137024,
      0.12774565815925598,
      0.017060745507478714,
      0.3167944848537445,
      0.7816096544265747,
      0.22238412499427795,
      0.467504620552063,
      -0.09609860926866531,
      0.13356974720954895,
      0.6053450107574463,
      -0.08241576701402664,
      -0.3113105297088623,
      -0.5260528922080994,
      0.002472857479006052,
      1.0882575511932373,
      -0.0756201297044754,
      -0.019625235348939896,
      0.0244411863386631,
      -0.4410429298877716,
      -0.4758446216583252,
      0.14026613533496857,
      -0.031607575714588165,
      -0.1466483324766159,
      0.4010065793991089,
      -0.02372041530907154,
      0.1491580456495285,
      0.14181427657604218,
      0.14112548530101776,
      0.16655470430850983,
      -0.0969800055027008,
      0.08575477451086044,
      0.03557191789150238,
      0.41098618507385254,
      0.04103126749396324,
      0.007091057952493429,
      0.4010058343410492,
      0.7647680044174194,
      0.3148341178894043,
      -0.2907317280769348,
      0.11701610684394836,
      0.05939998850226402,
      0.37495487928390503,
      1.0260378122329712,
      -1.3807505369186401,
      0.6921565532684326,
      0.024637943133711815,
      1.1727432012557983,
      -0.10890229046344757,
      -0.01803003065288067,
      -0.12636391818523407,
      0.7444851398468018,
      2.1918160915374756,
      -0.08519382774829865,
      7.019012451171875,
      -3.049043655395508,
      -0.4698794484138489,
      0.621552586555481,
      0.020991327241063118,
      0.8684675097465515,
      0.08499401807785034,
      0.03339872881770134,
      -0.01642853207886219,
      0.024699995294213295,
      -0.07903067022562027,
      -0.370735764503479,
      -0.1425854116678238,
      0.6725516319274902,
      -0.024699274450540543,
      0.16039416193962097,
      0.7943587303161621,
      0.4193514585494995,
      0.1366230994462967,
      -0.046514786779880524,
      0.1709817796945572,
      -1.024539589881897,
      -0.3656531870365143,
      -0.014687665738165379,
      -0.08466093987226486,
      0.03765005245804787,
      0.03702997788786888,
      0.1414210945367813,
      -0.10100782662630081,
      0.6246542930603027,
      0.04239115118980408,
      -0.12369333207607269,
      -0.09929526597261429,
      -0.20876619219779968,
      0.47814568877220154,
      -0.523507297039032,
      0.07540404796600342,
      -0.5384532809257507,
      -0.07608197629451752,
      -0.0019952531438320875,
      0.0964520275592804,
      -0.10318160057067871,
      -0.08823180943727493,
      1.0680214166641235,
      -0.11362982541322708,
      -0.10980202257633209,
      -0.5403425097465515,
      -0.567968487739563,
      0.5650586485862732,
      0.11421401798725128,
      0.07083948701620102,
      0.2123241126537323,
      0.16524386405944824,
      1.091350793838501,
      -0.3104829490184784,
      0.02312474697828293,
      0.02854788489639759,
      -0.16397327184677124,
      0.09810561686754227,
      0.008423823863267899,
      -0.1661895215511322,
      -0.16085515916347504,
      0.13052760064601898,
      0.12438075244426727,
      -0.09905537217855453,
      -0.1521732658147812,
      -0.6940323710441589,
      -0.7780340313911438,
      -0.03196597844362259,
      0.4236278533935547,
      0.04301182180643082,
      -0.1311076432466507,
      0.0673031359910965,
      -0.06608662754297256,
      0.017240121960639954,
      0.9127805233001709,
      0.15310893952846527,
      -0.2607457935810089,
      -0.4797179698944092,
      0.6215303540229797,
      -0.4151468873023987,
      0.1497199684381485,
      0.06846922636032104,
      0.03948201239109039,
      0.6526800394058228,
      0.40552836656570435,
      -0.370897501707077,
      0.5165724754333496,
      -0.16084492206573486,
      -0.8253020644187927,
      -0.12963981926441193,
      0.11105059087276459,
      0.12884290516376495,
      0.5856261253356934,
      0.35726696252822876,
      0.060664862394332886,
      3.4634456634521484,
      -0.3031875491142273,
      -0.2564619183540344,
      0.5172056555747986,
      -0.41536128520965576,
      -0.5988773703575134,
      -0.06903865188360214,
      0.03171567991375923,
      0.08668580651283264,
      0.05374488607048988,
      0.05894938111305237,
      -0.8311761617660522,
      0.05835815891623497,
      0.7112598419189453,
      0.05468450114130974,
      0.9316124320030212,
      0.4882657527923584,
      0.737532377243042,
      0.011369653046131134,
      -0.012043213471770287,
      -0.4401112496852875,
      0.11051985621452332,
      -0.9601339101791382,
      0.4377003014087677,
      -0.024059828370809555,
      -0.18503223359584808,
      -0.00609783036634326,
      0.028241634368896484,
      -0.047564003616571426,
      -0.32401925325393677,
      0.10997438430786133,
      -0.08457481861114502,
      -0.009786155074834824,
      -0.12479963153600693,
      0.4488215446472168,
      0.015333300456404686,
      -0.02426382154226303,
      0.5903290510177612,
      -0.019266754388809204,
      0.09616368263959885,
      0.04477175697684288,
      -0.1343504637479782,
      0.11664463579654694,
      0.44420477747917175,
      -0.15454161167144775,
      -0.07353682816028595,
      0.3500555455684662,
      -0.4574662148952484,
      0.45375797152519226,
      0.26383450627326965
    ],
    "bias": [
      0.2442963421344757,
      -0.2578233778476715,
      -0.11203404515981674,
      0.8089686036109924,
      0.5374429225921631,
      -0.24127846956253052,
      0.1390261948108673,
      -0.08678791671991348
    ]
  },
  "layer3": {
    "name": "Sigmoid"
  }
}