{
  "num_layers": 4,
  "layer0": {
    "name": "Conv2d",
    "in_channels": 14,
    "out_channels": 32,
    "weight": [
      0.6146534085273743,
      -0.3480415940284729,
      -0.33992522954940796,
      1.1564750671386719,
      -0.8866356611251831,
      -1.2598834037780762,
      -0.37106558680534363,
      0.10520698130130768,
      -0.037850651890039444,
      -0.17531444132328033,
      -0.17226767539978027,
      1.110844612121582,
      -0.0008470189641229808,
      0.03592503443360329,
      -0.6259279251098633,
      0.4739912152290344,
      0.2868538498878479,
      1.1703550815582275,
      -1.200770378112793,
      -0.5469180941581726,
      -1.0640003681182861,
      -2.3991522789001465,
      -1.2217003107070923,
      -0.2727336585521698,
      -0.834884524345398,
      0.8565011024475098,
      0.06534379720687866,
      0.01258881762623787,
      0.9775997996330261,
      -0.7671839594841003,
      -0.9317070841789246,
      0.42323037981987,
      -0.49635565280914307,
      -0.8066348433494568,
      -0.08193473517894745,
      -0.2963069975376129,
      -0.1547134965658188,
      0.22382012009620667,
      0.5007161498069763,
      0.6352117657661438,
      -0.010874280706048012,
      -0.0014594694366678596,
      -0.8134391903877258,
      -0.4429408311843872,
      1.223991870880127,
      0.7758164405822754,
      -0.7038516998291016,
      -0.011048001237213612,
      0.37144362926483154,
      0.05623892322182655,
      -0.2736002504825592,
      0.6238070130348206,
      0.05456823483109474,
      -0.1476895809173584,
      -0.0187209565192461,
      0.018545495346188545,
      1.6853611469268799,
      -0.2523390054702759,
      -0.6057127118110657,
      0.9913473129272461,
      0.04198786988854408,
      0.21773327887058258,
      -0.7398949265480042,
      0.45787814259529114,
      -0.5916514992713928,
      0.21885357797145844,
      0.10422148555517197,
      -0.03165106847882271,
      0.05906057357788086,
      0.026692181825637817,
      -1.1890709400177002,
      -0.30333346128463745,
      -0.6420419812202454,
      -0.04313524812459946,
      0.18249358236789703,
      -0.40846869349479675,
      0.1798688769340515,
      1.197182059288025,
      0.2666770815849304,
      0.6795057654380798,
      -0.022609909996390343,
      -0.10438980907201767,
      -0.007656761910766363,
      0.012494235299527645,
      1.181077241897583,
      0.2090286910533905,
      0.41919073462486267,
      0.5823395252227783,
      0.1969100832939148,
      0.08675295859575272,
      -0.9005807638168335,
      0.44889000058174133,
      -0.1933482140302658,
      0.5081232190132141,
      -0.043762173503637314,
      -0.28035107254981995,
      0.00508712837472558,
      -0.005195279605686665,
      -1.068455696105957,
      -1.4409831762313843,
      -0.07111901044845581,
      -0.05835168436169624,
      -0.11039921641349792,
      0.5656309723854065,
      0.27411141991615295,
      0.24586230516433716,
      0.45572569966316223,
      1.3145532608032227,
      0.26558393239974976,
      -0.8165484666824341,
      0.03931478038430214,
      -0.010580315254628658,
      0.9108518362045288,
      1.412276268005371,
      -0.5017536878585815,
      -0.13926750421524048,
      -0.15278950333595276,
      0.10441520065069199,
      -0.39441922307014465,
      -0.418287068605423,
      -0.30602842569351196,
      -1.3202130794525146,
      0.03205495327711105,
      -0.6658850312232971,
      -0.00014588730118703097,
      -0.00155464222189039,
      -0.7383023500442505,
      0.4922178089618683,
      0.48702582716941833,
      -0.9240180850028992,
      -0.41730138659477234,
      0.8120322227478027,
      0.2863401770591736,
      -0.322251558303833,
      0.2452874332666397,
      -0.11892232298851013,
      -0.990978479385376,
      -0.6193037033081055,
      -0.0176254715770483,
      0.004764521960169077,
      -0.10603427141904831,
      0.16072364151477814,
      -0.14522334933280945,
      -0.15548186004161835,
      -0.1533447802066803,
      0.0442223884165287,
      0.2142108678817749,
      -0.06889882683753967,
      0.14222124218940735,
      0.07762081921100616,
      -0.04852622002363205,
      -0.1550196260213852,
      0.08172018826007843,
      -0.15638205409049988,
      -0.02803032100200653,
      -0.17468002438545227,
      0.09740737080574036,
      0.03923991322517395,
      -0.1458701193332672,
      0.1351684033870697,
      -0.2274601310491562,
      -0.040517374873161316,
      0.007708251476287842,
      -0.23779278993606567,
      0.021090716123580933,
      -0.10461047291755676,
      0.059284716844558716,
      -0.01983802020549774,
      0.5147241353988647,
      -1.0254708528518677,
      -0.9504143595695496,
      -1.0359541177749634,
      -0.39374658465385437,
      0.39131081104278564,
      1.0444016456604004,
      -1.1538057327270508,
      0.9226447939872742,
      0.03719913959503174,
      1.1944715976715088,
      -0.17022597789764404,
      0.042331527918577194,
      -0.028375165536999702,
      -0.255258172750473,
      1.0249618291854858,
      0.32643458247184753,
      0.1078801080584526,
      0.9247499704360962,
      0.7790960669517517,
      -0.015023007057607174,
      0.29781433939933777,
      -0.862360954284668,
      -0.10110915452241898,
      -0.27356332540512085,
      0.15101772546768188,
      -0.013541185297071934,
      0.005975805688649416,
      0.008421152830123901,
      -0.16380169987678528,
      -0.2549428641796112,
      -0.03359489142894745,
      -0.2113436758518219,
      0.11961126327514648,
      0.21979618072509766,
      -0.034557074308395386,
      -0.12340036034584045,
      -0.023183748126029968,
      -0.024717673659324646,
      -0.08116172254085541,
      -0.004637330770492554,
      -0.0165712833404541,
      -0.20667818188667297,
      -0.31298917531967163,
      0.12364184856414795,
      -0.19971805810928345,
      -0.10094316303730011,
      -0.03336792439222336,
      -0.17676222324371338,
      0.06668134033679962,
      -0.04424089938402176,
      0.1969192922115326,
      0.03727889806032181,
      -0.26582062244415283,
      -0.1640327274799347,
      -0.18136389553546906,
      -0.16438713669776917,
      0.12375091016292572,
      -0.21391147375106812,
      -0.21752803027629852,
      -0.006307515315711498,
      0.0325809121131897,
      -0.1270158290863037,
      -0.18444666266441345,
      -0.08450434356927872,
      -0.0812905952334404,
      0.10428152233362198,
      0.11844781041145325,
      0.1363777071237564,
      0.02728128992021084,
      0.5728640556335449,
      -1.0461238622665405,
      1.4455444812774658,
      -0.1103217825293541,
      -0.14196021854877472,
      -0.0026473901234567165,
      -0.3557651937007904,
      -0.46630242466926575,
      -0.5357967615127563,
      1.6932989358901978,
      0.8073737025260925,
      0.6408079862594604,
      -0.0025442480109632015,
      0.010019178502261639,
      -0.6697958111763,
      0.9169148802757263,
      1.2761808633804321,
      0.4306305944919586,
      0.0555620938539505,
      -0.491296648979187,
      0.0349082313477993,
      0.12070472538471222,
      -0.6437134146690369,
      -0.4731670022010803,
      -0.08023277670145035,
      0.45178624987602234,
      0.009870165959000587,
      -0.0006321470718830824,
      0.5986047983169556,
      0.36885976791381836,
      0.5481269359588623,
      0.9110089540481567,
      0.4267062246799469,
      0.9511531591415405,
      -0.8080892562866211,
      1.0747686624526978,
      -0.15371602773666382,
      -0.2192055732011795,
      -1.196826696395874,
      -1.53207266330719,
      -0.015267670154571533,
      0.013528292067348957,
      1.1207211017608643,
      0.24448098242282867,
      0.9117938280105591,
      -0.666814386844635,
      -0.1252554953098297,
      -0.4194646179676056,
      -1.0182006359100342,
      -0.9860084652900696,
      -1.6248366832733154,
      1.1459085941314697,
      0.7164775729179382,
      -0.9393408894538879,
      -0.01326088234782219,
      0.0017616198165342212,
      0.2491936832666397,
      0.04954109340906143,
      0.05685017630457878,
      0.9549555778503418,
      0.24138446152210236,
      0.79484623670578,
      -0.5442506074905396,
      1.1164698600769043,
      -0.18848109245300293,
      0.4089931845664978,
      -1.8631190061569214,
      -0.7091614007949829,
      0.004563765600323677,
      -0.0001647095923544839,
      0.0846126452088356,
      -0.21506473422050476,
      -0.06718616187572479,
      -0.11342593282461166,
      -0.10925915837287903,
      0.06656275689601898,
      -0.15368928015232086,
      0.04885116219520569,
      0.2107265591621399,
      -0.17694826424121857,
      -0.21841952204704285,
      0.03970039263367653,
      0.046349264681339264,
      0.16591672599315643,
      -1.6074621677398682,
      0.9158244729042053,
      0.8008438348770142,
      0.6819920539855957,
      -0.5757495164871216,
      -1.0503792762756348,
      0.7962632179260254,
      0.0002106515457853675,
      0.04796219989657402,
      -0.3302750289440155,
      0.23827408254146576,
      0.2860795259475708,
      -0.037992291152477264,
      -0.011159755289554596,
      0.8924488425254822,
      -0.14551565051078796,
      -0.3306264579296112,
      -0.9402180314064026,
      -0.5272400379180908,
      0.29582300782203674,
      0.21340198814868927,
      -0.35182511806488037,
      0.897236168384552,
      0.07745938003063202,
      0.3199956715106964,
      0.25391054153442383,
      0.03594352677464485,
      -0.012827206403017044,
      0.08021227270364761,
      0.16808150708675385,
      -0.15908749401569366,
      -0.08732916414737701,
      -0.13672716915607452,
      -0.04401867464184761,
      -0.3045910596847534,
      -0.25883162021636963,
      0.06116046383976936,
      -0.22941161692142487,
      0.027083491906523705,
      -0.20412476360797882,
      0.22400905191898346,
      -0.01371327880769968,
      0.6001302003860474,
      -1.149452567100525,
      0.7120550870895386,
      0.1877814531326294,
      0.5741828083992004,
      -0.43030068278312683,
      -0.0928102433681488,
      -0.40879854559898376,
      0.7542984485626221,
      0.4949036240577698,
      0.43415188789367676,
      0.2805465757846832,
      -0.007006053347140551,
      0.0072822002694010735,
      -0.3372381031513214,
      0.8333505392074585,
      -0.7235926985740662,
      -0.02715476229786873,
      0.6342809796333313,
      -0.9897263050079346,
      0.9720486998558044,
      -0.44313594698905945,
      0.9437035322189331,
      -0.17678041756153107,
      0.3892606496810913,
      -0.03885655105113983,
      -0.04581932723522186,
      0.04633105918765068,
      1.0394686460494995,
      1.0324193239212036,
      1.1747193336486816,
      -0.5477035045623779,
      -0.7540709972381592,
      -0.589478075504303,
      0.7285336852073669,
      -0.8115958571434021,
      -0.003897320479154587,
      0.10946869850158691,
      0.7773910164833069,
      0.30775928497314453,
      -0.028428001329302788,
      0.004898418672382832,
      -0.03937816619873047,
      -0.41078346967697144,
      0.012150469236075878,
      0.13702836632728577,
      -0.22865553200244904,
      0.10221745818853378,
      -0.24748702347278595,
      -0.24364551901817322,
      -0.026803068816661835,
      0.19282884895801544,
      0.05708476901054382,
      0.10871051996946335,
      0.16054584085941315,
      -0.08972401171922684,
      -1.5622280836105347,
      0.9261640310287476,
      0.9588614702224731,
      -0.37477001547813416,
      -0.07402211427688599,
      -0.02586672641336918,
      2.55922794342041,
      0.13754184544086456,
      -0.03168962523341179,
      -0.692142903804779,
      0.7797022461891174,
      0.6012789607048035,
      -0.004663403611630201,
      0.0028946164529770613,
      -0.2025105506181717,
      1.6030962467193604,
      -0.9321161508560181,
      0.714028537273407,
      -0.5759459733963013,
      -0.1598069667816162,
      0.09937423467636108,
      -0.05456709489226341,
      0.19055113196372986,
      -0.31987112760543823,
      -0.26967447996139526,
      -0.5545144081115723,
      -0.020294534042477608,
      0.04228563606739044
    ],
    "bias": [
      0.522772490978241,
      0.3678573966026306,
      0.5406040549278259,
      0.5571128726005554,
      -0.11025483161211014,
      1.1109671592712402,
      -0.9878671169281006,
      0.7783647775650024,
      -0.7665848731994629,
      0.2531115412712097,
      -0.24978433549404144,
      -0.20216938853263855,
      0.9224990606307983,
      -0.7454636096954346,
      -0.10272368788719177,
      -0.32258903980255127,
      -0.20914007723331451,
      -0.37368035316467285,
      -0.5046535730361938,
      -1.9485666751861572,
      -0.429103285074234,
      -0.9806115031242371,
      -0.2339387834072113,
      -0.07674886286258698,
      0.6037465929985046,
      -0.3256707191467285,
      0.12811724841594696,
      0.4481232762336731,
      -0.1807773858308792,
      -0.23132051527500153,
      -0.37963446974754333,
      0.3699863851070404
    ]
  },
  "layer1": {
    "name": "ReLU"
  },
  "layer2": {
    "name": "Conv2d",
    "in_channels": 32,
    "out_channels": 8,
    "weight": [
      -0.36210396885871887,
      0.13873611390590668,
      -0.5486318469047546,
      0.016596918925642967,
      -0.9833345413208008,
      0.1647113710641861,
      0.0701519250869751,
      -0.0746113657951355,
      -0.055914707481861115,
      0.3009640872478485,
      0.12443935126066208,
      -0.02358400821685791,
      -0.2920694947242737,
      1.002213478088379,
      0.053607359528541565,
      0.09338902682065964,
      -0.09265974909067154,
      -0.05414293333888054,
      0.3401026427745819,
      0.050427816808223724,
      0.03035460226237774,
      0.004304183181375265,
      0.02912009321153164,
      -0.03230971097946167,
      -0.08126851916313171,
      -0.10184568166732788,
      -0.2379281222820282,
      -0.01559663936495781,
      0.07907769829034805,
      0.019258959218859673,
      0.19821619987487793,
      -0.20073682069778442,
      0.37178611755371094,
      0.3110427260398865,
      -0.21476686000823975,
      0.4957181215286255,
      -0.5733007788658142,
      0.04059232398867607,
      0.05228426679968834,
      -0.06689788401126862,
      -0.04825318977236748,
      0.28292030096054077,
      0.10426675528287888,
      -0.13281196355819702,
      -0.2845935821533203,
      0.21959492564201355,
      -0.02078956365585327,
      -0.03179989010095596,
      -0.07994802296161652,
      -0.06307484209537506,
      0.5075770616531372,
      0.10838772356510162,
      -0.048818834125995636,
      -0.13501162827014923,
      -0.22776059806346893,
      -0.1544322967529297,
      -0.3938455283641815,
      0.1020004004240036,
      -0.1398455649614334,
      0.05340341478586197,
      0.15672746300697327,
      -0.0838823914527893,
      0.7362662553787231,
      0.2979293167591095,
      -0.458454966545105,
      -0.30156683921813965,
      0.44575345516204834,
      0.8071034550666809,
      -0.4667150676250458,
      0.028522534295916557,
      -0.017634786665439606,
      -0.022861596196889877,
      -0.17610293626785278,
      -0.016651788726449013,
      -0.15288151800632477,
      -0.13442933559417725,
      -0.2789107859134674,
      0.0559755340218544,
      0.01668708026409149,
      -0.11464639008045197,
      0.09872938692569733,
      -0.14763757586479187,
      0.35692107677459717,
      0.008069656789302826,
      -0.07210616767406464,
      -0.02104269713163376,
      -0.23099732398986816,
      1.3018450736999512,
      -0.5247341990470886,
      -0.06961611658334732,
      -0.20505361258983612,
      0.10028589516878128,
      0.3620067238807678,
      -0.03510792925953865,
      0.47162699699401855,
      0.49168017506599426,
      0.5435259938240051,
      0.4667510688304901,
      0.3007441461086273,
      0.2553900182247162,
      0.12126503139734268,
      -1.6635793447494507,
      1.223698377609253,
      -0.9406632781028748,
      -2.7899527549743652,
      1.2503770589828491,
      -0.1568293571472168,
      0.150274857878685,
      1.1477587223052979,
      1.2848578691482544,
      -0.0178288072347641,
      0.19451627135276794,
      -0.1184723973274231,
      -2.576657772064209,
      -0.24787230789661407,
      8.094015121459961,
      -1.9544858932495117,
      3.7347218990325928,
      0.06315714865922928,
      0.39702335000038147,
      0.8638328313827515,
      -0.09020587801933289,
      0.5175679326057434,
      -0.5108217597007751,
      0.36223894357681274,
      -0.28582704067230225,
      0.27137988805770874,
      -0.026933740824460983,
      0.08572575449943542,
      0.05068803206086159,
      0.09051044285297394,
      1.1431087255477905,
      -0.2681797742843628,
      0.2528930604457855,
      -0.47304022312164307,
      0.6509076952934265,
      -0.3565444052219391,
      0.020212894305586815,
      0.02062053419649601,
      -0.15922094881534576,
      -0.021534601226449013,
      -0.3277305066585541,
      -0.0326085090637207,
      -0.06963004916906357,
      0.009146359749138355,
      -0.29891669750213623,
      0.09297527372837067,
      -0.04395430162549019,
      -0.014113552868366241,
      -0.16469626128673553,
      -0.029247144237160683,
      -0.06611473113298416,
      -0.12118594348430634,
      -0.09166844189167023,
      0.42957016825675964,
      -0.17265143990516663,
      -1.2227766513824463,
      0.0833720713853836,
      0.03008902259171009,
      -0.8533046245574951,
      0.04973336681723595,
      0.09396111220121384,
      0.1449747532606125,
      -0.5443174242973328,
      0.02818121947348118,
      0.31210362911224365,
      -0.5361698269844055,
      0.11382637172937393,
      -0.42174044251441956,
      -0.024122096598148346,
      -0.017168454825878143,
      0.1628730446100235,
      0.09669143706560135,
      0.14802086353302002,
      -0.08664485812187195,
      0.07827817648649216,
      -0.11052805930376053,
      -0.18740183115005493,
      0.04662312567234039,
      -0.11335120350122452,
      -0.030339905992150307,
      -0.2830856442451477,
      -0.09130717813968658,
      -0.014153320342302322,
      -0.018077680841088295,
      0.03285176679491997,
      -0.6311643719673157,
      0.36733272671699524,
      -1.1562861204147339,
      -0.0017425304977223277,
      -0.004761050920933485,
      1.1950112581253052,
      0.29088014364242554,
      0.07427860051393509,
      0.49444371461868286,
      -0.0531684048473835,
      1.2061679363250732,
      -1.0937060117721558,
      0.9273645281791687,
      0.47345075011253357,
      -0.8548703789710999,
      0.4815865457057953,
      0.18392065167427063,
      -0.00375540554523468,
      0.025624768808484077,
      1.1394516229629517,
      -0.11398844420909882,
      -0.3923191726207733,
      0.10409071296453476,
      -0.4560842514038086,
      1.17705237865448,
      4.878391742706299,
      -0.49710530042648315,
      1.172807216644287,
      0.01866293139755726,
      -0.6868500709533691,
      -0.30253520607948303,
      0.07194752246141434,
      0.24761299788951874,
      -0.44546744227409363,
      -0.11426522582769394,
      0.03816657140851021,
      -0.016096225008368492,
      0.06525057554244995,
      -0.11854934692382812,
      0.14331671595573425,
      -0.5556259155273438,
      0.39183059334754944,
      -0.2980935275554657,
      0.15718653798103333,
      -0.09168508648872375,
      -0.05897994339466095,
      -0.01727287285029888,
      0.26083001494407654,
      0.05056317150592804,
      0.1424664407968521,
      0.4627559781074524,
      -0.464713454246521,
      -0.134596049785614,
      0.033234234899282455,
      -0.09362966567277908,
      -0.0023144399747252464,
      -0.5495333671569824,
      0.011033160611987114,
      -0.029965797439217567,
      0.18500052392482758,
      -0.07808046042919159,
      -0.17754888534545898,
      0.530043363571167,
      -0.08498964458703995,
      -0.5512649416923523,
      -0.4774523675441742,
      0.14257410168647766,
      -0.08551467210054398,
      0.013821029104292393,
      0.27774086594581604
    ],
    "bias": [
      -0.10245762765407562,
      0.07977624237537384,
      0.07429613918066025,
      1.1869758367538452,
      0.9643447995185852,
      0.4535406529903412,
      -0.01977587677538395,
      0.4344930052757263
    ]
  },
  "layer3": {
    "name": "Sigmoid"
  }
}