{
  "num_layers": 4,
  "layer0": {
    "name": "Conv2d",
    "in_channels": 14,
    "out_channels": 32,
    "weight": [
      -0.7491517663002014,
      0.40141746401786804,
      0.13724730908870697,
      -0.0011525475420057774,
      0.286154180765152,
      -0.4528363347053528,
      0.3386409282684326,
      -0.11175567656755447,
      0.35622042417526245,
      -0.17242765426635742,
      0.20793798565864563,
      -0.17714107036590576,
      -0.011073614470660686,
      -0.03795938938856125,
      0.5899492502212524,
      0.9627913236618042,
      -0.6284334659576416,
      0.2545562982559204,
      -0.8982505798339844,
      -0.16249844431877136,
      -0.17682288587093353,
      -0.6308689713478088,
      -1.0254807472229004,
      -0.7254317402839661,
      0.004031683783978224,
      -0.3083477318286896,
      0.004315883852541447,
      -0.016556547954678535,
      0.020511429756879807,
      -0.003872344736009836,
      -0.015349050983786583,
      -0.003123196540400386,
      -0.01827031560242176,
      -0.11132720857858658,
      -0.01629074104130268,
      -0.3059440553188324,
      0.11370741575956345,
      -0.07317312806844711,
      -0.23150314390659332,
      -0.2781364619731903,
      -0.1399044394493103,
      0.11455120891332626,
      0.04605359956622124,
      -0.18109002709388733,
      -0.3568649888038635,
      -0.22085139155387878,
      -0.1349417120218277,
      -0.2471696138381958,
      -0.25588980317115784,
      0.09345073997974396,
      -0.1780775636434555,
      0.15716485679149628,
      0.12117623537778854,
      -0.3135116696357727,
      -0.057595863938331604,
      0.1459759622812271,
      -0.5872217416763306,
      0.8354091048240662,
      -0.33171817660331726,
      -0.1511003077030182,
      0.09822199493646622,
      0.4721066355705261,
      -0.2403700053691864,
      -0.21588949859142303,
      -0.1578173190355301,
      -0.026397893205285072,
      0.3588811159133911,
      -0.11291959136724472,
      -0.0006905711488798261,
      -0.008702867664396763,
      -0.1399364322423935,
      -0.8422524929046631,
      0.010717344470322132,
      0.14982512593269348,
      -0.3224831521511078,
      0.3461410701274872,
      0.013216391205787659,
      -0.0619182288646698,
      -0.052136681973934174,
      0.12644927203655243,
      -0.17557881772518158,
      0.06615174561738968,
      0.037365805357694626,
      -0.03248196095228195,
      -0.06740083545446396,
      0.21452955901622772,
      0.02703762985765934,
      -0.310356080532074,
      -0.16231632232666016,
      -0.20373959839344025,
      -0.009811940602958202,
      -0.30483025312423706,
      -0.3040394186973572,
      0.08916611224412918,
      -0.16666477918624878,
      -0.01112964004278183,
      0.07821154594421387,
      0.13547565042972565,
      0.07772672176361084,
      0.010804646648466587,
      -0.36541715264320374,
      0.08660443127155304,
      0.022662552073597908,
      -0.23903480172157288,
      -0.008147462271153927,
      -0.26413506269454956,
      -0.20397979021072388,
      -0.04493435472249985,
      -0.09199409931898117,
      -0.31378865242004395,
      0.16711732745170593,
      -0.07452110201120377,
      -0.09083803743124008,
      0.14711062610149384,
      -0.2200869619846344,
      -0.12486623972654343,
      -0.3009725511074066,
      -0.12855687737464905,
      0.10919998586177826,
      -0.2811252176761627,
      0.014993788674473763,
      -0.038044098764657974,
      0.03213169053196907,
      -0.11799199134111404,
      -0.03531596437096596,
      -0.1346130669116974,
      -0.07813694328069687,
      0.06974007934331894,
      -0.2201211303472519,
      0.11865490674972534,
      0.13765016198158264,
      -0.12182332575321198,
      -0.20900234580039978,
      -0.22276344895362854,
      -0.06820342689752579,
      -0.17579352855682373,
      -0.14954370260238647,
      -0.04774632677435875,
      0.0008389424183405936,
      -0.002946991240605712,
      0.8823977708816528,
      -0.2335738241672516,
      0.2991068959236145,
      0.004612190183252096,
      0.2165171504020691,
      -0.41975533962249756,
      -0.21386511623859406,
      -0.15296205878257751,
      -0.02997407130897045,
      0.18687574565410614,
      0.0927395150065422,
      -0.30295029282569885,
      -0.006756781600415707,
      -0.0073431190103292465,
      0.4724222421646118,
      0.4809129536151886,
      0.45103946328163147,
      -0.0523422509431839,
      -0.26154986023902893,
      -0.580050528049469,
      0.015091772191226482,
      -0.5963984727859497,
      0.12970566749572754,
      -0.43779799342155457,
      -0.19497308135032654,
      -0.03193119540810585,
      -0.028882786631584167,
      -0.011779490858316422,
      -0.2227099984884262,
      -0.3309640884399414,
      -0.30857470631599426,
      0.058461062610149384,
      -0.021294068545103073,
      -0.08779831230640411,
      -0.040633827447891235,
      -0.08466532826423645,
      -0.11367974430322647,
      -0.1456986367702484,
      0.03487993776798248,
      -0.08636943250894547,
      0.27492499351501465,
      0.002433265093713999,
      -0.2085825502872467,
      -0.03228003904223442,
      -0.40954670310020447,
      -1.0334795713424683,
      0.7482537031173706,
      -0.26181405782699585,
      0.33994632959365845,
      -0.26497578620910645,
      0.6196181774139404,
      0.05671728402376175,
      -0.017984651029109955,
      0.03660227358341217,
      0.028749540448188782,
      -0.013566892594099045,
      -0.2588465213775635,
      0.1453162282705307,
      -1.4954792261123657,
      -0.3339492082595825,
      0.4362892210483551,
      0.17381015419960022,
      -0.1089872270822525,
      -0.2679625153541565,
      -0.08601605147123337,
      0.14887699484825134,
      -0.038167018443346024,
      0.0715646892786026,
      0.07429595291614532,
      -0.017155850306153297,
      -0.3685101270675659,
      0.535679042339325,
      -0.3497236371040344,
      0.04277753829956055,
      -0.536946713924408,
      0.5342214107513428,
      0.11928173154592514,
      0.010671277530491352,
      0.26695752143859863,
      0.0009256916819140315,
      -0.1187795102596283,
      0.4682738482952118,
      0.08639227598905563,
      0.026203759014606476,
      0.007685551885515451,
      -0.10840418189764023,
      0.08337053656578064,
      -0.13829024136066437,
      -0.17880606651306152,
      -0.11517402529716492,
      0.08285319805145264,
      -0.08280932158231735,
      -0.2186318337917328,
      -0.09229949861764908,
      -0.33273619413375854,
      0.04426422342658043,
      -0.014271656982600689,
      -0.05029984563589096,
      0.605545163154602,
      0.7598664164543152,
      0.7814520597457886,
      0.04148585721850395,
      -0.3254130482673645,
      -0.26128917932510376,
      -0.5067036747932434,
      0.10809367150068283,
      0.07196983695030212,
      0.12389413267374039,
      -0.13283367455005646,
      -0.1135755106806755,
      -0.049151353538036346,
      0.005918019916862249,
      0.19015716016292572,
      0.17137645184993744,
      -0.5843187570571899,
      0.3335267901420593,
      0.699374794960022,
      -0.30277368426322937,
      0.3672369718551636,
      0.2845612168312073,
      0.09852241724729538,
      0.3185398578643799,
      0.4896743595600128,
      -0.20367850363254547,
      -0.006031730677932501,
      0.01739022321999073,
      -0.16029348969459534,
      0.27272140979766846,
      1.1802089214324951,
      -0.2856700122356415,
      -0.18537303805351257,
      -0.18052908778190613,
      -0.18080757558345795,
      0.10577399283647537,
      0.012470802292227745,
      0.10163211077451706,
      -0.002485198900103569,
      -0.024180691689252853,
      -0.028204726055264473,
      -0.011199388653039932,
      -0.21903862059116364,
      -0.4387165307998657,
      -0.057669397443532944,
      0.9225888848304749,
      -1.0849051475524902,
      0.2610115706920624,
      -0.40977078676223755,
      -0.9321044683456421,
      -0.9133707284927368,
      -0.6691588163375854,
      -0.021251335740089417,
      -0.3460499942302704,
      0.09530674666166306,
      -0.016090152785182,
      0.15948840975761414,
      -0.14169910550117493,
      -0.2396335005760193,
      0.15196771919727325,
      -0.31573933362960815,
      0.12039276212453842,
      0.01778896525502205,
      -0.21185052394866943,
      0.05845437943935394,
      -0.312386155128479,
      -0.04338541254401207,
      -0.009551181457936764,
      0.08814045041799545,
      0.05528612062335014,
      -0.13070860505104065,
      0.021428002044558525,
      -0.014021982438862324,
      0.023466777056455612,
      -0.24832358956336975,
      -0.27585530281066895,
      -0.01902827061712742,
      -0.03576749190688133,
      -0.28420791029930115,
      -0.3396132290363312,
      0.1893511414527893,
      0.042865604162216187,
      0.232286274433136,
      -0.0015376025112345815,
      0.32885676622390747,
      0.5213730931282043,
      -1.1116300821304321,
      0.3088732361793518,
      -0.2741359770298004,
      0.16287042200565338,
      0.03078591078519821,
      0.08546146750450134,
      0.21049612760543823,
      -0.0015073198592290282,
      -0.2144736498594284,
      0.083578921854496,
      0.01660335436463356,
      -0.006008725147694349,
      -0.28123849630355835,
      0.03222435712814331,
      -0.016710875555872917,
      -0.18158262968063354,
      0.021189918741583824,
      -0.16270466148853302,
      -0.015583244152367115,
      -0.28211063146591187,
      -0.17021727561950684,
      -0.1956651210784912,
      -0.09528245776891708,
      -0.2189122438430786,
      -0.11061294376850128,
      -0.10718153417110443,
      0.6574328541755676,
      0.6273479461669922,
      0.1351689249277115,
      0.45802003145217896,
      -0.548999547958374,
      -0.15278449654579163,
      -0.29369932413101196,
      0.004796213004738092,
      -0.25624868273735046,
      0.20578442513942719,
      -0.30679044127464294,
      -0.3045428991317749,
      -0.01915866695344448,
      0.008163459599018097,
      -0.19981877505779266,
      0.04846523702144623,
      0.05177590996026993,
      -0.16667118668556213,
      -0.20556311309337616,
      -0.11575900763273239,
      -0.020490212365984917,
      -0.05241800472140312,
      -0.11575611680746078,
      -0.11240214109420776,
      -0.007576314266771078,
      -0.21022655069828033,
      -0.08991262316703796,
      -0.1279541701078415,
      -0.07616808265447617,
      -0.16311098635196686,
      -0.23204436898231506,
      -0.22610190510749817,
      -0.04931402578949928,
      -0.13580447435379028,
      -0.24136410653591156,
      -0.0666731521487236,
      -0.18525093793869019,
      0.11233172565698624,
      0.18612731993198395,
      -0.2512231469154358,
      -0.025917544960975647,
      0.17995746433734894,
      -0.16199363768100739,
      0.10795243084430695,
      -0.8092750906944275,
      0.5428912043571472,
      0.46704423427581787,
      -0.17460761964321136,
      0.1378033310174942,
      -0.15505389869213104,
      -0.3591882288455963,
      0.22972622513771057,
      0.5416426658630371,
      -0.6601573824882507,
      0.02480720728635788,
      -0.010433923453092575,
      0.5928639769554138,
      0.048958420753479004,
      -0.46154820919036865,
      -0.7373880743980408,
      0.38089096546173096,
      0.11444829404354095,
      -0.06414526700973511,
      -0.03287282958626747,
      0.22082282602787018,
      0.0707063376903534,
      -0.35649967193603516,
      0.22282904386520386,
      0.006161119323223829,
      -0.014679599553346634,
      -0.20033082365989685,
      0.2845701277256012,
      0.1733824610710144,
      0.6317344307899475,
      0.34964719414711,
      -0.2193337082862854,
      -0.19503316283226013,
      0.4877203404903412,
      -0.43751877546310425,
      0.2734719216823578,
      0.07127203792333603,
      -0.5168481469154358,
      -0.10454647988080978,
      0.04874810203909874,
      0.8116516470909119,
      0.3250514268875122,
      -0.27442991733551025,
      -0.046845756471157074,
      -0.5918785333633423,
      0.3451801836490631,
      -0.022558696568012238,
      -0.22223208844661713,
      0.20007158815860748,
      -0.14073853194713593,
      0.025993114337325096,
      0.26224055886268616,
      0.04480456933379173,
      -0.0222066268324852
    ],
    "bias": [
      0.34872350096702576,
      -0.4554567337036133,
      -0.353980153799057,
      -0.0098957484588027,
      0.26785728335380554,
      0.7376556396484375,
      -0.25207290053367615,
      -0.2878764271736145,
      -0.19055715203285217,
      -0.15999725461006165,
      -0.0438653789460659,
      -0.23671866953372955,
      -0.1526893526315689,
      0.5910744667053223,
      0.3831264078617096,
      0.3001822531223297,
      -0.12792254984378815,
      -0.3768886923789978,
      0.007145433686673641,
      0.06441604346036911,
      0.39369985461235046,
      -0.23725533485412598,
      -0.15367485582828522,
      -0.13362255692481995,
      -0.1396220624446869,
      -0.5306083559989929,
      -0.2214173972606659,
      -0.06179936230182648,
      0.40338292717933655,
      0.3570455014705658,
      -0.41889259219169617,
      0.05031190812587738
    ]
  },
  "layer1": {
    "name": "ReLU"
  },
  "layer2": {
    "name": "Conv2d",
    "in_channels": 32,
    "out_channels": 8,
    "weight": [
      -0.07365510612726212,
      -0.13115420937538147,
      0.0034503554925322533,
      -0.005722748581320047,
      -0.23737849295139313,
      -0.08875734359025955,
      -0.12931741774082184,
      0.07577966898679733,
      0.015476744621992111,
      0.16820837557315826,
      0.18760575354099274,
      0.222002312541008,
      0.003994399216026068,
      -0.8381063938140869,
      -0.9243142604827881,
      0.0004791852261405438,
      -0.0547841340303421,
      0.7524287700653076,
      -0.17351023852825165,
      0.26171016693115234,
      -0.09430520981550217,
      0.04950888827443123,
      -0.08514668047428131,
      0.16113941371440887,
      -0.030025949701666832,
      0.7028090953826904,
      -0.09229721873998642,
      0.09280497580766678,
      -0.33697137236595154,
      -0.5187172293663025,
      0.10126632452011108,
      0.18285220861434937,
      -0.08239366114139557,
      -0.18660500645637512,
      0.03204404562711716,
      0.07301568984985352,
      -0.2238377183675766,
      -0.7022404074668884,
      0.1863514930009842,
      -0.024682430550456047,
      0.004814093932509422,
      0.04218088462948799,
      0.31670594215393066,
      0.36275243759155273,
      0.05644358694553375,
      0.37007468938827515,
      -0.30464625358581543,
      -0.1923249065876007,
      0.08267895877361298,
      0.7977073192596436,
      0.06863531470298767,
      0.566096842288971,
      0.4085344076156616,
      -0.0747220367193222,
      -0.04735689237713814,
      -0.046508196741342545,
      -0.017632631585001945,
      -0.051150429993867874,
      -0.034616563469171524,
      -0.16648371517658234,
      -0.3941958546638489,
      0.1589922159910202,
      0.09002450853586197,
      -0.033017199486494064,
      0.019702613353729248,
      -0.24183352291584015,
      0.02949727512896061,
      -0.09609096497297287,
      -0.11098714172840118,
      -0.46493250131607056,
      0.006614539306610823,
      -0.04499993100762367,
      -0.05116495117545128,
      -0.1295965164899826,
      0.3993375599384308,
      0.22452588379383087,
      0.05971057713031769,
      0.04395468160510063,
      -0.12818051874637604,
      -0.19654907286167145,
      0.027379482984542847,
      0.6500373482704163,
      -0.04561365395784378,
      0.5826389789581299,
      0.07514791935682297,
      -0.014615838415920734,
      0.022368019446730614,
      -0.009631233289837837,
      0.07254306972026825,
      0.17293478548526764,
      0.12873336672782898,
      -0.040231551975011826,
      -0.2640073597431183,
      0.1262383759021759,
      -0.27561113238334656,
      -0.029269160702824593,
      0.5030811429023743,
      5.2087626457214355,
      0.031171660870313644,
      0.2204260677099228,
      0.17654474079608917,
      0.5614073276519775,
      0.18271897733211517,
      0.24497009813785553,
      -0.059417422860860825,
      0.14851780235767365,
      0.12401001155376434,
      0.8241975903511047,
      -0.06676489859819412,
      0.26523104310035706,
      1.1966432332992554,
      0.7735856175422668,
      0.004642780404537916,
      -0.1837795078754425,
      0.4919690489768982,
      -0.20394986867904663,
      1.5634487867355347,
      -0.050928838551044464,
      -0.0009784346912056208,
      1.9785889387130737,
      0.1260164976119995,
      2.529466152191162,
      -0.09408619999885559,
      0.09872208535671234,
      0.8570563197135925,
      0.1489265412092209,
      -1.7834666967391968,
      0.9698395729064941,
      -0.709301769733429,
      -0.05751824378967285,
      0.08560984581708908,
      -0.069383405148983,
      -0.5881681442260742,
      0.5028533935546875,
      -0.044906385242938995,
      0.07702179998159409,
      -0.14608003199100494,
      -0.05543432757258415,
      0.6175534129142761,
      -0.12358932942152023,
      -0.07773428410291672,
      -0.10328370332717896,
      0.2811385691165924,
      -0.32144778966903687,
      -0.06026800721883774,
      -0.13403014838695526,
      -0.000517010863404721,
      -0.3510003983974457,
      0.16542311012744904,
      0.025589853525161743,
      -0.11430174112319946,
      -0.08562066406011581,
      -0.019315682351589203,
      0.025939421728253365,
      0.09297726303339005,
      -0.15076200664043427,
      -0.2096944898366928,
      0.515474796295166,
      -0.35838383436203003,
      0.4425511658191681,
      0.04905184730887413,
      0.13115499913692474,
      0.037221264094114304,
      -0.0005057032103650272,
      0.3387400209903717,
      -0.04379111900925636,
      0.05959572643041611,
      0.09473767131567001,
      -0.06739409267902374,
      0.16003717482089996,
      -0.41607964038848877,
      -0.18515950441360474,
      0.018285011872649193,
      -0.08393464237451553,
      0.08617843687534332,
      0.36084023118019104,
      0.016247190535068512,
      0.12730811536312103,
      -0.3803214132785797,
      0.374840646982193,
      0.1290154606103897,
      -0.10591941326856613,
      0.033311232924461365,
      0.046758364886045456,
      -0.10948696732521057,
      -0.14427630603313446,
      0.11702010035514832,
      0.02173173427581787,
      -0.4370238780975342,
      0.019375011324882507,
      -0.6135437488555908,
      0.06487846374511719,
      -0.06438454240560532,
      2.619755744934082,
      -0.004231659695506096,
      0.05228034034371376,
      0.6385695338249207,
      -0.6277512907981873,
      0.00567392585799098,
      -0.04047654569149017,
      0.11848021298646927,
      -0.1497947722673416,
      0.038919493556022644,
      0.5638547539710999,
      -0.03180689364671707,
      0.0989735871553421,
      0.569117546081543,
      0.5194355845451355,
      0.043991100043058395,
      0.7157590985298157,
      0.46156400442123413,
      -0.8015303015708923,
      0.7570659518241882,
      -0.09843486547470093,
      -0.1615256369113922,
      0.9028108716011047,
      -0.09242258220911026,
      0.5602483153343201,
      -0.024093838408589363,
      -0.02779141440987587,
      0.5949348211288452,
      0.48923149704933167,
      -0.24233342707157135,
      1.0528444051742554,
      0.16779763996601105,
      -0.2194046825170517,
      0.0026315711438655853,
      0.1127723678946495,
      -0.23131464421749115,
      0.5272926092147827,
      -0.1457560807466507,
      0.13557304441928864,
      0.034387074410915375,
      0.10795650631189346,
      -0.04545053839683533,
      0.13305425643920898,
      -0.03972865268588066,
      0.16267403960227966,
      0.048402030020952225,
      -0.17453207075595856,
      0.17047721147537231,
      -0.32415735721588135,
      -0.24179835617542267,
      0.2786588668823242,
      0.5188771486282349,
      0.16558147966861725,
      0.1183742880821228,
      -0.30068734288215637,
      -0.21655791997909546,
      0.06001972407102585,
      -0.21818311512470245,
      0.1188201829791069,
      -0.08503692597150803,
      -0.3430602550506592,
      -0.3718680441379547,
      -0.3142123520374298
    ],
    "bias": [
      -0.42093709111213684,
      -0.0006763225537724793,
      0.04174310341477394,
      0.7420056462287903,
      0.08750831335783005,
      -0.014227613806724548,
      0.25916025042533875,
      0.4169197082519531
    ]
  },
  "layer3": {
    "name": "Sigmoid"
  }
}